98 100
</s> 0.0015225 0.00037477 0.00016627 0.0004437 0.0045041 -0.00066595 0.0015541 -0.00059761 -0.0028164 0.0018871 0.0011812 0.0025885 0.00067388 -0.00044954 -0.0013396 -0.0011751 -0.00035682 0.0018225 -0.0010633 -0.00048711 0.00078492 0.0021682 -8.0448e-05 -0.00045955 0.0031659 -0.0020139 0.0010421 0.0013263 6.9413e-05 0.003251 -0.0019426 -0.0034081 -0.0020354 -0.00097861 -0.0013022 -0.0016728 0.00038784 0.0017875 -0.00010346 -0.0018241 0.001916 -0.0018446 -0.0009079 0.0019063 0.0012265 -0.00058766 -0.0017449 0.00094267 -0.00097665 0.00059226 -0.0030263 -0.00081614 -0.0036603 0.0023097 -0.0035642 -0.0020094 -0.0025596 -0.00097763 -0.00073207 0.00025068 -0.0027355 -0.001346 0.0019682 -0.0004445 -0.0021614 -0.0036856 -0.0015572 0.0012306 0.0026128 0.003664 -0.0036861 0.00089861 -0.0021031 -0.0024548 0.00044529 -0.0009865 0.0021761 -4.889e-05 0.0003981 -0.00061434 -0.0010463 0.00086211 -0.00016506 0.00048312 -0.00019938 -0.0040602 7.3477e-06 -0.001199 0.0018618 0.00073416 0.0018645 -0.0010804 -0.00084849 -0.0049684 -0.0017255 -0.0025104 0.00027099 0.0038568 -0.0011865 -0.0017742 
the 0.002364 0.0048581 -0.0034167 0.0041205 0.0040091 0.0020927 -0.0010917 0.0069741 -0.0041722 -0.0021874 -0.00079188 0.0016261 0.0031393 0.00087285 -0.005459 -0.00057033 -0.0018782 0.0036591 0.0027703 0.0008105 -0.0081225 0.0020003 0.011133 0.0015889 -0.00047725 -0.0016642 -0.0014589 0.004716 0.002844 0.0062253 0.0016532 -0.0059325 -0.0061542 -0.00041886 -0.0025445 -0.0021664 -0.0016926 -0.0014389 -0.0032844 0.005244 -0.0068805 0.0064823 -0.0014104 0.0027672 -0.0038447 -0.007462 0.0052731 0.0067984 -0.00079987 0.0045973 -0.0014985 -0.0027887 -0.00065532 0.0011271 -0.0055427 0.00317 -0.0058703 0.0015445 0.0011419 0.0080779 0.00098565 -0.0038387 0.0088384 -0.00019636 -0.006667 -0.0081273 0.0016424 -0.0058225 -0.0026117 -0.00082078 0.0023257 0.00074259 0.0064336 0.0036453 -0.0023417 -0.0017857 0.0044804 0.0022615 0.0071291 -0.0081211 -0.0037824 0.0034726 -0.00099832 0.00070904 0.007899 -0.0071223 -0.0017775 -0.0034178 -0.0023126 0.0012342 0.0007174 -0.0022971 0.0010195 -0.0010627 0.0053241 0.0030793 -0.0026921 -0.00050912 0.00079111 -0.00047178 
to 0.0017428 0.00094539 0.0018873 -0.0002442 0.0071449 -3.1074e-05 -0.0014266 -0.0036133 -0.0016554 0.0007927 -0.007602 0.00022303 0.0022537 -0.006417 -0.0059843 0.0089063 0.0056428 0.00089435 0.00090269 0.0068203 -0.00095088 0.0025951 0.0062584 -0.0037648 0.0036799 -0.0004725 0.004504 -0.0029962 -0.0052381 0.0091218 0.0039838 -0.0044967 -0.0043571 0.0037767 -0.00121 0.0009491 0.00023579 0.004595 0.0004118 0.0045343 -0.0096694 0.0034676 0.0038953 -0.00078821 0.00071385 0.00056926 0.0058692 0.0046044 0.0017883 0.00058904 -0.00081955 -0.0014113 -0.003995 -0.0011617 -0.0030085 0.0061485 -0.00029478 -0.0032884 -0.0031677 0.0027974 0.0016856 -0.00023479 0.010328 -0.00027492 -0.0071057 -0.0049066 0.003997 -0.0010955 -0.0015051 0.0010182 -0.00087023 0.002871 0.0012114 -0.0043662 -0.0057264 0.0022255 0.004838 -0.0036996 0.0014756 -0.0081166 0.006722 -0.00097773 -6.5573e-05 -0.0025099 0.0042767 -0.0030861 -0.0042307 0.0020468 -0.00039454 -0.0022575 0.00095914 -0.00083463 0.0050548 0.0030711 0.0018083 -0.0047177 -0.0016548 0.0034118 0.0008842 0.000962 
a 0.0012324 0.0053169 -0.0025135 0.00060755 0.0022521 0.010619 -0.0036688 -0.002735 -0.0017956 0.0067862 -0.00035268 0.0032151 -0.0022344 0.0013895 -0.0022576 -0.0029818 -0.0024661 -0.00054975 0.010483 0.0026195 0.00067502 0.0090353 0.0064608 -0.0047475 -0.0028587 -0.0012508 0.0076549 0.002677 -0.0019294 0.0052352 0.0057839 -0.0040556 -0.0028623 0.0072169 0.0014671 0.009061 0.0017845 -0.0037668 -0.0016647 0.0048464 -0.004973 0.0061206 -0.0071378 -0.0053338 -0.0047873 -0.0016614 0.0090477 0.0038888 0.0037445 0.0082425 -0.006966 -0.0024215 -0.0019153 -0.005937 -0.0063014 -0.00060045 -0.002899 -0.00043327 0.0052787 0.0078041 -0.0069184 -0.0043951 0.0074905 -0.0087048 -0.0094487 -0.0073701 0.0037671 -0.0057395 -0.0038768 0.0026158 0.0086953 0.002267 -0.00028178 -0.00088436 0.0022187 0.0015603 0.0074486 0.0031415 0.0082555 -0.013732 -0.0022886 0.0061598 0.0070538 0.0071662 0.011011 -0.0081158 -0.00094961 0.0054458 -0.0070413 -0.0022094 -0.0020682 -0.0025521 0.0050365 0.0048136 -0.0015788 -0.0054973 -0.0051513 0.0061574 -0.0032402 0.0012266 
is 0.001212 0.0015281 -0.0023023 0.0017997 0.0051692 0.0058778 -0.00065275 0.0028069 -0.0060613 0.0030869 -0.0006546 -0.0013122 -0.00042137 0.0013957 0.00053906 0.0043601 0.0014931 0.0028269 0.00079882 0.0033972 -0.0030867 -0.00029028 0.0036802 0.0018458 0.0022927 -0.0030148 0.003626 0.0033003 0.0041154 0.0073246 0.005628 -0.011097 -0.0051009 0.0020546 -0.0012151 0.0018603 -0.0025171 0.0028088 0.001647 0.0062892 -0.0099092 0.0024752 0.00034897 0.0016738 0.0025131 -0.001816 0.00072695 0.0077069 0.001574 0.00019429 -0.0021101 0.00038891 -0.0029147 -0.0009878 0.00019972 -0.0014447 -0.0059617 -0.00074652 -3.7025e-05 0.0078448 -0.00066873 -0.0014006 0.0066526 -0.0019617 -0.00086483 -0.0018656 0.0015337 -0.0028627 -0.0033001 0.0012051 0.0029107 0.0019264 0.00063574 0.0040399 0.0031499 0.0001913 0.0042522 0.00065359 0.0070648 -0.0064461 -0.0022687 0.00027822 0.0041504 0.0029733 0.0050566 -0.0036638 -0.0025055 -0.0018254 -0.004241 -0.00058495 0.0036425 -0.0030266 0.0087425 -0.0051126 0.0044703 0.00090276 0.00049496 -0.0048428 0.0044979 -0.0034496 
you 0.00031372 0.0036621 0.00092284 0.0038422 0.0035903 0.0047282 -0.0052249 0.0023527 -0.003916 0.0023266 -0.0031739 0.002851 0.0043682 0.00027708 -0.003254 0.0052834 0.0025523 -0.003625 0.0016832 0.00062333 -0.0045767 0.0011656 0.0076256 -0.0035368 0.0056509 -0.0011758 -0.00075286 0.0040311 -0.00047357 0.0044455 -0.00061712 -0.005216 -0.0052404 0.004392 0.0019064 -0.00073286 -0.0033832 -0.0033891 0.0005067 0.0050688 -0.0063883 0.0056897 -0.0023973 -8.2832e-05 -0.0062649 -0.0063466 0.0025406 0.0041719 -0.0010998 0.0020943 -0.0020764 -0.0025578 0.00052197 -0.0050468 0.0023304 0.0064193 -0.0015092 -0.0017786 0.0028738 0.0056605 1.1884e-05 -0.0024109 0.0078963 -0.0037274 -0.00077241 -0.0027515 0.0041416 -0.0034799 -0.0013749 0.0048711 0.0034934 0.00017758 0.0066425 -0.0013739 -0.0020171 0.0016561 0.0078625 0.0033607 0.0042358 -0.006921 0.0047646 0.0043046 0.00032929 0.0017341 0.010329 -0.0021246 0.0016825 -0.00010506 -0.0055086 0.0022248 0.0021266 -0.0068047 0.0029468 -0.002263 0.0022997 0.0014002 0.0018852 0.0016236 -0.00019417 -0.0047831 
and 0.0040226 0.0052526 0.00029534 0.00089978 0.0022674 0.0042319 0.0012423 0.0054671 -0.0029526 0.0023436 -0.0036185 0.0025979 0.0026099 0.0011664 -0.0018952 0.0059866 -0.00065278 0.0025591 -0.00017346 0.0032065 -0.0013458 0.0029895 0.0052319 -0.0037789 0.0052252 -0.001761 -0.0029595 0.00036341 0.0022869 0.0029064 0.0014868 -0.006058 -0.0026195 -0.0030992 -0.00086072 0.0023799 -0.0019911 0.0027889 -0.0011768 0.0024934 -0.0014841 0.0071903 0.00018231 -0.0013939 -0.0014946 -0.00168 0.0047142 0.0062591 0.00021981 0.00054462 -0.00054617 0.00086617 -0.00096102 -0.0025959 -0.00026645 -0.00064494 -0.0044161 0.00095513 0.0055324 0.0038528 0.00011184 -0.0052133 0.0030845 -0.0019155 -0.0033355 0.00052248 0.0034593 -0.0016588 0.0019347 0.0019022 -0.0011031 -0.0011602 0.0025406 0.0027949 0.00011729 -0.0026674 0.0074042 0.0008222 0.0027088 -0.0064586 0.0019831 0.0018544 -0.0002529 0.0024042 0.0068058 -0.0026548 0.0027393 -2.0068e-05 -0.00073072 0.0007435 -0.001642 -0.0009347 0.0032438 0.0010604 0.0019263 -0.006552 -0.0020885 0.0037919 0.0045609 -0.0029806 
this -0.0016411 0.0047493 -0.0024811 0.0013113 0.0043636 0.0021527 0.0028261 0.0024724 -0.00052683 0.00067723 0.0010195 -0.0012705 0.00022085 0.0025968 -0.0016276 -0.00039679 0.0014673 0.0011264 0.0014979 0.0031483 -0.0012223 0.00071943 0.0045787 -0.00128 -3.7175e-05 0.0006351 0.0014659 0.0058255 0.0008417 0.0071299 1.2548e-05 -0.0025364 -0.003027 0.0046132 -0.00055471 0.00028992 0.0033005 -0.0054977 0.0012637 0.0018868 -0.0057224 0.00098531 -0.00057186 0.0043117 -0.00062103 -0.00028753 0.0034672 0.0053383 0.0029849 0.0046329 0.00055854 -0.00080913 -0.0021014 0.0012039 0.001016 0.0028332 -0.0042263 -0.00043346 0.0042553 0.0072075 0.0032539 -0.0029404 0.0062458 -0.0047984 -0.0070283 -0.0060794 0.0039522 -0.0021517 -0.0035063 -0.00049811 0.0023514 -0.0018677 -0.0022142 0.0042353 0.0013957 -0.0016129 0.0042852 0.0012898 0.0054395 -0.006064 -7.2086e-05 0.00064978 -0.00047341 0.0022646 0.007964 -0.00041131 -0.0028162 -0.0019477 -0.00427 -0.0021724 0.0021819 -0.0019184 0.002005 -0.0032847 0.0033655 0.00082377 -0.00075567 0.0010247 0.0015117 -0.00062841 
your 0.0010221 0.00057259 0.0015346 0.0012375 0.0042602 0.0034001 -5.7852e-05 0.0026098 -0.0025913 -0.00045808 -0.0015841 -0.00018436 0.0015884 -0.0005799 -0.0027619 0.001505 0.0037601 -0.00075576 0.0046087 0.00085654 -0.0041825 0.0023199 0.0055415 -0.0010496 0.0050584 0.00011423 0.0010724 0.0012019 -0.00067193 0.0034425 0.0023674 -0.005381 -0.0032614 0.0041316 0.0027924 0.003331 0.0020356 0.0011096 0.0016493 0.0040451 -0.0046489 0.0035348 -0.00019744 -0.0001366 -0.0014111 -0.0043975 0.0049197 0.0054863 7.8392e-05 0.0027378 0.00094763 -0.0030711 0.0011669 0.00086137 -0.0011632 0.004215 -0.003802 -0.00055844 0.00053505 0.0059938 -0.00086184 -0.00073681 0.0053046 -5.29e-06 -0.003079 -0.005316 0.0066447 -0.0015587 -0.0021223 0.0027787 0.0029894 -0.0035013 0.0022668 0.0033001 0.001326 0.00020507 0.0055172 0.0024285 0.0051375 -0.0034968 0.0033321 0.0050893 -0.0012569 0.0001203 0.0065294 -0.0030036 0.0018051 0.001438 -0.0041491 0.0002595 -0.0018667 -0.0039247 0.0015471 0.0013789 0.0016437 0.00032801 0.00067092 0.003206 0.0035866 0.0001419 
of -0.004016 0.0064341 0.0049419 0.0040945 -0.0014348 0.001331 -0.00096358 0.00032441 -0.0011166 -0.0017506 -0.0042618 -0.00070207 0.0056246 -0.0037665 -0.001198 -0.0022629 0.00047224 0.0011125 -0.0011994 -0.0032968 -0.0017985 -0.0011588 0.00070008 -0.0014224 -0.002791 0.0011706 0.00099149 -0.0053092 -0.0028195 -0.0012106 0.0021807 -0.00053554 0.0021784 0.0011831 -0.0055993 0.00046296 -0.0062759 0.0049338 -0.001375 0.00096696 0.0017214 0.0023556 -0.00269 0.0043148 -0.0017031 0.00043983 0.0011667 -3.8382e-05 -0.0028989 -0.00541 -0.0011241 -0.0031138 -0.0030658 0.0025445 0.0049937 -0.0016501 0.001015 0.0042805 0.0068314 0.0070727 -0.0034886 -0.00063567 0.0040873 0.0011712 -0.0033005 -0.0047628 -0.002921 0.00021106 0.002241 -0.0015352 -0.0021424 0.0012076 0.0012118 0.0062238 -0.0031176 0.0043135 -0.0056539 0.0045939 0.0021075 -0.0026351 0.0014032 -0.0073371 0.0014334 -0.00051115 -0.0018089 0.0029161 7.8135e-05 0.001768 -0.00070999 -0.00062793 0.0038985 0.0025521 0.0018531 0.00097526 -0.00059063 0.00065919 -0.005693 0.0042328 -0.0042127 -0.0072905 
question 0.0025969 0.0010997 0.00022651 0.0016471 0.0014721 0.0024705 -0.0012193 0.0021194 -0.003778 0.00099741 -0.0019786 -0.0011283 0.00035024 -0.00087665 -0.0017917 0.00010284 0.0024948 0.0015775 0.0029004 0.0039363 -0.0024618 0.00056004 0.0038492 -0.0015162 0.0019737 -0.0015566 0.00020818 -0.00063495 0.0021668 0.0019189 -0.00066964 -0.0024076 -0.0026039 0.0016962 0.00061063 -0.00037792 -0.00028587 -0.0011287 -0.00075326 0.0024458 -0.0035417 0.0034065 -0.004434 0.0018029 -0.0026908 -0.0028917 0.0012139 0.0046157 0.00090316 0.00050391 -0.00065257 -0.001108 0.0020227 -0.0034025 -0.0018751 0.0028589 -0.0033482 0.001426 0.0027765 0.00476 0.00073196 -0.0025102 0.0042315 -0.00044678 -0.0042621 -0.0012769 0.0037386 -0.0046121 0.0010919 0.00032883 0.0018137 -0.0019803 0.0040126 0.0038368 0.00057128 0.00067119 0.0022127 0.0010069 0.0024019 -0.0051498 5.8971e-05 0.0022535 -0.00055727 0.0013305 0.0041251 -0.0026965 -0.0014642 1.5263e-05 -0.0032873 -0.00057843 -0.00077655 -0.0034265 0.0026277 -0.0023161 0.00011417 -0.0036529 0.0018127 0.00070281 0.0012221 -0.0023374 
not 0.0019025 0.0040278 -0.0015909 0.0040689 0.0041151 0.00067694 0.002042 0.0019345 -0.001852 -0.00058788 -0.00060152 -0.0030989 0.0057268 -0.0038515 -0.0012921 -0.0010799 0.00073209 -0.00071843 0.0015444 -0.00074395 -0.0029531 0.00028556 0.0051425 0.0015378 0.0021469 -0.0029519 0.00074381 0.0013192 0.0010621 0.0039574 0.0046726 -0.001354 -0.0042045 -0.00027461 -0.0034225 0.00012822 0.00056122 -0.0013854 -0.0024758 0.0010442 -0.0029172 0.00012089 0.0037123 0.0042112 -0.0022981 -0.0014044 0.00027254 0.0054597 -0.0029732 -0.00027531 -0.0012958 -0.003834 -0.0010187 -0.0024088 0.00059845 0.0068422 -0.0031727 0.00011267 0.00052852 0.0048238 0.0019316 -0.001084 0.0073203 -0.00034907 0.00298 -0.0025096 0.0014986 0.00068572 -0.00026529 0.0049287 -0.0009094 -0.00068725 0.0048939 0.00075493 -0.0050563 2.4992e-05 0.0054877 -0.0051177 0.0052158 -0.006713 0.00052965 -0.00053635 0.0015982 0.00059418 0.0081837 0.0012856 0.0016477 0.0036519 -0.0015002 -0.0040455 -0.0026766 -0.0012041 -0.0025767 0.0030994 -0.0027056 0.0031883 -0.0057225 0.002374 -0.0025211 -0.0040829 
for 0.0012101 -0.0020311 -0.00049599 0.0029275 0.001212 0.0066026 -0.00088464 0.002038 -0.0012295 -0.001388 -0.0025119 0.0018749 0.0018326 0.0017156 -0.00035617 0.0012234 0.00058979 0.00014405 0.00074953 0.0038366 0.0020171 -0.00069364 0.0022302 0.0013311 -0.00057727 -0.0039787 0.00124 0.0026943 0.0038471 0.00012116 0.00039237 -0.0019728 0.0030752 -0.0034228 3.3158e-05 0.0040461 -0.00030256 -0.0014477 0.0016738 0.0021238 0.0013357 0.0047069 0.0023341 0.0019461 0.0018054 -0.0010475 0.00333 0.0035423 0.000607 0.0029475 0.0010362 -0.0064819 0.0017139 -0.0025848 -0.00086453 0.0019182 -0.00025421 -0.00084848 7.2003e-05 0.0019804 0.0020686 -0.0021469 0.0041017 -0.0019363 -0.0063304 -0.0010314 0.00082158 -0.0024693 0.0035609 -0.0033904 0.0011051 -0.0012356 0.0032123 -0.0006218 0.0010463 -0.00021382 0.0024246 0.00038645 0.0024113 0.0020657 0.00059923 0.0046715 -0.0004254 -0.0014572 0.0033106 -0.00035589 0.0011887 -0.0030319 -0.0034913 0.00063371 0.0044541 -0.0015023 0.00074941 -0.0030357 0.0013545 -0.0043166 0.0015546 -0.00035979 0.0011146 -0.0033122 
it 0.00014977 0.0024744 0.001766 0.0040643 0.00066212 0.0053874 -0.00059948 0.0012046 -0.00059981 -0.00074713 -0.0010824 0.0026258 -0.0002505 -0.0031891 -0.0015769 0.0038559 0.0024366 0.0063145 -0.001169 0.0060912 -0.0073302 0.0057252 -0.0011957 -0.0037961 0.0040839 -0.0038361 0.0053833 -0.00036779 0.0012359 -0.0019172 0.0037486 -0.0026322 -0.0040775 0.0043453 0.0050154 0.0049738 -0.0036623 -0.0010188 0.0052829 0.0035209 -0.0021059 0.0047932 -0.0052978 0.0069386 -0.00094878 -0.0033894 -0.0041312 0.0014011 0.0041554 0.00469 -0.00092044 1.6794e-05 -0.0042596 -0.0019977 -0.0061343 0.0036783 -0.0040178 -0.0038716 -0.0017222 0.0068535 -0.0022758 -0.0014554 0.0047653 0.0013604 -0.007947 -0.0041599 0.0031884 -0.0036033 0.0057136 -0.0033144 0.0027954 -0.0038776 0.00064835 -0.0017411 -0.0024333 -0.0015054 0.0028267 0.00056477 0.0032801 -0.0075904 0.0033675 0.0028493 -0.0064226 0.0013623 0.0052616 0.0031461 0.0066271 -0.0021796 -0.0033821 0.00041824 -0.0029027 -0.001466 0.0070612 -0.0030405 0.0012763 -0.0029397 -0.00058402 0.0019935 0.004085 0.00056663 
that 0.0020265 0.0027382 -0.0033678 0.00081183 0.0028779 0.0015071 0.00078874 0.0023013 -0.0026502 0.00081956 -0.002887 0.00017011 0.0013438 0.00082687 0.0005104 -0.0008229 0.0013068 0.0026895 -0.002044 0.0051441 -0.0054686 0.0030666 0.0054137 -0.0030693 0.0033329 -0.0010207 0.00030376 0.0021307 0.0021925 0.007003 0.0020706 -0.0039452 -0.0050616 0.00058854 0.00086498 -0.00084091 0.0016045 0.00042238 0.0002808 0.0020843 -0.0075991 0.004883 -0.0024419 0.0024442 -0.0017186 -0.0016198 0.0028168 0.0026249 0.0020692 0.0047926 -0.0021253 0.00093265 -0.00036548 -0.0055142 -0.0047326 0.0011024 -0.0053458 -0.0012295 0.0031328 0.0083301 -0.0017185 -0.0029532 0.0033554 -0.0013574 -0.0040242 -0.0036369 0.0051851 -0.0053494 -0.00031454 -0.00076043 -0.00064264 -0.0015648 0.0031881 -0.00076174 -0.00017533 0.00067291 0.0053941 0.0016701 0.0026363 -0.007128 0.0066445 -0.0018565 -0.0012974 0.0025635 0.008261 -0.0034578 -0.0014121 -0.0035447 -0.0018603 -0.00032733 0.0049927 -0.0047308 0.0015253 -0.003743 -0.001691 -0.0036339 -0.0023646 0.0008099 0.0023973 -0.0014062 
I -0.0011508 0.0032984 0.0015283 -0.0033038 0.0036043 -0.00014242 -0.0028314 -0.0046931 -0.0047608 0.0029571 0.0050342 -0.0070862 0.0030055 0.0043428 0.0029109 0.0094013 0.000907 -0.0030006 -0.004719 -0.0060973 -0.0017638 -0.0085173 -0.0022693 0.0070617 0.00079518 -0.003852 -0.0035778 0.0098257 -0.00055101 -0.0015426 -0.00094993 0.0042439 0.0009592 -0.00070091 -0.00026749 -0.0041918 -0.0063302 -0.0011284 0.0017366 0.0072576 -0.0056999 0.0012991 0.0024521 0.0078265 -0.0076825 -0.0068302 -0.0021552 0.0030403 -0.0029205 0.0066013 0.0013498 0.0082271 0.001384 -0.0026983 0.0049622 0.004688 0.00051619 -0.00076625 0.0061429 -0.0038123 0.0068727 -0.0028336 -0.0032087 0.0049586 -0.0035361 -0.00597 0.0027044 -0.0008636 -0.0042985 0.0014305 0.0050228 0.0032949 -0.0063149 -0.0066607 0.001519 -0.0059851 -0.0046951 -0.002647 0.0057276 0.0010198 -0.0016267 0.0011463 0.0021249 0.0055915 -0.0029061 -0.0012766 0.00455 -0.0079778 0.00074087 -0.010073 -0.0092695 5.4277e-06 0.0034225 -0.005985 -0.00080931 -0.0016994 -0.0044702 0.0033941 0.0052591 -0.0011477 
in 0.0046131 0.0033108 -0.00041161 0.0022231 0.0060706 0.0010607 -0.005299 0.0014504 -0.00049572 0.0010569 0.0022906 -0.0017077 -0.0026375 0.0014458 -0.0014056 0.0022731 -0.0018219 0.0023611 0.0016215 0.004342 -0.0032151 0.0030077 0.0052874 0.0012335 -0.00099362 -0.0014286 0.001957 0.0030613 -0.0010501 0.0018944 -0.00055367 0.0032212 -0.0028598 -0.0007627 -0.0029667 -0.0029355 0.001449 0.0025459 0.0038346 0.0021925 -9.914e-05 0.0081742 0.0031607 -0.00098091 -0.0030283 0.0031103 -0.0012789 0.0081827 0.0010697 -0.002941 0.004978 0.0019459 0.00084251 -0.0022791 -0.0010562 0.0022419 0.0016382 -0.0044083 -0.0037294 0.0036291 -0.0018169 -0.00096061 0.009386 -0.0014199 0.0031056 -0.0013031 0.0017876 -0.0027011 -0.0031853 0.0011241 -0.0006737 0.0035327 0.0028752 0.0024472 -0.0024607 -0.0041843 0.0018164 -0.0030233 0.0034796 -0.0024379 0.0010081 0.00047783 0.0047167 0.0066001 0.0029842 -0.0028009 -0.0038019 -0.0038043 -0.00058075 0.0074977 -0.00068329 0.0026117 0.0058709 0.00016531 0.0035626 -0.0054722 -0.00020229 0.0026266 -0.00025624 0.00073054 
have 0.0029148 -0.0012785 -0.00051395 0.0014378 0.003315 -0.0031481 -0.0016493 0.0023089 -0.00050202 0.001969 -0.0030636 0.0024952 0.00013535 0.001562 -0.0013929 0.00055943 -0.0010016 -0.00049793 0.00088852 -0.0026631 0.00054857 0.0016234 0.00041634 0.002756 0.0006075 -0.00063927 -0.0023207 0.0011546 0.0013127 0.000934 -8.4863e-05 -0.0020578 0.0013113 -6.2314e-05 0.00088497 -0.0030764 0.0019517 -0.0018889 0.0021038 -0.001089 -0.0030016 -0.00032359 0.00048058 0.0020505 -0.0034129 -0.00024006 -0.0020314 0.0018995 -0.0027839 0.0028482 0.0012021 -0.0013285 -0.00031337 -0.0022394 -0.0018575 0.0034339 -0.00031095 0.00046181 -0.0019405 0.0016547 -0.0010948 -0.0015671 0.0037413 -0.0002874 -0.0017236 -0.00085968 0.0045167 -0.00016198 -0.00037296 0.0047438 -0.0018578 -0.0018607 -0.00056492 -0.002507 -0.00087182 -0.00018 0.0034587 -0.0015712 0.0051936 0.0040995 0.0023584 0.0021911 -0.0018847 0.00046497 0.0037286 -0.0020078 -0.00061939 -0.0011308 0.0005349 -0.0026823 -0.0021586 -0.0041425 0.0011831 0.00091921 -0.0018458 -0.0012511 0.00029122 -0.00039756 0.0012842 0.0012207 
This 0.0001621 0.0027931 -0.00048672 0.00020829 0.0025688 0.0024459 0.00050315 0.0028607 0.0011598 0.00029239 0.0019111 0.00094919 0.0001196 0.0017013 0.001533 0.0033526 0.0016255 -0.0011684 -0.00091699 0.0029147 -0.00052299 0.0012894 0.00072227 -0.0012438 -0.00087279 -0.0015046 0.0022015 -0.00093279 0.0017881 1.1147e-05 -0.0007475 -0.0029087 -0.0020342 0.0033582 0.00025536 -0.0011015 -0.00028706 0.00083666 0.0011753 -0.00088967 -0.0011983 -0.0011745 -0.0022803 0.0027401 -0.0003227 1.861e-05 -0.0010197 0.0029617 0.0030804 0.0010125 -0.0010945 -0.0021656 -0.0024184 -0.0015162 0.0010229 0.00074607 -0.00040797 -0.0023564 0.0050776 0.0044689 0.003424 0.00017782 0.0039761 -0.0028493 0.00029953 -0.0023833 0.0043829 -0.0028109 -0.000605 0.00062798 -0.00075196 0.00049912 -0.0014284 0.0021691 0.00072243 -0.0029827 0.004421 0.00084029 0.0019717 -0.0021387 0.0014526 0.00072593 -0.003144 0.0010528 0.0054244 -0.0012316 0.00076596 0.00049236 0.00027053 -0.0021497 0.0030987 -0.0016969 0.0046974 -0.0012293 0.0010245 0.0012439 -0.0011927 -0.0022804 0.0013263 0.00080162 
code 0.00096402 0.0018223 0.0028592 0.0016394 -0.00015707 0.0020847 -0.0025444 -0.00071715 -0.0025886 -0.0019094 -0.00061888 0.00067681 -0.0022476 0.0014327 0.00066746 0.001682 -0.0017474 -0.0027227 0.0025839 -0.0005055 0.0010208 0.0018926 0.002738 -0.0012826 0.00067218 -0.0016912 0.0001225 0.0029746 -0.0012862 0.0004108 0.00015865 -0.0018541 -0.0021448 0.00097645 -0.0013262 -0.0044914 0.0014442 0.0006779 -0.00082946 -0.00040301 0.0028188 0.0040743 -0.0029197 0.0012744 0.0018791 0.00012127 -0.0010136 -0.0015661 0.00071232 -0.0018652 -0.0039506 -0.0020783 0.00025297 -0.00026746 0.00033539 0.0004754 -0.0018816 0.0017029 0.0034733 -0.0012178 -0.00016853 0.0012613 0.001208 -0.00052488 -0.0023962 -0.0036517 0.002556 -0.00076452 0.00098265 0.00083568 -0.0021084 -0.0010371 0.00072481 -0.0021975 -0.0033973 -0.0014775 0.0034897 0.0018478 0.0027009 -0.0004589 0.0027888 0.0017219 0.0012732 0.0017922 -4.6958e-06 -1.3018e-05 -0.0014246 0.0015195 -0.0014281 5.7039e-05 0.0033349 -0.0027685 -0.0015494 -0.0024119 0.0010981 0.0017901 0.00017616 -3.4799e-05 0.0024328 -0.00028472 
do -0.0014237 -0.0012832 0.0010535 0.0072224 0.0034005 0.001193 -0.00014636 -0.0020007 -0.0011005 -0.0043766 -0.00057369 0.0018054 0.0011966 0.0033253 0.00090295 0.0049209 -0.0035989 -0.0018437 -0.0018609 0.00085881 -0.0082394 -0.0010536 0.0039059 -0.0044889 0.0029885 0.0020701 -0.0043034 0.00042037 0.0004503 0.00070766 0.0026577 -0.00017435 -0.0013573 0.0019117 0.0011559 -0.0028208 0.0041282 0.0012953 0.0029424 0.00083167 -0.0097341 0.0003628 0.0037458 0.0023182 -0.00091894 0.0010791 0.0002439 0.0013863 0.0036636 0.0083806 0.003892 -0.0015128 -0.0044978 0.0036594 -0.00048071 -0.00048911 0.0014002 -0.0020126 0.0070178 0.007804 -0.0027399 -0.0012418 0.00025417 0.0052838 -0.0036312 0.00018414 -0.00012172 -0.0033178 0.001071 0.001355 -0.0024073 0.0015458 0.0051211 0.0053071 -0.0016001 0.0014428 0.0056548 0.00033965 -0.0019245 -0.01111 0.0037975 0.0032642 0.0014576 -0.0028768 0.0074289 0.0025321 -0.0027555 2.6859e-05 -0.001818 -0.0040887 0.0013551 0.0026458 0.0079559 8.9074e-05 0.001562 -0.0041425 -0.0063336 -0.0043213 0.0015455 -0.0011375 
be 0.0040257 -0.00016659 -0.0004842 -0.0044721 -0.001795 0.0046748 -0.0053943 -0.0021209 -0.0018491 0.0013981 -0.0048428 0.0071919 -7.0693e-06 -0.00095385 -0.0015025 0.0016938 0.0078269 0.0017708 0.009789 0.0004609 -0.0030286 0.00053299 0.0072899 0.0053344 0.00081972 -0.0051551 0.00059379 0.0018835 -0.001171 0.00071177 0.0063147 0.0025315 -0.0030598 0.00051159 0.0014857 0.0011582 -0.0040634 -0.00027834 -0.00099881 0.00159 0.00018257 0.0015847 -0.0015724 0.0044379 -3.2897e-06 -0.0026305 -2.4412e-05 0.0034811 -0.003502 0.0023227 -0.0030527 0.001867 -0.00086322 -0.0034334 -0.0018715 0.00075903 -0.003841 -0.0063839 0.001537 -0.0032138 -0.0021749 0.0023798 0.0049412 0.002385 -0.0039728 -0.0062515 -0.0005964 0.00012422 0.004593 0.0028001 -0.0043189 -0.0063698 -0.0016543 0.0050083 0.0010669 -0.00093686 -0.00087079 0.0047488 0.0056359 -0.0029519 0.0035492 0.0033351 -0.0058819 -0.0005778 0.0055552 -0.0046676 -0.0047062 -0.00185 0.00047488 0.00047378 -0.0035957 0.0018555 -0.0011656 0.0022166 0.0036085 -0.0033446 -0.0016127 0.0048175 0.0031202 -0.0070056 
what 0.0022096 -0.00010725 -4.2463e-05 0.0014856 0.0020037 0.00089826 0.0011151 0.0019112 -0.0012598 -0.00097181 -0.0036879 0.00065738 0.0012997 0.00023108 0.00043698 0.0047536 0.0039649 0.0013634 -0.00027689 0.0046443 -0.0052113 0.0024048 0.0063262 -0.0042609 0.0061827 -0.00053315 -0.0017903 0.0031553 0.00195 0.0031893 0.00034973 -0.00060814 -0.001148 0.0019678 0.00094378 0.0016305 0.0015885 -0.00055458 -0.0026708 0.0036207 -0.0057529 0.006161 -0.0016897 0.0020432 -0.0027288 -0.0012619 0.0054941 0.0023367 -0.0018813 -2.5487e-06 0.0013732 0.0034377 -4.2269e-05 -0.0023542 -0.0035554 -0.00015461 -0.0018606 0.0029991 0.0060336 0.0067818 -0.00080317 -0.0025728 0.0063167 -0.0027466 -0.0033015 -0.003014 0.0031048 -0.0038034 0.0007104 0.0032943 0.0019842 0.00095779 -0.0018384 0.0027316 -0.0034136 -0.0023326 0.0057921 -0.0010543 0.0047158 -0.0076236 0.0023207 0.0027507 0.00037553 0.0053545 0.0048661 -0.0029711 0.0029779 -1.8081e-05 -0.0012372 -1.8381e-05 -3.2838e-05 -0.003602 0.0023002 -0.0014147 0.00047617 -0.0030712 -0.0049836 0.0012049 0.0026157 -0.0010933 
because -0.00028866 -0.0011587 -2.6014e-05 0.0027446 0.0034408 -0.00055165 0.00043696 -0.00015421 -0.001438 -0.00042681 -0.0015163 -0.0011137 0.001815 0.0014151 -0.0015034 -0.00034719 0.0013505 0.0011138 0.00064387 0.00026917 -0.0025911 -0.0009538 0.0024111 -0.00010224 -0.00012932 -0.0021411 0.00085533 0.0017026 0.0012398 0.00032084 0.00055851 -0.00047109 -0.0017497 0.0012939 0.0021783 -0.00072515 -0.0005021 0.00047449 -0.0014483 -0.00048606 0.00079192 0.00095177 -0.00023722 -0.0003163 0.0008866 0.00074729 0.00017517 0.002389 -0.00077101 0.0014627 0.00026127 -0.0006135 -0.0010358 -0.00074404 -0.00088687 0.0006649 -0.0016289 0.00014582 0.00069968 0.002026 6.1225e-05 -0.00023115 0.0010865 0.0010059 -0.0010998 -0.002945 0.00010141 -0.0014367 -0.0014748 -0.0012148 8.3844e-05 0.00064597 0.0033341 -0.0016035 -0.00010322 0.0010809 0.0019087 -0.00048532 0.0021487 -0.0027602 -0.00024209 0.0019314 -0.0010351 0.00016275 0.0023445 -0.0013975 0.00045508 0.0023498 -0.00059455 -0.00026024 -0.00054459 -0.0013145 0.00015816 -0.0011612 6.4339e-06 -0.000505 0.0011526 0.00071831 0.00070573 -0.0037235 
are 0.0015878 0.0015726 -0.0028556 -0.0011256 0.00087964 0.0026674 0.0026311 0.0014123 -0.0054152 0.00072611 0.00089316 0.00055995 0.0029608 0.0011318 -0.0022159 0.0010406 0.00078422 0.0030912 -0.0016523 0.0047935 -0.0017917 -0.00049982 0.0026526 -0.0018797 -0.00065162 0.0028294 0.00064092 0.0035642 0.00061497 0.0042408 -0.0006066 -0.0026704 -0.0036856 0.00068775 0.0024736 0.0020937 -0.0012684 0.0010897 0.0027138 0.004765 -0.0077808 1.3403e-05 0.0019091 0.0013132 0.0010816 -0.0012325 0.00020007 0.0039745 -0.0014467 0.0026773 0.0023001 -0.0007589 -0.00042718 -0.0042311 0.00031061 -0.00012965 0.0011105 0.00087369 0.00030991 0.00021873 -0.0025587 -0.0018087 0.0049268 0.0017653 0.0023637 0.0023298 0.0041835 -0.0010007 0.0018487 0.00051554 -0.0018099 -0.0036664 0.00029392 0.00045664 -0.0022538 -0.00069494 -0.0001875 0.0031646 0.0025192 -0.00033346 0.0019831 -0.0031103 -0.0031311 0.00012372 0.0010032 2.6948e-05 -0.00090429 0.0056504 0.0016061 -9.6679e-05 0.0013278 7.0655e-05 -0.00024628 0.0033102 0.0011706 -0.00024616 -0.0012782 -0.00041805 -0.0026286 0.0046973 
or 0.0041615 -0.0009073 -0.0018721 0.0062724 -0.0037772 4.8231e-05 -0.0045034 -0.00010971 -0.00015203 -0.0024402 -0.0030579 0.0035044 -0.00096101 -0.0025639 -0.0011097 0.0015077 -0.0010511 0.00056761 -0.0063415 0.0034361 -0.0030399 -0.00075797 0.0022105 0.00077575 0.0036589 0.00084046 0.00042544 -0.0046134 -6.3277e-05 0.0025054 0.0011916 -0.0021619 -0.0017191 -0.00021759 -0.0011679 -0.00032023 0.0010425 -0.0044659 0.0056344 -0.00013717 -0.0053015 0.0059466 0.0015672 0.00034394 -0.0029555 -0.0010986 0.001748 0.00029833 0.0026691 0.0021156 0.0010418 5.4653e-05 0.0043107 0.00084585 -0.0030644 -0.00045226 -0.0037124 -0.0015508 0.00045577 0.00079869 0.0033292 -0.0078877 -0.00041589 0.0026941 -0.010153 -0.0074887 0.0039415 -0.0021621 -0.0033423 -0.0018042 -0.0034693 0.003554 0.0050016 0.0058325 -0.002038 -0.00095922 0.00066015 -0.0021529 0.00050778 -0.0029799 -0.0064453 -0.0016595 -0.0011359 -0.0034651 0.0026389 0.004129 0.0033776 -0.0043272 0.0019193 -0.00082294 -0.0020412 -0.0044186 -0.0013321 0.00081757 -0.00073329 -0.0068356 -0.0010089 -0.0046546 -0.0020717 -0.0016004 
on 0.0053291 0.00046473 0.004895 0.0034097 -0.0017105 0.0017102 0.0010503 0.004801 -0.0015707 0.0027253 -0.0017625 -0.0022468 -0.00054625 -0.0073177 -0.0052231 -0.0034576 0.0016192 0.0030479 0.0072057 -0.0017323 -0.00067931 -0.0019664 0.0010089 -0.001074 -0.0033021 -0.0029705 0.00025666 0.00094305 0.0033661 -0.001411 -0.0017382 0.00092052 -0.0017487 -5.8924e-05 -0.0032982 0.0052319 0.0016157 -0.00033807 0.00088352 0.0028862 -0.0048119 0.0045875 -0.00085111 0.0049181 -0.0072678 -0.0022321 0.00014913 0.007222 0.00030467 0.0051614 -0.005741 0.0015499 0.00036624 -0.00036796 -0.0038728 0.0024707 -0.0021556 -0.0044432 0.0029851 0.0023654 -0.00061007 -0.0036039 0.0091892 0.0016957 -0.0029111 -0.006474 0.0016038 -0.0015217 -0.001056 -0.0012541 -0.0032184 -0.0025985 0.0067123 -0.00051101 0.0043066 -0.0019238 0.0040567 -0.000241 0.004977 -0.0040635 0.00073578 0.0013867 0.0013674 -8.4753e-05 0.0056675 -0.0023204 0.00026313 0.0017374 -0.002206 -0.00041335 -0.00040313 -0.00089168 0.0059886 0.0015574 0.0052346 -0.0031641 -0.002006 0.00099255 -0.0045052 -0.0053999 
an 0.0024378 0.0014218 -0.004074 0.0020597 0.001661 0.0040733 0.0036749 0.0034589 -0.0027027 -0.00028021 -0.0027564 0.0057096 0.0056444 0.0016264 -0.0042291 -0.00088754 0.0032315 0.0017767 0.003998 -0.00078582 -0.002999 0.0044115 0.0081494 -0.0030218 0.0055158 0.0021597 -0.0008131 0.0010913 0.0021262 0.0079533 -0.0013757 0.0025921 -0.0088016 -0.0051766 0.0048716 -0.0014507 3.793e-05 0.0004055 0.001393 0.0052501 -0.0061394 0.0074654 -0.0053644 0.0005601 -0.0018972 -0.00044143 -0.00067281 0.0031673 0.0025329 -0.0021005 0.0020851 -0.001702 0.004166 -0.002298 -0.00093286 0.0029654 -0.0064664 0.0015042 0.003375 0.008945 0.0029093 0.0024897 0.0041839 -0.0072851 -0.0032256 -0.0040607 0.0015322 -0.0059107 -0.005705 0.0034076 0.0027762 -0.0051031 0.0009453 0.0057573 -0.0057277 0.0015909 0.0062596 0.0016985 0.0050953 -0.004819 0.0042676 0.00427 0.0044658 0.0043465 0.0097843 -0.0030972 -4.0574e-06 -0.0011102 -0.0009197 -0.0026958 0.0025551 -0.00064834 0.0013428 0.0026981 0.0067788 -0.0011655 -0.0042528 0.0016923 0.0051053 -0.0066841 
as 0.0010517 0.0044067 0.0036475 0.0045046 0.0022256 -0.0028989 -0.0010801 0.0032233 0.0013402 3.1294e-05 -0.0012855 -0.0011008 -0.0023423 -0.002756 0.0012392 -0.0018152 -0.002409 -0.00075257 -0.0018763 -0.00012725 -0.0014982 0.0025997 0.0043507 -0.0052167 0.0054933 -0.0037629 -0.00049333 0.0046506 -0.0048909 0.0016077 -0.0020379 -0.0061345 0.00015069 -0.00096778 0.00086407 -0.0043078 -0.0037638 -0.0030657 0.00063641 0.001499 -0.0028993 -0.00019986 0.0012934 0.002455 -3.6574e-05 -0.0038549 0.0043663 0.0020147 -0.001943 0.0030687 0.001141 -0.0034273 0.0051645 -0.00084764 -0.0018509 0.0050887 -0.0043317 -0.0061925 0.00060049 0.0057688 0.0012343 -0.00033311 0.00292 0.0032668 -0.0030524 -0.0010787 0.0017296 -0.0016935 0.0033973 -0.0010827 0.0012847 0.00075921 0.0025862 0.0032895 -0.00014142 -0.00025926 0.0049345 -0.0031288 -0.0017052 -0.0021064 -0.005826 -0.00010133 0.0023178 0.00050536 0.0037671 -0.0037473 0.0043872 0.00075184 -0.0016146 0.0030412 -0.00052644 -0.0031919 0.0011094 0.00092952 -0.00084376 0.00022675 0.0001343 -0.0046148 0.0013724 -0.0034619 
can 0.00075829 -0.0010374 -0.00094833 0.0016068 -0.00014142 0.0025485 0.00083648 -0.0026369 -0.0046622 -0.0016187 -0.00062664 0.0028909 0.0030543 0.0032985 0.00020066 -8.982e-05 0.0025181 0.0028083 0.002965 -0.0012162 0.0010722 -0.00046823 0.0055952 -0.00016579 -0.00085394 0.00058681 0.0018118 0.0021704 0.0016425 0.0027679 0.00032294 0.0018511 -0.0018058 -0.00079499 0.0027857 0.00035287 0.002737 0.002382 -0.00015543 0.0011109 -0.0033392 0.0078624 -0.00063972 0.00393 -0.001586 -0.0017052 0.0017453 -0.00049287 -0.0013063 0.0013176 -0.0006706 0.0019004 0.0002246 -0.0031222 -0.0018575 0.0013459 -0.0035191 -0.0038551 -2.0256e-05 0.00070497 -0.00097525 -0.0029831 0.0028948 0.00059425 -0.0026618 0.0010635 0.003019 0.00040687 -0.00045379 -0.00033782 0.00072169 -0.0011054 -5.9414e-05 0.00085182 0.0027187 -0.0033018 -0.0021102 0.0029052 -0.0016302 -0.0020244 0.00038204 0.00091214 0.0030364 -0.0016779 0.0026008 -0.0042904 0.0022625 0.0028931 -0.0023716 -0.0045794 0.0025601 0.00024156 0.00027586 0.00034712 -0.00069301 0.00017218 0.0036755 -0.0023989 0.00044743 -0.0039373 
about 4.4744e-05 0.00089774 -0.0012684 0.0011329 0.0019719 0.00043871 -9.4705e-05 0.0020045 0.0023185 0.00038193 9.9716e-05 0.00043811 0.003413 0.00037856 -0.00085246 -0.0013894 -0.0011766 0.0011135 -0.00093033 0.0021878 -0.00044858 0.0026716 0.0021888 0.00020499 0.0025766 -0.0012082 0.00032453 0.00020597 0.0014086 0.0015751 0.0019562 -0.00054464 0.00090391 0.0042289 0.00067096 0.0018119 0.0014025 -0.00078179 -0.00043061 -3.2887e-05 -0.00072 -0.00045041 -0.0015249 -0.00096285 0.00071611 -0.0027073 0.00037682 0.001527 0.0011757 -0.0025035 0.00022174 -0.0016101 -0.00077222 -0.00060424 -0.00080128 0.0023641 -0.0024544 -0.00096974 0.0028926 0.004102 0.0011296 -0.0026807 0.00069384 -0.00099694 -0.001141 -0.0018341 0.0024232 -0.0019332 0.00015527 0.0012461 0.0012903 0.00072039 -3.2341e-05 0.00047308 0.0022855 0.0011101 -0.00093148 0.00041117 0.0011973 -0.00027246 0.0012864 3.4027e-05 0.0033546 0.0013424 0.0036817 -0.0013789 -0.001422 -0.0017227 -0.0016296 -0.00207 -0.0011634 -0.0017792 0.0021216 -0.0023022 -0.00096914 0.0021775 -0.0017425 -0.00057823 0.0020641 0.00017621 
from 0.0005915 7.7576e-05 -0.0010209 -0.0002961 -5.9739e-06 0.0022268 0.0031955 -0.0016559 -3.3959e-05 -0.0011321 -0.0001263 0.00039227 0.00040343 0.0024776 -0.0025662 0.0014132 0.00077576 0.0025275 -0.00092026 0.0035866 -0.0034369 -1.29e-05 0.0029729 1.6286e-05 0.00076476 -0.00090113 -0.0011878 -0.00063362 -0.00084806 0.0028496 0.0026657 -0.0031984 0.0029206 0.0010439 0.00046217 0.00056477 -9.0297e-05 0.00057836 -0.00016102 0.002465 -5.0901e-05 -0.0010393 0.0042989 -0.0016437 -0.0017619 -0.0012478 0.00091804 -0.0019979 0.00041191 -1.1312e-05 -0.00070257 -0.0036916 0.00061109 -0.0010507 0.00010887 -0.00076704 0.0004761 0.0010896 -0.001116 0.0012642 -0.0010246 -0.0031142 0.00094277 -0.0022669 -0.001787 -0.0024819 -0.0014709 -0.0024234 -0.0020375 -0.0020615 -0.00098297 0.00058033 0.00299 0.00083626 0.0010044 0.0019668 0.00039449 -0.00176 -0.0016059 -0.0027371 -0.00069639 -0.00080729 -0.00084677 0.0013018 0.00054077 2.4945e-06 0.0017744 0.00054477 -0.0039295 0.0038267 -0.0018385 -0.0015534 0.00061493 -0.0035677 0.0026762 0.002135 -0.0023792 0.0011362 0.00041001 -0.0011665 
answer 8.4956e-05 0.0023893 0.00010301 0.0024388 0.0018996 0.0029685 0.001433 0.0012632 -0.0024829 -7.6431e-05 -0.0022665 -0.00049755 0.00046868 -0.0017503 -0.003289 0.0021931 -0.0009618 -5.6983e-05 0.00028843 0.00040085 -0.00084299 0.0017199 0.0007922 0.0006817 -0.0011308 -0.00022948 0.0016779 -0.00050978 2.2972e-05 0.0015587 0.0026249 -0.0012278 -0.00038345 0.0019195 0.00081469 0.0021234 0.00014685 -0.0020392 -0.0015797 -0.0015841 -0.00083166 0.0043302 -0.0017425 0.00043185 -0.00087299 0.0018874 0.0017203 0.0032493 -0.0015589 0.00023124 9.7444e-06 -0.00064248 7.3197e-05 0.0010122 0.0018382 8.9321e-05 -0.0036685 0.00063379 0.003104 0.0016137 -7.7853e-05 -0.0029604 0.001768 -0.0013543 -0.0020171 0.00047704 -0.00052318 -0.00022044 0.0011078 -0.0010889 -0.00044002 -0.0032337 0.0023777 0.00038975 -0.0011699 -0.0026097 0.0026039 0.00042075 0.00031341 -0.0023824 0.001335 0.0033046 0.0030256 -0.00025324 0.0015008 -0.0013005 0.00046209 -0.00010979 0.0020464 0.00059924 -0.00087144 -0.0012689 0.00021502 1.4143e-05 0.0020874 -0.0021177 0.00022234 0.0014598 0.0001055 -0.001931 
but -0.0009187 -0.00014313 0.0045396 0.0024546 0.0019355 0.00040401 0.0024711 0.002536 -0.00036034 -0.00041663 0.0044474 -0.0026178 0.0027201 -0.00025376 0.0017636 -0.00037276 -0.0016006 -0.00033835 0.0017212 0.0021951 -0.0028665 0.0026971 0.0015628 -0.0022031 0.0036684 -0.0013947 -0.0031944 0.00021033 0.0010673 0.0025134 0.0013031 -0.0016047 -0.0041646 0.0028373 -0.0019888 -0.0011709 0.0010551 -0.00015441 0.0014641 -0.00069308 -0.0029743 0.0047046 0.00053467 -0.0014684 -0.0049962 -0.0013906 0.002134 0.0044349 0.001977 0.0036773 0.0012517 0.0003129 -0.0018736 -0.0022926 -0.0025444 -0.0022514 -0.0011432 0.0008877 0.003949 0.008486 0.00040929 -0.0039973 -8.8357e-05 0.0013188 -0.0033597 -0.0028206 0.0023645 -0.001527 0.0040778 0.0018998 -0.00054683 -0.0015391 0.0052573 0.0019642 -0.0031668 -0.0010865 0.0015681 -0.0025977 0.0047225 -0.0075065 -0.000261 0.0032531 -0.0016602 -0.0024816 0.0017458 -0.0081308 -0.0033021 -0.0018513 0.00064906 -0.0011886 -0.0029056 -0.0027621 0.005431 -0.00015629 -0.00036005 -0.0031137 0.00032696 -0.0023344 0.0004623 -0.00093091 
so 0.0028786 -0.0012768 0.0011544 -0.0010829 0.0013196 0.0035678 0.00073674 -0.0014279 0.0021039 -0.0020602 0.0011372 0.0046046 0.0029684 -0.00069815 9.3405e-05 0.0012693 -0.00064781 0.00014733 0.0050433 -0.00020658 -0.00038633 0.0054059 0.003109 0.0033161 0.00043259 -0.0036506 -0.0021475 6.785e-05 0.0037534 0.00093851 -0.0022535 -0.0016641 -0.0046586 0.0019236 0.00047535 -0.0016068 -0.0044157 -0.0010523 -0.0034638 -0.0017093 0.0017793 0.0013346 0.0074594 -0.0043978 -0.001124 0.001929 0.0063911 0.0020075 0.0030731 0.003642 -0.0047628 0.0041293 -0.002724 0.00034862 -0.0020047 -0.00061616 0.00055023 0.0038327 0.0051443 0.0088875 -0.0010134 0.0016006 0.002998 1.561e-05 0.0023683 0.0014593 -0.00012086 -6.768e-05 0.0017508 0.00018627 -5.1915e-05 -0.0052499 0.0053728 0.0060197 -0.0049813 -0.0077092 -0.00045164 0.0039419 0.0035087 0.0015202 -0.00012314 0.0037248 0.00035945 -0.0010472 0.0025367 -0.0054243 0.00035453 -0.0022732 -0.0019268 -0.0013999 -0.0011521 -0.0039786 0.0046427 0.00025446 -0.00098949 -0.0049261 -0.0010232 -0.0008223 0.0026262 -0.0035695 
You -6.3857e-05 -0.00094191 -0.00076168 -0.00011869 0.00026508 0.0012324 0.0027233 0.0020549 -0.0011116 0.0022882 -7.8179e-05 -0.00022143 0.0040721 0.0033056 0.0034828 -0.00095842 0.0023891 0.00073456 -0.0030494 0.0025146 0.0017821 -0.0015352 0.00374 -0.0014906 0.0027409 7.4602e-05 -0.00068385 0.00030822 0.0020339 0.0051237 0.00043989 0.00023401 -0.0021711 -0.0022016 -0.000773 -0.002728 0.0023288 0.00029177 0.0012882 0.0011177 -0.0015248 0.0024776 -0.0009011 0.00011941 0.0010054 -0.0025077 -0.00037434 0.0022443 -0.001574 0.0042214 0.00044569 0.0012371 0.0023316 0.00068079 -0.00030496 -0.00076407 -0.0046766 0.00085645 0.0022133 0.0021316 0.0036839 -0.003529 -0.00084208 -0.00028478 -0.00069908 0.00045094 0.0066306 0.00030582 -0.0019395 -0.00088133 0.0014699 -0.00093133 -0.00022555 0.0003058 0.00047201 0.0027663 0.005005 -0.0012457 0.0055858 -0.0043676 0.0056555 -0.0050716 -2.7033e-05 0.0016941 -0.00048367 -0.0011101 -0.00099459 -0.00050139 0.0022091 0.0024586 -0.0033296 0.0013138 0.00050821 -0.0016957 0.0022437 0.0023865 -0.00076568 0.0036699 -0.0045091 -0.0026199 
no -0.00072055 0.0027067 0.0022291 -0.0014584 0.008264 0.00043158 0.0010131 0.0037654 0.0029278 0.0051906 -0.00028943 -0.0016744 -0.0024251 0.0048366 -0.0035016 -0.00080828 -0.00037911 0.0024932 0.0021426 0.0028643 -0.0020387 -0.0038108 0.0036679 -0.00077497 0.0015669 -0.0049539 -0.0011442 0.0024802 -0.0048932 0.0017576 0.00033909 -0.0048294 -0.00046607 0.0058296 0.0009939 0.001869 -0.0023196 -0.0060453 -0.0016524 -0.0001031 -0.0045959 0.0016731 -0.0032657 0.00082647 -0.0022527 0.0021176 0.0033061 -0.0010168 -0.00097632 0.00091511 0.0039027 0.002029 -0.0048468 0.0016582 0.00016613 0.00081245 -0.0033608 0.001054 -0.0018008 0.0011536 -4.8956e-06 0.0032191 -0.0017979 -0.0055787 0.0037634 -0.0043092 0.0037706 0.002656 -0.0014269 0.0026668 0.00057929 -0.002945 -0.00052247 0.0040677 -0.0012036 0.0012329 0.00045353 -0.0046483 0.00010239 -0.0030238 -0.0018399 0.002041 -0.00048096 -0.0031016 0.0016536 -0.0010074 0.00078143 -0.00057275 -0.0010272 -0.0024911 0.0019051 -0.0048291 -0.00026209 0.0019066 0.0016945 -0.00023467 -0.0037592 0.00071942 -0.002592 0.0022586 
asking 0.00014416 3.3973e-05 0.00034533 0.001668 0.0031684 0.00014751 0.00026847 0.00073061 -0.0010396 0.0014088 -5.2077e-05 0.0029409 -0.00088247 -0.00065687 0.00028483 0.0019928 0.0033548 0.00018981 -0.00036261 0.0026841 -0.003805 0.0020031 0.002222 -0.001587 0.0036563 -0.0016566 0.00027189 0.0019963 0.00040753 0.0022576 -0.0012403 -0.00019411 0.0010672 -0.0003747 -0.0010438 0.00041775 9.8327e-05 -0.0011983 -0.0017165 0.00092371 -0.0034942 0.00086193 0.0011408 0.00030531 -0.00048012 -0.0026737 -0.00072225 0.0025463 -0.0022705 0.00046003 -0.0029491 -0.00063209 -7.9881e-05 -0.00099177 -0.00053249 0.00091936 -0.0031396 -0.0012769 -0.00084056 0.0023714 0.0015699 -0.00011971 0.0035963 -0.00070103 -0.0019941 -0.0012502 0.0016668 -0.00068728 -0.00026062 -3.9149e-05 -0.00092986 -0.0017194 0.0012205 0.00092709 -0.0011551 -0.00096177 0.0012574 9.0324e-05 -0.00073028 -0.0023571 -0.0017348 -0.0005234 -0.00055956 0.0024381 0.0024863 -0.0037405 0.00065898 0.00044998 -0.00016125 -0.00070045 -0.00083224 -0.0022214 0.0019318 -0.0021139 0.0010179 -0.0007246 0.0015523 -0.0010019 0.0021015 -0.0008685 
before 0.002877 -0.0014574 -0.00064656 -0.0012905 0.00054815 0.0016563 0.00047995 0.0017167 0.001332 -0.0014297 -0.0013851 -0.0026827 0.0031702 0.001909 -0.00080243 -0.0014856 -9.5773e-05 -0.0017673 0.0033911 0.0016103 0.00047136 -1.5718e-05 0.0028297 0.0010759 0.0011575 -0.0023373 -0.0010086 0.0014026 0.0017926 0.0038044 0.00049061 -5.9231e-05 -0.0019867 -3.8018e-05 0.0019714 2.1693e-05 -0.00022408 0.00056498 0.00015546 0.0035106 -0.0025216 0.00069681 0.0009667 0.000737 -0.0012082 -0.0014468 0.00087099 0.002838 0.0016502 0.0024821 -0.00089847 -0.0029107 0.0022056 -0.00017891 0.00028564 0.0017389 -0.00038333 0.0010706 0.00055683 4.7211e-05 0.00063148 0.00024197 0.0028009 0.00072232 -0.0016148 7.4932e-05 -0.00096144 -0.00025902 0.001353 0.00035771 0.00026147 -0.00021146 0.00049991 -0.0017648 -0.00054533 -0.00097297 0.0024206 0.0018129 1.2146e-05 -0.003244 0.0016015 0.0017479 -0.0017635 0.0010966 0.0011572 -0.0027799 0.00073848 0.0010692 -0.0019169 0.00044517 0.00025704 -0.0013837 0.0010426 0.00012477 0.00085461 -0.00039914 -0.0015489 0.00014583 -0.00206 -0.00041556 
post 0.001012 0.0031795 0.0013334 0.0026667 0.0040981 0.00045809 -0.00015467 -0.00013589 0.00015395 -0.0016638 0.0010955 0.00061553 -0.00022754 -0.0035858 -0.00066941 8.0422e-05 0.0028031 0.00068398 0.0024493 0.0042881 -0.00075882 -0.0014587 0.0039735 -0.0020934 0.0016164 0.00045089 0.0010726 0.00050154 -0.00040916 0.0032348 0.0018436 0.00025492 0.00078233 0.003955 0.0032017 0.0002495 0.0015249 -0.0032535 -0.00016089 0.00026557 -0.0038857 0.0029074 -0.0019752 -0.00014147 -0.0019986 5.4371e-05 0.0018393 0.0039143 -0.00037544 0.0021162 -0.0005852 -1.2014e-05 0.00040124 -0.0026335 -0.0008391 0.0029416 -0.0012408 -0.00069443 0.00071632 0.0047084 -0.0014788 -0.001588 0.0021834 -0.00094391 -0.0042601 -0.004143 0.00071464 0.002308 0.0010156 -0.0019444 -0.00069322 -0.0013862 0.003296 -0.001094 0.00099969 -0.00058453 0.0026158 0.0016781 0.00095759 -0.0035689 0.0013956 0.0010265 5.8229e-05 0.0022135 0.0062459 -0.00025963 0.0011094 0.00063245 0.0023198 -0.00055419 -0.0029435 -0.0023199 -0.002872 0.00076486 0.0013693 -0.0010194 0.0018818 0.0017003 0.0016024 0.0006639 
just -0.0010705 0.0012041 0.00091322 0.0041102 0.0020337 0.00089556 -0.0022753 -0.0025806 0.0010746 0.00055188 -0.00048094 0.0016755 -0.00027614 0.0012419 -0.0039797 0.0022917 0.0021757 3.5914e-05 0.0018069 0.0011458 -0.0007547 0.0024237 0.0020386 -0.0023416 0.0020531 -0.00012394 0.0012953 -0.0012991 0.0026181 -0.00097545 -0.00057614 -0.0034603 7.7437e-05 0.00040332 0.00083231 -0.0013005 -0.0013783 0.00071635 0.0017027 0.0016651 -0.0038208 0.00084552 -7.62e-05 0.0012422 -0.0024139 -0.0010745 0.0012198 0.0041687 0.00018274 0.001413 -0.0025386 -0.0022643 -0.0016596 -0.00081019 -0.00046781 -0.00035481 -0.0019575 -0.00098058 0.00089776 0.0029525 0.00046594 -0.003055 0.00021505 0.0019071 -0.0041071 -0.0018764 0.0021636 -0.0020179 0.00026248 0.00019282 0.0023211 -0.0018176 0.0011307 0.0018533 -0.002169 -0.0013328 0.0017415 0.0003804 0.0041207 -0.0015601 -0.00070659 -0.0022343 0.0031763 0.00085206 0.004892 -0.0026327 0.00070106 -0.00092484 0.00054915 -0.0010917 -0.00094195 -0.0053813 0.0014398 -0.00091392 0.0017665 2.7021e-05 0.0013176 -0.0025179 0.00018652 -0.00022889 
if 0.0017446 0.0013913 -0.0037319 -0.0067672 -5.2677e-05 -0.0016523 -0.0031905 0.0014708 -0.0044616 -0.0045322 -0.0038515 0.0079714 0.0020863 -0.0039839 0.0032239 4.1823e-05 -0.00020053 0.00084529 0.0051549 0.0034537 0.0029437 -0.0051861 0.0064048 -0.00078101 0.0006537 7.2231e-05 0.0043932 0.0050912 0.0034284 0.0010708 0.0075142 -0.0022736 -0.0062227 -0.0007826 -0.0022579 -0.0019012 0.0019281 -0.0043335 0.0038853 0.0012853 -0.0044684 -0.00010075 -0.0043039 0.0021386 0.0022985 -0.0024432 -0.0013508 0.0017654 -0.00014323 0.0019163 0.0024301 0.0025368 -0.0019097 -0.0044844 0.0011556 -0.0028303 0.0023109 0.00055005 0.005773 0.0031966 -0.00011804 -0.0021937 0.0062996 0.0001961 -0.00065652 -0.0021373 0.0062062 -0.005565 -0.00017323 -0.001292 -0.00099108 -0.0040749 0.0021671 5.7089e-05 -0.0029545 0.0010965 -0.0018321 0.0019238 -0.00010765 -0.00019075 0.0063569 -0.0015303 0.002292 -0.00015094 0.0036912 -0.00641 -0.0035766 -0.0028271 -0.0012962 -0.00052419 0.00066552 -2.6382e-05 0.0018062 -0.0014842 -0.0054217 0.0043054 0.0020525 -0.00029656 0.0010445 -0.00097815 
like -0.00021061 0.0010244 0.00055362 -0.00057247 0.00022903 0.0037354 0.00054213 0.0011198 0.00068276 0.0036609 -0.0013519 -0.0051913 0.0012209 -0.00032251 -0.00083673 0.0013604 0.0021088 -0.00040675 0.0021878 0.0013126 -0.0023561 -0.00043702 0.0029411 -0.0019409 0.002049 0.00062019 0.00073066 0.001426 0.00077888 0.00025257 0.00010747 0.0010383 -0.001635 0.0020311 0.0015641 0.0027059 -0.00025556 0.0018634 -0.0011976 0.0010372 0.00023781 0.00043636 -0.00069558 0.00051456 -0.002613 -0.0010844 0.0042253 0.0030872 -0.0030788 -0.0019192 -0.00050598 -0.0020532 -0.00065078 0.0032168 -0.00068001 -0.0013842 -0.00045522 -0.0034624 0.0036368 0.0014438 -0.0028731 -0.0011731 0.0029464 -0.00054001 -0.0031184 0.0011806 0.00088638 0.0012013 0.0022289 0.00090355 0.00074808 0.0025153 0.0032114 0.0021777 -0.0021923 -0.0019914 -0.00018006 -0.0038144 -0.00073465 -0.0015339 0.0014514 2.9769e-05 0.0026201 0.00099908 -0.0011305 -0.003398 -0.0011584 -0.0001843 -0.00033202 -0.0011226 0.0019545 -0.00064206 -0.0015952 0.00017537 0.001059 0.0018014 0.0012454 0.0019018 0.0021056 -0.00097161 
off-topic -0.00073125 0.0017962 -1.3719e-05 0.0011413 -0.00078036 -0.00026974 -0.0009802 0.00049712 -0.00037882 -0.00044661 -0.0011568 0.00087906 -0.0022856 -0.00014041 -1.1316e-05 -0.00060647 8.7778e-05 0.00021057 0.000786 -0.00038557 0.0016157 0.0009298 0.00048172 0.0010894 0.001067 -0.00010115 -0.0010972 -0.0014566 0.00063126 -0.00082519 0.0016609 -0.00085392 -0.0003549 -0.00071153 -0.00057886 -6.9585e-05 -0.00057188 -0.0012092 -0.00088565 0.0024576 1.1862e-05 -0.001261 -0.0018969 0.0022623 -0.0023537 -0.0013196 -0.0018724 -0.0010171 -9.5558e-06 -0.0010666 -0.0016325 0.00016274 -0.00030994 -0.00097344 0.00040558 0.0021696 -0.0001761 0.00076423 -0.00024254 -0.00063102 -0.0022623 -0.00026282 -0.0013014 0.0023358 -0.00074414 0.0004009 0.00082926 -0.00090296 -0.0025283 -0.0011423 -9.6575e-06 0.00043852 -0.00096931 0.00061851 -0.0004491 0.00060485 0.0022016 -0.0003637 9.129e-05 -0.0003185 -0.00083037 0.00078999 0.0014403 0.00063544 0.0013755 0.00058553 0.0013877 0.002159 0.0013515 -0.00027632 0.00038549 -0.002005 2.6453e-05 -0.0010141 -0.00113 0.0012869 0.00057347 -0.00035825 -0.00048938 -0.001308 
at -0.0021636 -0.00074123 0.00031601 0.00014867 0.0048 0.00041217 0.0031699 0.0027204 -0.0010832 0.0040114 -0.0047785 -0.0017773 -0.00064325 0.0015022 0.0030765 0.0046126 0.0021291 -0.00090536 0.00039403 -0.00035898 -0.0026597 -0.00035985 0.00063142 0.00017769 0.0012915 0.0036185 0.002109 0.00058205 -0.00038603 0.0064658 0.001989 -0.0019359 -0.0068092 0.0051134 0.004146 -0.00091831 -0.0010377 -0.0012423 -0.0040612 0.001078 -0.006268 0.0044159 -0.0024907 0.00038394 -0.003618 -0.0036331 0.00081137 0.0026253 0.0048022 0.004994 -0.00062286 -0.00018757 -0.0036346 -0.002663 -0.0023846 -0.0045722 -0.0075812 -0.0020409 0.0038915 -0.0010727 0.00074164 -1.3172e-05 0.0039818 0.0021208 0.0008353 -0.0053889 0.0052835 -0.0044323 0.0044264 -0.00069782 -0.00042785 0.0016126 0.0034153 -0.0022572 -0.00068425 -0.0022327 -0.0036741 0.003421 0.00034132 -0.0076787 0.0016168 0.0014592 -0.001884 -2.2313e-05 0.004976 -0.0032186 -7.9359e-06 -0.0029466 0.003056 0.00024077 0.0040012 -0.0029007 0.005274 -0.0010362 0.0041984 -0.0050381 0.0005044 0.001954 0.0031399 -0.0037829 
would 0.00093833 -8.038e-05 -0.0015911 0.0013496 0.0022163 0.00029752 -0.00035585 0.0026469 0.00059883 0.0012916 -0.00067255 0.0011423 0.00072406 -0.0019395 -0.00019935 -0.0010933 0.0015004 0.00080772 0.00046955 -0.00075548 -0.0018773 0.00042895 0.0019543 0.0008734 -0.0024547 -0.0023686 -0.0023342 0.002209 9.5619e-05 0.0010336 0.00054868 0.0010839 -0.0019925 -0.0009253 -0.00032611 0.0021183 0.0032409 -0.0023981 -0.003346 0.0034937 -0.0012962 0.00072754 0.0016061 0.00065278 0.0014055 -0.0015547 0.0011451 3.8134e-05 0.0009151 0.00060669 -0.0028858 0.0023451 0.00095922 -0.0026881 -0.0025298 0.00088984 -0.0013073 0.00083525 0.002484 0.0022338 0.0039673 -0.0022241 0.002626 -0.00038001 -0.0013703 -0.0013345 0.002402 -0.001048 -0.0013511 -0.00099172 -0.00079901 0.00039162 0.0023381 0.0014164 -0.0024858 2.3257e-07 0.002538 0.0025983 0.0038816 -0.0025754 0.00016524 0.00060553 -0.00053845 0.0023355 0.00012174 -0.0013911 0.0011684 0.00059692 0.00059033 0.00057006 6.1253e-05 -0.00064784 0.0016775 6.5995e-05 0.00025237 0.00049137 -0.0027185 -0.001117 0.00039658 0.00014849 
should -0.00080218 0.00037988 -0.0024908 0.00080525 -0.00010859 0.001092 -0.0019234 0.0016625 -0.0011485 -0.0005935 -0.0013447 0.00043634 0.0015649 -0.00059342 -0.0029095 -0.0010669 0.00014173 0.00054929 0.00035445 0.0026905 -0.0022334 -0.0010534 0.0032062 0.00097617 -0.0003392 -0.0010133 0.0021608 0.00025365 0.0014752 -0.000422 -0.00067221 -0.0010155 -7.8259e-05 -0.00078839 -0.0019623 0.00089401 0.00052658 -0.0019645 -0.0023948 0.0012078 -0.0016385 0.0018607 0.00046242 0.00064545 -0.0029125 -0.0027859 0.0002258 0.0022725 7.4115e-05 0.00039698 -0.0004252 -0.00022892 0.00018244 0.00016746 -0.00046627 0.0010126 9.2678e-05 0.00060199 0.00010504 0.00040118 0.0014459 -0.00037687 0.0026099 -0.0012345 -0.0018146 -0.0021659 0.003125 -0.00057459 -0.00071789 -0.00020736 0.00015419 -0.0015002 -0.0010512 0.0026391 -0.0012092 0.0017918 -0.00018928 -0.00062858 0.0037517 -0.0019555 -0.00016785 -0.00024728 -0.00017938 0.00075277 0.0019909 -0.001043 -6.7463e-05 -0.0017362 -0.0012295 0.0019125 -0.0013952 -0.0008039 -0.00031931 -0.00076895 0.0007262 0.0008308 -0.0037139 -0.0013279 0.00017412 -9.7902e-06 
some -0.00033174 0.0019895 5.3866e-05 0.0012111 0.0028646 -0.0020025 0.00046924 0.0010847 -0.0029598 0.0023013 -0.0018624 0.00066423 0.00040553 0.00077634 0.00042186 -0.0019665 0.00047333 0.0037439 0.0017221 0.0016623 -0.0013923 -2.6293e-05 0.005934 -0.001136 0.00074634 -0.0021654 0.0011535 -0.0021867 0.0059647 0.0036188 0.0013408 -0.0011882 -0.005252 6.081e-05 -0.002127 0.0024601 0.00090584 -7.0429e-05 -0.00099557 0.0010573 -0.0043208 0.0034618 -0.00027757 0.0012949 -0.0024533 -0.00069671 -0.00042855 0.0022619 -0.0016801 -0.0022114 -0.0011359 -0.0022872 0.00088756 -0.0043567 -0.0013693 0.0018495 0.0011595 -0.00041723 0.0025275 0.0046427 -0.00079711 -0.0025018 0.0014825 -0.0017313 -0.0024193 -0.0031096 -0.00097547 -0.0023375 0.0019545 0.0049141 0.0050564 -0.00023103 0.0018947 0.0044845 -0.001139 0.00064468 0.0040069 0.0016453 0.005026 -0.0051724 0.0011022 0.0015282 -6.8736e-05 -0.00056429 0.0052307 -0.0042103 -0.0014977 -0.0020217 7.115e-05 0.00067991 0.0016232 -0.0019795 0.0021797 0.0011744 0.0030138 9.7175e-05 -0.00074691 0.00055782 0.00093698 -0.0013297 
with -0.00053065 0.0010335 -0.0033094 -0.001658 -0.00047652 0.0013575 -4.6447e-05 0.0012144 0.00031563 0.0005957 -0.0040076 0.0020564 -0.0016807 -0.0018005 0.0016211 0.0038405 -0.00034111 -0.00021638 -0.0023124 -0.00096586 -0.0046321 0.0013488 0.0017421 -0.001927 0.0048951 -0.0032253 -6.6208e-05 0.0031715 0.00085195 0.0025493 0.0014608 -0.0020326 -0.0014975 0.0024267 -0.0027817 -0.00040273 0.00062646 0.00049369 0.00058052 0.00078907 3.4856e-05 0.0019964 0.0027542 0.0012641 -0.0025812 -0.0023572 0.0019578 0.0028479 -0.0006531 0.00035649 -0.00075854 -0.0010064 -0.0022502 -0.0016941 -0.0020037 0.00087766 -0.00040306 -0.00097498 0.0030028 0.0010697 -0.0020461 0.00061776 0.0020628 -0.0012577 -0.0022948 -0.0012141 -0.0007174 0.0031002 -0.0013104 0.0013284 0.00042894 -0.00092072 0.0021845 0.0013813 -0.00086732 0.0010154 0.001719 0.0017334 0.0025181 -0.0036086 0.00066803 -0.001507 -0.00042687 0.0021789 0.0011868 -0.002297 7.7722e-05 -0.0010608 -0.00033891 0.0031736 -0.00026863 -0.0023014 0.0003842 0.00068247 0.0018726 0.0011973 -0.00061977 -0.0047233 -0.00028113 -0.0014801 
ask -0.00085725 0.0020093 -0.0017687 -0.0012644 0.0044174 -0.0017758 -0.0022464 0.0023504 -0.00023129 0.0024964 -0.0025292 -0.00067059 0.00045653 -0.0032825 0.0018276 0.002904 0.00062058 -0.0011293 0.0018106 0.0027231 -0.0013123 -0.00059667 0.0025757 0.0014486 0.00084748 -0.0020104 -0.0024369 -0.00036437 -0.0023544 0.0020342 0.00047063 -0.00096945 -0.0026383 -0.00030313 0.00098595 -0.0023946 0.00053318 -8.2833e-05 0.00012861 0.0021759 -0.0037413 0.0052847 0.0019578 0.00047266 -0.0013145 -0.0023782 0.0001613 0.0019359 8.1672e-05 0.00074485 -0.00051979 -0.0010219 0.0017101 -0.0010525 0.00090715 0.0038364 -0.0020023 -0.0015614 0.00049158 0.0043213 0.00058803 0.0008746 0.00029475 -0.00096406 0.00032547 0.00034605 -0.002195 -0.0008216 -8.0249e-05 0.0016315 -0.0022171 -0.0010847 0.0024379 0.00085583 -0.0025506 -0.0007729 -5.9126e-05 0.002389 -0.0026481 -0.0020515 -0.0024407 0.00052671 -0.00018793 0.0025245 -0.00072633 -0.0042283 0.0047729 -0.0042205 0.0019947 -0.00063071 -0.003286 -0.001771 0.0015456 -0.00032328 0.0032241 -0.0014043 0.00032039 0.00042599 -0.0018008 -0.0018105 
I'm -0.00067061 0.0013118 0.001805 0.00026478 0.0028739 0.0054899 -0.0009148 -0.002832 -0.0031918 0.0038681 -0.0014918 -0.0034065 0.0023448 0.003855 -0.0043629 -0.0029106 0.0014196 0.0010198 -0.00020935 -0.002879 -0.00064799 -0.0018747 0.0030963 -0.00068221 0.00066096 -0.0034162 -0.00078657 0.0029119 0.00018352 0.0042931 0.0044192 -0.003237 -0.0036387 -0.0021782 -0.0003322 0.0057431 -0.00023963 -0.0032429 0.0013933 0.0038258 -0.00034561 3.5937e-05 -0.00058579 0.0006927 0.002227 -4.0437e-06 -0.0024061 0.0010366 3.0846e-05 -0.00087688 0.0004188 -0.00029146 0.0014947 -0.0006019 -0.0018971 0.0032082 -0.00068494 -0.0030286 0.0034917 0.001178 -0.00037372 0.0015579 -0.0021409 -0.0020669 -0.0041987 -0.0032955 -0.0023432 0.00026044 -0.00071651 -0.0011722 -0.0029748 -0.00061052 0.001912 0.0032726 -0.0014258 0.0042481 0.00082895 -0.002682 0.00099666 -0.0012894 0.00099289 -0.0025693 0.0037903 -0.0010842 -0.0029995 -0.0032645 0.0010917 -0.0029255 0.00071996 -0.0010878 -0.0024165 -0.0016117 0.00094574 -0.0038427 0.0025419 -0.00064067 0.0018718 0.001696 0.0015493 -0.0035364 
more 0.00064863 0.0016625 -8.3218e-05 -8.6425e-05 0.00068259 0.002631 -1.5639e-05 0.00167 -0.0021115 -0.0022414 0.00077038 0.00019881 0.0023818 0.00044626 -0.0026692 -0.0016521 -0.0003124 -0.0040508 0.00056042 0.0022008 -0.0024671 -0.0019635 0.0018439 0.0010997 0.0024682 -0.0032973 -0.0029002 0.0010717 -0.00093911 0.0014524 0.0021942 -0.0021805 0.00054662 0.0025565 0.0022894 0.0027322 -0.0010734 0.00061886 0.0013166 0.0013421 -0.004154 0.0055195 -0.0032179 0.00096834 -0.0012843 -0.00099281 -5.3183e-05 0.0048082 0.0016179 -0.0012744 -0.0012987 -0.001322 0.0001334 0.0005111 -0.00031635 0.0012031 -0.0034207 -0.0021176 -0.00090695 6.9581e-05 0.00016041 -0.0017605 0.0024903 -0.0017746 -0.0040249 -0.00094075 0.00035925 -0.00081955 -0.0003479 0.00079028 -0.00079426 -0.0024504 0.0041085 0.0014038 -0.00061692 5.0776e-05 0.0044317 0.0007663 0.0016674 3.7927e-05 -0.0024518 0.0011378 -0.002463 0.0022671 -0.0008179 -0.0032262 -0.00048428 -0.0015091 -0.0012837 0.0036462 0.00022737 -0.0015263 0.00010537 0.00013359 0.00090727 -0.0013849 0.00046243 -0.0018438 0.00059325 -0.00024944 
by -0.0016463 -0.0010766 0.0003689 0.0014496 0.003797 0.00076095 0.0044876 0.00030452 0.00017578 0.0029056 0.00027864 -0.0040562 0.0048984 -2.9685e-05 0.0012384 -0.0020319 -0.0044454 -0.0019701 -0.0017014 0.0029848 -0.0048495 -0.00073824 0.002255 -0.0022447 -0.0029596 0.0011251 -0.003217 0.0013899 -0.0045077 0.0019877 -0.0031354 -0.0017987 -7.7911e-05 0.0040248 -0.0033373 0.0036857 0.0023436 -0.0032581 -0.0016548 -0.0008927 -0.0008972 -0.00087567 0.0052797 -0.0026175 0.00493 0.00098203 -0.00067765 0.0011752 -4.3846e-05 -0.0019028 0.0070317 -0.0054727 0.00020021 0.0043575 0.0012344 0.00015164 -0.0026942 6.7074e-05 -0.00084602 -0.00058412 0.0010392 -0.0054544 0.0024202 -0.0016639 0.0011136 0.00051923 -0.00057112 -0.0017757 -0.0014489 -0.0018757 -0.0012867 -0.0075838 0.0019742 -0.0024064 -0.0056055 0.0048793 0.0060887 -0.0039084 -2.2175e-05 -0.0030653 -0.0027659 0.0035771 -0.0024136 0.0043083 0.00051544 0.0052589 -0.00012757 -0.0041519 -0.0017005 -3.3776e-05 -0.0046738 -0.0031143 -0.0018708 0.0011048 -0.0011242 -0.0055631 -0.0018713 -0.0031381 -0.001698 0.00038907 
please -0.0005687 0.00048682 -0.00054739 -0.0009797 0.0024794 -8.5726e-06 -0.00057857 0.0030166 -0.00094082 -0.0019198 -0.0013857 0.0015312 -0.0019573 0.0025097 -0.0013177 -0.0015404 0.0028388 0.0011782 -0.0022522 0.004208 -0.0018083 0.0024912 0.0024782 0.0011636 0.0015851 -0.0024817 -0.0022915 0.0027035 -0.00064823 0.0023591 0.00048721 -0.00099457 -0.0020121 0.00094318 0.0027234 0.00038708 -0.00048219 0.0017803 0.0021043 0.0006733 -0.0028893 0.0018029 0.00014789 0.0025035 -0.0023352 -0.0017299 0.0017242 0.0019314 -0.00085195 -0.00054268 0.00021366 0.00038556 0.00076539 -0.00087234 -0.00030447 0.0019961 0.0011161 -0.0017647 0.003266 0.0019916 0.00069172 -4.6074e-05 0.0031591 -0.00072356 -0.0024655 -0.0013476 0.0018131 -0.0016255 0.00025528 -0.000352 -0.00058506 0.00064109 0.0021675 -0.00051387 0.00036926 -0.0018169 -0.00091462 -0.00065023 0.0015156 -0.0028204 0.0013855 0.00058687 -0.0010081 -0.00089808 0.0055111 -0.0027313 0.0012198 0.00048227 -0.0012544 0.0031765 5.9193e-05 -0.0018887 0.0028591 0.00027388 0.0002252 0.00024869 -0.0030733 -0.001477 -0.00010495 -0.00027725 
does -0.0016205 0.0028514 0.0012576 0.0027727 0.0015535 -0.00054466 -0.0014023 0.00077157 -0.0017192 0.00083791 0.0010412 0.0016352 0.0026009 -0.00062875 -0.00052234 0.0027333 0.0013517 0.00055092 0.0015952 -5.1275e-05 -0.0022917 0.00021692 0.0043306 -0.0027116 0.00062453 -0.0025315 -0.00061773 0.004582 0.0016098 0.0021039 0.0043482 -0.0033425 -0.0034927 0.0026366 0.00074031 -0.00056404 0.0039755 0.0012417 -0.0023144 0.0020235 8.2523e-05 0.0017009 -0.0009463 -0.0020852 -0.0028968 -0.00021191 -0.00041879 0.0039587 0.0035399 0.0047506 0.00054111 -2.4294e-05 0.00040764 0.00048754 -0.00078944 0.0019105 -0.00052393 0.0016165 0.00345 0.0042244 0.0036483 -0.0028731 0.0074756 0.00077242 -0.00055802 -0.0014223 0.0046049 -0.0037376 0.0020803 0.00073931 2.3485e-05 -0.00078884 -0.0015642 0.0028618 -0.00070471 -0.0007621 0.00079776 0.0014117 0.00090684 -0.0069745 0.00059215 -0.0017666 0.0021129 0.0010146 0.0031469 -0.00064433 -0.0011707 0.0004917 -0.0031622 -0.00028436 0.0012042 -0.0041814 0.0035828 -0.0010467 0.00096647 -0.0011458 -0.0025137 0.0026984 0.00063713 3.1168e-05 
any -0.00053168 0.0051932 -0.0036235 0.0053997 8.3794e-05 0.0042559 -0.0010203 0.0030758 0.00026331 -0.0049361 -0.00077222 0.0048622 0.0048213 0.0052533 -0.0048432 0.00192 0.0012622 0.0033054 -0.002317 0.0038268 -0.00013154 -0.0012537 8.5705e-05 -0.00078116 0.0014571 -0.0050551 0.00029525 -0.0018514 0.0035908 0.0030288 0.00077957 -0.00019802 -0.0022523 7.8819e-05 0.0013603 -0.00087004 -0.0025347 0.0048441 0.0033176 0.00244 -0.0016604 0.0053294 0.0013407 0.0011409 -0.00057438 0.0017474 -0.00034907 -0.0030873 -0.0049603 0.00038301 -0.003311 -0.0016747 0.00024667 0.0013718 -0.00026813 0.0055344 -0.002272 -0.00015783 0.0068329 0.0023072 0.00051476 -0.0019871 0.0031315 0.0010774 -0.0025346 -0.0013405 0.0014319 -0.0004669 0.00336 0.0018779 -0.00016807 -0.00092826 0.006346 -8.9247e-05 -0.0035454 -0.00021091 0.0038472 0.00018337 0.00074334 -0.0049602 0.0036094 -0.0014555 0.0032088 0.00086734 0.005642 0.00030284 0.0015626 0.0021591 -0.0022353 0.00066981 -0.00036451 0.00017862 0.004958 -0.00013637 -0.00054467 -0.001808 -0.001772 0.00048823 -0.0015453 -0.0034196 
questions 0.0020165 0.00068848 0.00066871 0.00067739 0.0015539 0.0024258 -0.00055857 0.00035756 -0.0027636 2.7357e-05 -0.0012113 0.00020897 -0.0006426 -0.00072434 -0.0015268 -0.00083833 0.0013409 0.0016407 0.0032365 0.0024585 -0.0026646 -0.00084567 0.0044507 -0.0020804 0.0014858 -0.00161 0.00023082 -0.00041507 0.0026691 0.0013628 -0.00032781 -0.0018469 -0.0020823 0.001453 0.00079763 0.00036991 -4.3124e-05 -0.00064974 -0.0013483 0.0024822 -0.0029341 0.0030411 -0.0031991 0.0032374 -0.0020575 -0.0031558 0.0016913 0.0038899 0.001612 0.001235 -0.0010043 -0.0011325 0.001868 -0.0028508 -0.0006672 0.0031613 -0.0020854 0.00081557 0.0032473 0.0041478 0.0011345 -0.0010535 0.0026271 -0.00087091 -0.0036344 -0.002086 0.0041575 -0.0046778 0.00045622 0.00012332 0.0014842 -0.0020942 0.0029718 0.0032852 0.00016274 0.00058944 0.0028554 0.00060722 0.0014551 -0.0051509 0.00093836 0.0026519 0.00015685 0.00017323 0.0034163 -0.0017622 8.0742e-05 -0.00072033 -0.0034035 -0.00065811 -0.00035731 -0.0025083 0.0024921 -0.0019189 -0.0001449 -0.002915 0.001967 0.00094414 0.0014133 -0.00045168 
something 0.00063295 0.0014886 -0.00046102 0.0023313 0.0043477 0.0015903 0.00083514 0.0017107 -0.0012706 0.00096437 -0.0017864 0.0011571 0.0011863 -0.00099095 0.00071788 0.0018482 0.0016566 0.00085504 -0.00043145 0.001198 -0.0014396 0.00022781 0.0049261 -0.0022056 0.0022153 -0.0011944 0.001194 0.0003467 0.0022997 0.0011295 0.0015303 -0.0016908 -0.0027926 -0.00049757 -0.00027879 0.002649 0.00014159 -0.0021774 -0.00012935 0.0010084 -0.003618 0.0035422 -0.00071409 0.0010151 -0.0010848 -0.0014288 0.0013576 0.0022561 6.1927e-05 0.00026869 -0.00093626 -0.0023066 0.00098033 -0.0016198 -0.0017917 -0.00059955 -0.00032375 -0.00074413 0.0013934 0.0031844 0.0022215 -0.00070742 0.0033057 0.00071293 -0.0013197 -0.0013127 0.0018392 -0.0026273 -5.3293e-05 0.0019584 0.0017995 -0.00044845 -0.00016461 -0.00029723 0.00010398 -0.0016458 0.001035 0.0026164 0.0015507 -0.003618 -0.000202 3.5021e-06 -2.6277e-05 0.00039396 0.0031794 -0.0017198 -0.00078837 -0.00028856 0.00034658 0.0022346 0.00059998 -0.0011188 0.0026054 -0.00082519 3.3783e-05 -0.0021493 0.00033485 0.0021073 0.0009531 -0.00079984 
research 0.0022366 0.0013523 0.0019466 2.6861e-05 0.00099165 -0.001044 0.0035379 -0.0011672 -0.0012684 0.0016613 -0.0010076 -2.2404e-05 -0.0021964 -0.0010712 -0.0010042 -0.00017054 0.00016664 0.0022269 0.0012983 0.00081524 0.0013335 0.0018347 0.0036903 -0.00085225 0.0011212 8.4498e-05 -0.0017367 0.00042909 0.00043175 -0.00058483 0.0002624 -0.0015253 -0.0010575 -3.4007e-05 -0.00028617 -0.0010891 -0.0014557 -0.0010111 0.00056337 0.0012899 -0.0022457 0.00033932 -0.00034893 -0.0018144 0.00028192 -0.0021435 0.0003215 0.0002091 0.0014673 -0.0014084 0.0020291 -0.00038227 0.0015261 -0.00023757 -0.0012359 -0.00076193 -0.0018288 0.00078842 0.0023417 0.00068117 0.0011898 -9.395e-05 -0.00031373 -0.00030845 -0.00084616 -0.00068779 0.0023132 -0.0020627 -0.001069 5.6771e-05 -0.00039509 0.0001548 -0.00079933 0.0017408 -0.00066836 0.0014912 0.001899 0.0018516 -0.00012216 -0.0026541 0.0019907 0.00039117 -0.00012241 0.0027389 0.0021376 -0.0012352 0.0014439 0.00024198 -0.0016993 -0.0012074 0.00042577 -0.0014187 0.0012229 -0.0010965 0.0014371 -0.0012011 -0.0013796 -0.0016982 5.9707e-05 0.0002564 
don't 0.0013144 0.0029054 0.0018906 0.0011211 -0.0014552 0.0020193 -0.0032888 -0.0011775 -0.0018196 0.00087137 -0.00039535 0.00078395 -0.0020502 -0.00023436 -0.00151 0.0016516 0.00046886 0.0014379 -0.00024308 0.0024754 -0.0051058 -0.0014958 0.0038252 -4.3234e-05 -0.00061563 2.1865e-05 -6.3944e-05 0.0014967 0.0012967 0.00089144 0.0003375 -0.0002458 -0.0023003 0.00090249 0.0019765 0.0019026 -0.00040673 -0.0013763 -0.00072766 0.0015468 -0.00095841 0.0032547 -0.0011132 0.00058798 -0.0017446 0.00043652 0.0016341 0.0021431 0.0021138 0.0023879 -0.00089297 -0.00063463 -0.001033 -0.001093 -0.00041895 0.00083353 -0.0023382 -0.0011478 0.001828 0.002894 0.00085849 -0.001226 0.0046831 -0.0013121 -0.0027862 -0.0011452 -0.00049186 -0.0012253 0.00019285 -0.00023836 0.00059529 -0.00060407 0.0037542 0.0017582 0.0012425 0.0012957 0.0018013 -0.0010168 0.0017554 -0.0042509 0.0017997 0.0014778 0.0022069 0.00089917 0.0022068 -0.0011556 0.00029055 0.0011443 -0.0032289 2.7681e-05 -0.0010367 -0.00047728 0.003064 0.00093557 -0.00063436 0.0010205 0.0011533 0.0006401 0.0035272 -0.00015644 
effort 0.0005166 0.0011655 0.00064204 0.00066919 -0.00025182 0.00061358 -0.00058875 0.001411 -0.00032221 0.0027203 -0.0021131 0.00024427 0.00056688 -0.00034903 -0.0017923 -0.0011138 0.000706 -5.3573e-05 -0.00014077 0.0020323 -9.0431e-05 -0.0012466 0.0018341 -0.00012316 -0.00022823 0.00031058 -0.0025294 0.00027596 0.00017647 0.0014306 0.0018187 -0.0027617 0.0011614 0.0027418 -0.0014703 0.0022269 0.00026392 -0.0013742 -0.00015374 0.0017696 -0.00079209 0.0014616 0.0029512 0.00086828 0.0012367 -0.0028459 0.00039522 0.0017153 0.00028666 0.0020659 0.0010444 -0.00036211 0.0024793 -0.0014332 -0.00028929 0.0020776 -0.0015126 -3.5643e-05 0.00032026 0.002448 0.00023152 -0.0030043 0.0024074 0.00085527 -0.0010377 -0.0017943 0.00076613 -0.00056561 0.0011799 -0.0012999 -0.00067112 -0.0024037 -0.00063725 -2.313e-05 0.0015577 0.0026951 0.00055849 -0.00097286 0.0032644 0.00027541 0.00077131 0.00071851 -0.0022011 0.00059889 0.0011197 -0.0018767 0.00055073 0.00024606 -0.00091261 0.0018188 0.0020034 -0.0019197 0.003321 -0.0012406 0.0012926 0.00069644 -0.00036248 0.00034791 0.0015761 -0.001677 
you're 0.0021136 0.0013075 -0.00050597 0.0021297 0.0015634 0.0015846 0.00096119 0.0034951 0.00012042 -0.00062245 0.00035767 0.0017431 0.001315 -0.0018525 -0.0038808 -0.0015281 0.0021831 -0.00076932 -0.00049381 0.00037133 -0.0014991 -0.00058061 0.0010058 -0.0019888 0.00073092 -0.00098694 -0.0014233 0.001663 -0.00028636 0.0035021 -0.00053507 -0.0020235 -0.0037787 0.0023462 -0.00015307 0.0002735 0.00069344 0.00020816 -0.0017937 0.0020754 -0.0015941 0.0034132 0.00018673 -0.00080175 0.00088729 -0.0011063 0.00031654 0.0034822 -0.00033442 3.3367e-05 0.0031108 -0.00014368 0.00043899 -0.00058386 -0.0013818 0.0029745 -0.0040995 1.0609e-05 0.0027079 0.0022578 0.00039676 0.00050741 0.0047586 -0.0015872 -0.0032204 -0.0026878 0.00083355 -0.0011378 -0.0021389 0.00098345 -0.00081784 -0.0034703 0.001108 0.00029368 -0.0020503 0.0017418 0.0039306 0.0015325 0.0026399 -0.005094 -0.00010499 0.0025074 0.00026082 0.00068216 0.002449 -0.00022507 -0.00059437 0.00028971 -0.0015704 -0.00056714 0.0015431 0.00015676 0.0006408 -0.00098749 -0.0002345 -0.0008885 0.00024063 0.0013677 -0.0003976 -0.00085001 
my 0.0016079 -0.0026883 -0.0038156 0.0021543 0.0020591 0.0016668 0.0052658 0.00018359 0.0022083 -0.0038737 -0.0028578 0.0010482 0.0047589 -0.00041638 0.0042163 0.006331 0.0017564 0.0060734 -0.0006221 -0.0015574 -0.0045823 0.0027821 -0.0006339 0.0053244 -0.00088708 -0.0012233 0.0010293 0.0013104 -0.0010536 0.0014965 0.00050404 -0.0058188 0.0009998 -0.006816 -0.00094957 0.00017575 0.00055635 0.0016512 -0.0038662 -0.00053593 -0.0011174 0.0020914 0.00026899 0.00077571 -0.0019417 0.0034909 -0.00089141 0.00035308 -0.0020314 0.0011156 -0.0022318 0.00078323 -0.0020665 0.00088326 0.0031462 -0.00036706 0.0048498 -0.0011061 -0.0015049 0.00066327 -0.00217 0.0018779 0.00079764 -0.0024022 0.00014752 -0.00093518 0.0024808 0.0028633 -0.00095745 0.0024081 -0.000387 -0.0031861 0.0035012 0.002754 -0.00079893 0.00045976 0.00016549 -0.0013643 -6.2668e-05 0.0021065 0.0019649 -0.0043132 -0.0017957 0.00026397 -0.0037276 0.0031631 -0.0049835 -0.005151 -0.0012143 -0.00063392 0.00019376 0.0029285 -0.0015578 0.00020245 0.00010237 -0.0037557 0.00079832 0.0039861 0.00053729 0.0027066 
It -0.00030958 0.0051425 -0.0014828 0.00085734 0.0043445 -0.0032812 0.00568 -0.00061402 0.00088738 0.0035521 -0.0017426 0.0011233 0.0028865 -0.0022796 -0.0025589 -0.00247 0.0052151 0.0046911 -0.00046057 -0.00014901 -0.0035543 -0.0025324 0.0010814 -0.00018407 0.00081368 0.00035262 0.00088641 0.0040971 -0.0023181 0.0026027 0.0023586 -0.0034446 -0.0027908 -0.0011133 0.0049146 -0.0013192 -0.0013093 0.0015982 -0.0030243 0.0022836 0.005856 0.0010129 0.0013408 0.00075386 0.0044196 -0.0024077 -0.0036057 0.0016051 -0.0056651 -0.0019617 0.0026091 0.00080722 -0.0039132 -0.0035745 -0.0010848 -0.0061249 -0.0022616 -0.00044362 0.0022493 -0.00011526 9.1746e-05 0.00078785 -0.0034445 0.0015101 0.001513 -0.00047853 -0.003928 0.0017771 -0.0027555 -0.0017328 -0.00096587 -0.0016626 0.00054114 -0.0045959 -0.00084982 0.0020202 2.4647e-05 0.0035177 0.00021554 0.00030725 0.0037344 -0.0038021 0.0038063 -0.0009184 0.0025579 -0.0040526 -0.0027294 -0.00014194 -0.002867 0.0035194 0.0025104 0.0015253 -0.00026166 0.00096099 -0.0025474 -0.00031388 -0.00040983 -0.00053219 0.0034916 -0.0011243 
Why 0.00017048 -0.0015503 -0.0021738 -0.0002941 0.0026216 0.00071238 -0.0018065 -0.00099742 0.0023205 -0.0018996 -0.0016053 0.0039886 -0.0015743 -0.0025296 0.0025404 0.0002096 -0.0010666 -0.00032372 -0.0021259 -0.0011634 -0.0041772 -0.0021227 0.0028665 0.001047 -0.00037722 0.0020858 -5.87e-05 0.001508 -0.0019957 -0.0002628 0.0019917 -0.0025943 0.0029413 -0.00082769 -0.0022271 0.0018512 -0.0023568 -6.7512e-05 0.0015772 0.0026787 0.0017532 0.00098104 -0.00088316 0.0011485 -0.00046159 -0.00059716 -0.0016269 -0.0023118 -0.00042777 0.0021311 0.00082752 -0.0031882 -0.00051866 -0.0023578 -0.0015836 0.0029285 0.0008033 0.00089631 -0.0014662 0.001674 0.0027089 -0.0040608 -0.00064468 -0.0042681 0.00075002 -0.0010836 0.0034755 -0.0007307 -0.0025008 -0.0050724 0.002744 0.0027119 -0.004244 0.0049086 0.0027547 -0.0032776 0.0023257 -0.0010493 -0.0034646 0.004098 0.0028963 0.0018597 -3.1117e-05 0.0027626 -0.0014226 0.0017715 0.0021202 0.00024802 -0.0015072 0.0016669 0.0015708 0.0006327 0.0027568 -0.00034871 0.0017719 -0.0042395 0.0021518 -0.0011779 0.0033265 -0.0042241 
help -0.0019794 -0.001777 -0.0010292 -0.0015074 0.00031869 0.0035392 -0.0032267 -0.0016674 -0.00045052 0.0023818 -0.0020034 -0.0013264 0.0015952 0.00012199 -0.0016418 -0.0015562 0.00013995 -0.00092616 -0.00094488 -0.0034134 0.0028426 0.00056113 0.0029587 -0.0022361 -0.00058448 0.00065318 -0.00043151 0.0026264 -0.0021826 -0.00037665 -0.0011917 -0.0041732 -7.2477e-05 -0.0032583 0.0033885 -0.00031988 -0.00098146 0.0020061 0.001414 0.0022309 -0.00068992 0.00065906 0.0016907 -0.0014551 0.0012474 -0.0019068 -0.0016914 -0.00066269 2.8104e-05 0.0028061 0.00082199 -0.00021024 0.001374 0.00029659 -0.00087133 -0.00037971 -0.00022915 0.00024886 -0.00030864 -0.0011094 0.0038691 0.00041381 0.0033331 0.0035519 0.0015552 -0.0017522 -0.00035308 0.00064823 -0.0012962 -0.000466 -0.0017827 -0.0019051 -5.7787e-05 0.0027318 0.0016836 0.00087657 0.0043206 -0.00012175 0.00023164 -0.0029241 0.0002245 0.00028659 0.0036289 -0.0032432 0.0028744 -0.0022174 -0.0032196 0.0011119 0.0012555 -0.0018425 -0.0012715 0.00061894 -0.00053672 -0.0013147 -0.00032196 0.0015194 -0.0018975 0.00014366 0.00010444 -0.0020144 
seems 5.6439e-05 0.0010535 0.00012924 -0.0011678 0.00017617 0.0015648 -0.0014348 0.00097509 -0.00083674 -0.0018122 -0.00042641 0.0028385 -0.0026353 4.6503e-05 -0.00043648 0.0023476 0.0020361 0.0011895 0.0022277 0.00064891 -0.00013088 -0.00092952 -0.00051627 0.00089263 0.0018041 1.3009e-05 0.00090002 0.0015783 -0.0012299 0.0045915 -0.001838 -0.0013125 -0.002766 -0.0017667 0.001555 0.0018086 -0.0010001 0.0017899 0.0016087 -0.00042085 -0.00043532 -5.3685e-05 0.0028817 0.00042269 -0.0014368 -0.0031628 -0.00030041 0.00060385 0.0011354 0.00088384 -0.0008718 -0.0010473 0.0014404 -0.0016273 -0.0010969 -0.0019293 -0.000856 -7.05e-05 0.0021892 0.00098399 0.0002449 0.0014804 -0.00090169 -0.00088078 -0.0010339 0.00093986 0.00057209 -0.0011268 0.00049987 0.0028038 -9.4385e-05 0.00062377 0.00083222 -0.00021188 -0.00027108 -0.0020713 -8.2143e-05 0.00030651 0.00090413 -0.00096444 0.00080298 0.0013583 0.00080553 -0.0010999 0.0025625 3.8751e-05 -0.00079689 0.0018568 -0.0019795 -1.3112e-05 0.0019486 0.0016204 0.0019639 -0.00074345 0.0019832 0.00048133 -0.0015073 -0.0011113 0.0016363 0.0014948 
Please -0.00065691 0.00092199 -0.00021872 0.00010563 0.0011326 -0.001253 -0.0010537 0.0018777 -0.0014255 -0.00037741 -0.0020383 0.00064016 0.00050297 0.0013336 0.00034202 -0.00057519 0.0024198 0.0034145 -0.0012545 0.001836 -0.002743 0.0009862 0.0022612 0.0011703 0.0012628 -0.0017061 -0.0025379 0.001098 -0.00038266 0.002189 0.0029307 -0.00030351 0.00050347 0.00074633 0.0018756 -0.00087321 -0.00082871 0.0025373 0.0032453 0.00027361 -0.0024132 0.00025178 -0.00074307 0.00087187 0.00010632 -0.0017468 -0.00014184 0.0018685 0.00067218 -0.00099515 0.00059449 0.00052901 0.0018945 -0.0011805 -0.00066764 0.00081625 0.0010893 0.00014962 0.00024063 0.0021417 -0.0031903 -0.00058715 0.0033848 0.00074665 -0.0015559 -0.001427 -0.0013393 -0.002342 -0.0015334 -0.0015651 -0.0001428 5.9065e-05 0.0019664 -0.00031931 0.00027812 -0.00079952 0.00022586 0.00010099 0.0016685 -0.0029188 0.0017286 -0.00084914 -0.0018611 -0.00094315 0.0016327 -0.0011328 0.00077483 0.00014942 -0.0015706 0.0025308 -0.001468 -8.5845e-05 0.0012269 -0.00088507 -0.0012655 -0.00037592 -0.0010703 0.0020535 -0.00081286 -0.0017726 
all 0.0058534 -0.0010038 0.001256 -0.001262 0.001454 0.00086002 0.0034341 0.0027584 -0.0041804 0.0012938 -0.00056203 0.0016264 0.0050119 0.00071123 -0.0025733 -0.0031954 -0.00068737 -0.0015246 0.0052822 -0.00032148 -0.0003995 -0.00091103 -0.00029804 -0.00024495 0.0013927 3.1151e-05 0.00042867 0.0015547 0.0022284 -0.0003448 0.0030999 -0.0030271 -0.0058125 -0.0014023 -0.0021011 -0.00028404 -0.0025294 -0.0018087 0.0010504 0.0012697 -0.0011622 0.00040236 -6.6128e-05 0.00069114 -0.003313 -0.0026094 -0.0016143 0.0029577 -0.0022125 -0.0019319 -0.00051801 -0.0023404 -0.00026981 0.0021299 -0.00091546 0.0015714 -0.0025963 -0.0012562 0.0049491 -0.0010384 0.00036519 -0.0048123 0.0035016 0.0024989 -0.0011508 -0.00063022 0.0036254 -0.00078059 0.0012441 0.0010722 0.0046726 -0.0011738 -0.00043524 0.0029999 0.00027257 -0.0013489 -0.00012841 0.0023581 0.00023589 -0.0031509 0.0017913 0.001477 0.0010686 0.00027093 0.0042678 0.00056604 -4.3649e-05 -0.0016019 0.0026685 0.00077565 0.00241 -0.0010844 -0.0036461 -0.0012565 0.0021738 -0.0026572 -0.0033951 0.00097098 0.0014186 -0.0017821 
question. 0.00055088 0.001757 0.00021086 0.002078 0.0014534 0.0022515 -0.00084279 0.0017127 -0.0029116 0.00044586 -0.0012638 -0.0009067 -0.00013945 -0.0024864 -0.00070241 0.00061791 0.0022857 0.0019672 0.0018677 0.002521 -0.001692 -0.00041109 0.0031749 -0.0015651 0.0010947 -0.00078047 -7.3867e-06 -0.00096757 0.0022635 0.0015507 0.0002438 -0.0027247 -0.0015036 0.001684 0.00081606 -0.00052793 -0.00077813 -0.0012616 -0.0012084 0.0021054 -0.0025833 0.0030957 -0.0029244 0.0026884 -0.0017691 -0.002311 0.0025258 0.0038482 3.1806e-05 0.00081316 -0.00014879 -0.0015166 0.0011755 -0.0026524 -0.0018197 0.0036212 -0.0031556 0.00029812 0.0019155 0.0049529 0.00099876 -0.00079469 0.0025577 -0.00044286 -0.0034774 -0.00071725 0.0037125 -0.0029357 0.0016481 0.001002 0.0015777 -0.0016236 0.004316 0.0028139 0.00095937 0.001064 0.0016209 -4.9962e-05 0.0014323 -0.0031124 0.00036633 0.0020773 -0.00068738 0.0017016 0.0026759 -0.0017958 -0.00044362 -0.00063574 -0.0019636 -0.00064612 -0.00033336 -0.0030675 0.0025453 -0.00021525 0.00036781 -0.0028487 0.0016592 0.0017104 0.0026473 -0.0013655 
when -9.5435e-05 0.0057319 -0.00095263 -0.0025792 0.0030102 -0.00051352 0.00066614 0.0027877 -0.00028815 -0.0028145 -0.001021 0.0010123 -0.0012005 -0.0002984 -0.00064514 0.0033624 0.0026519 -0.0018152 0.0016813 0.0027752 -0.0015622 0.00051851 0.0027339 -0.0050234 0.0030752 -0.0031216 -4.0459e-05 0.0034733 0.0022936 0.002051 -0.00019677 -0.001493 -0.00099912 -0.00042363 0.00083952 -9.252e-05 -0.00061751 -0.0023679 -0.0035891 0.00080453 -0.0026686 0.0022961 -0.00097613 0.00082668 -0.00022631 -0.0004053 -0.00063704 0.0044031 0.00092047 -0.00079936 -0.00061357 -0.0012166 -3.6339e-05 -0.00041926 -0.00021414 -0.00044456 0.00063167 0.00080552 0.0038332 0.0057673 -5.1644e-05 -0.00049113 0.0034328 -0.0019608 -0.00066793 -0.0042635 0.0038372 0.00053459 -0.00039144 -0.00013188 0.001547 -0.0018264 0.00018663 0.0019119 -0.0030811 -0.0030243 -4.2405e-05 0.0014289 0.0012781 -0.00092604 0.0029549 0.0038827 0.00080091 -0.0014855 0.0025976 -0.0034377 -0.0018787 -0.00024483 -0.00093296 0.0014725 0.00022526 -0.001858 0.0023519 -0.0019628 -0.00045658 -0.0041955 -0.002721 -0.0034216 6.3641e-05 0.00057278 
me -0.0036352 -0.00058528 -0.0040274 -0.001581 0.0054732 -0.0020659 -0.0039934 0.0029958 0.00065134 0.0010098 -0.00028455 -0.00076464 0.0042842 -0.0013688 0.00049822 -0.0042146 -0.00077978 -0.0011038 0.00081753 0.001386 -0.00060878 0.0017449 0.0055715 0.0047451 0.0044431 0.0022839 -0.0008108 -0.0032506 0.00026643 0.005869 0.0047537 0.0013885 -0.0010915 0.0007878 0.0016568 0.0018317 0.0026771 -0.0069516 -0.0024298 0.0020752 -0.0055312 0.0033313 0.0042295 0.0015109 -0.00086013 -0.0013554 -0.00070321 0.0035372 0.00012823 -0.0073971 0.0020542 -0.0019188 -0.0025668 -0.0026108 0.00061261 -0.0051908 0.0021732 0.0020851 -0.0030626 -0.003601 -0.0028914 0.0010048 0.0018142 0.0049179 -0.0028895 0.00097745 0.0056486 0.0036487 0.0028457 0.00067024 0.0030244 -0.0038069 0.005148 0.0044431 0.0018401 -0.0024905 0.0025125 -0.0014146 0.0015702 -0.0038965 0.0029787 -0.00045191 -0.00096165 -0.00057941 0.0080014 -0.0023099 0.0068246 -0.00078739 0.0033753 0.0026913 -0.0036856 -0.003321 -0.0018399 -0.0017692 0.00036733 3.8287e-06 0.0024295 0.00012177 0.0074088 0.00037037 
And -0.0026646 -0.004064 -0.0019743 0.0045014 -0.0010934 0.0035732 0.0017724 0.0041337 -0.00036217 -0.0013669 -0.0021471 -0.0014922 0.00015625 3.4277e-05 -0.0028046 0.0012796 -0.0015414 -0.0011335 -0.0014259 -0.00065959 -0.0027404 0.0017349 -0.0016979 -0.00023994 0.0014621 -0.0013317 0.00061651 -0.00075145 0.00059762 0.00074527 0.0065275 -0.0051151 0.0021491 0.00018222 0.00018101 0.0038227 0.00091451 -0.0037687 -0.0011673 0.0022494 0.0011725 0.0026902 -2.4244e-05 0.003863 0.0011219 -0.00058894 -0.0005341 0.0009233 -4.1232e-06 0.0025164 0.0004085 -0.0026445 -0.00034475 0.0016668 -0.0032768 -0.0031404 -0.0085845 -0.0015905 -0.00055454 0.00066481 0.0031612 -0.0027885 0.0077598 -0.0002723 -0.0030975 0.00048201 0.0028566 0.00030794 0.0059162 0.0015241 0.0030419 -0.0018126 -0.0010356 0.00032866 -0.0011275 -0.0014165 0.0030232 0.0019776 7.2427e-05 -0.0047394 0.0012658 0.0027836 0.0033768 0.0036221 0.0013044 -0.0016237 0.0007954 -0.002829 -0.0013359 7.9381e-05 -0.00044962 -0.0015609 0.004146 0.00063914 0.0013333 -0.0031121 0.00027645 0.0014127 0.0018312 -0.0037077 
it's -0.0011128 0.00021971 0.00074119 0.0018986 -0.0001025 -0.00074825 0.00011736 -0.00092304 -0.0038723 1.0857e-05 0.0025924 0.00050893 -0.00086903 0.00025637 -0.0019823 0.00052594 0.0020153 0.0035054 0.0011545 0.001752 -0.0032628 0.0024653 0.004543 -0.0017014 0.00015464 -0.0018119 0.0042349 -0.0020056 0.00074523 -0.0023879 -0.00086035 -0.0013598 -0.0013101 0.0018637 -0.00050585 -0.00011754 -0.00041413 0.00014519 0.0018815 0.0013076 -0.0035004 0.00049636 -0.00063523 -0.00046885 -0.0022903 -0.00095823 0.00022051 0.0029278 -0.00022866 0.0034612 -0.0033929 -0.0032626 -0.0013337 0.00070451 -0.0018428 0.00069384 -0.00068744 0.00069249 0.00050687 0.0039714 -0.0010775 0.0017987 0.0031988 0.0010728 -0.0043011 -0.0029423 0.00026421 0.0029862 -0.00037875 -0.001038 0.00092297 -0.0023313 0.0030827 0.0022348 0.00042984 0.00094848 0.0020119 -0.00023609 0.0011069 -0.0013995 0.0013146 0.00065669 -0.0001051 0.0001148 0.0014234 -0.00025219 0.00070809 0.00076024 -0.0020788 -0.0011014 0.00077246 -0.0027224 0.00091694 -0.00014629 0.0022804 -0.0015302 0.00058114 0.00090451 0.004534 -0.0029497 
point -0.0011441 0.00099457 0.00085594 -0.00037328 0.0018638 0.0016717 0.000345 -0.002106 -0.00047208 -5.3074e-05 -0.00033108 0.0026503 -0.00052718 -0.00067777 0.0017023 -0.00038425 0.00167 0.0015679 0.0008305 0.0029041 -0.00013187 0.0039971 0.0032832 0.00054698 -0.00014255 0.00043494 0.00044955 0.0013899 0.0011922 0.0027518 -0.00071918 -0.0025688 -0.0012196 0.0026212 0.0010818 0.0012813 -0.00094559 -0.0010216 -9.2983e-05 0.0010007 -0.0014746 0.00061123 -0.0032412 0.0019871 0.0016296 -0.00099534 0.0018996 0.0013434 -0.0014472 0.00094989 0.00028664 -0.0013336 -0.0017901 -0.00043163 -0.00018241 0.0026088 0.00018163 -0.0007591 -0.00052925 0.0030516 -0.00059558 -0.0033503 0.0025623 0.00028969 0.0010893 -0.0034096 -0.0003183 -0.00053468 0.0011964 0.00093038 0.0018088 -0.0023236 0.0018032 0.00077102 -0.0014885 -0.0005799 0.00093903 0.000811 0.0028163 -0.004382 0.00096219 0.00036372 0.00039637 -7.8226e-05 0.0022935 0.00097031 0.0011712 -0.0028758 -0.0021607 -2.3587e-05 0.0011291 4.5059e-05 0.0025289 -0.0027872 0.0018697 0.00049454 0.0003446 -0.00045825 -0.00074272 -0.001984 
was 0.0013051 -0.0015194 0.001977 0.0028942 0.0018112 -0.00015324 -0.0016714 0.004415 -0.0016715 0.0032912 0.00075288 -0.0026269 -0.00069667 0.00014919 -0.0033369 0.00043726 -0.0029056 0.0021281 0.0024292 0.0037496 -0.0058958 0.0024497 0.001031 0.0021726 0.0055733 -0.002848 0.0015679 0.0040253 -0.001085 0.0013421 0.0014854 -0.0039378 -0.0041094 -0.0026752 0.00072531 -0.0021086 0.0013457 0.0013488 -0.00057225 -0.0010964 -0.0036406 -0.0026211 -0.0010865 0.00055622 -0.0018065 0.0015841 0.0029028 0.00012895 -0.0044161 -0.00093974 -0.00037483 -0.0020233 -0.0022527 -0.0014349 0.0011445 0.00013876 -0.0013505 0.0024598 8.7315e-05 0.00093113 0.0010329 0.00011211 -4.059e-05 0.0036696 0.00023664 0.0020082 0.00091758 -0.0023083 -0.00020695 0.0032411 0.0021498 -0.0023748 0.0011637 0.001433 0.00055593 0.0046863 0.0019901 -0.0019712 0.001741 -0.0031019 -0.0043637 0.0013575 0.0022775 0.0019875 0.0061038 0.00042264 -0.0011418 0.001824 -0.0013268 -0.0020532 0.0030306 -0.003475 0.0009516 0.000803 -0.00071894 0.00016282 0.0011229 0.00058228 0.0024638 -0.0012791 
too -0.00019343 -0.0026773 0.0012623 0.00029442 0.0019308 0.0044139 0.0007991 -0.001067 -0.0016655 -0.00044541 0.0023232 -0.0020897 0.0025369 -0.0044762 -0.0029031 0.0065883 0.00012038 -0.0023668 0.00046213 0.0021735 -0.0010657 0.0030209 0.0056214 -0.0021164 0.0026297 0.001553 0.0019649 0.0011242 0.0014216 0.0029073 0.0011682 -0.0060449 -0.0018384 0.004371 0.00087285 0.0009382 -0.0021003 0.0012208 -0.0015701 0.003942 -3.6969e-05 0.0012152 0.0013446 -0.002217 -0.0026381 0.0015676 0.00083672 0.0049637 0.001176 0.00054224 0.0023446 -3.7215e-05 -0.0018819 0.00082068 -0.00049126 0.0025866 -0.0032724 -0.0006407 0.0017957 0.0021134 0.002123 -0.0021658 0.003195 -0.0029629 -0.0021671 -0.00086093 0.0013803 0.0030012 0.0018688 0.0043729 0.00068861 0.0003357 0.00057587 0.0012677 -0.0022775 -0.0014115 0.0025647 -0.0016203 0.003528 -0.0021215 0.0025839 -0.0012535 -0.0034806 0.00052086 0.0012393 -0.0021481 -0.0021735 -0.00076466 0.00014015 -0.0014244 0.00018988 0.00084844 0.002105 -0.00061511 0.002125 -0.00051566 0.0032676 0.0028699 0.0010493 -0.00024718 
tried 0.0012261 0.00067865 0.00047532 0.0039972 -0.0008714 0.0033837 -0.00096548 -0.0022941 0.00011834 0.0020249 -0.00081817 0.0010574 -0.0024672 -0.0035135 0.00084992 -0.00046006 0.0017822 0.0030058 0.0023119 -0.0022045 -0.0023926 0.00071628 0.0040553 -0.00089956 0.0026968 -0.00041064 -5.049e-05 0.00059416 -8.6517e-05 -5.1537e-05 -0.00093234 0.00095738 -0.0020461 0.0019479 -0.00040364 0.0041412 0.0010962 -0.0011711 0.00099734 -0.00016007 0.00035468 0.0018881 -6.6702e-05 0.0011018 -0.0019372 0.0032213 0.0010051 0.0024863 0.0010757 -0.0018401 -0.0013422 -0.0013644 0.0009581 -0.0014616 -0.0022355 -0.0011399 0.00015138 0.0023644 0.0027271 0.0020531 -2.2874e-05 -0.0016429 0.0017318 -0.0034171 -0.0008456 -0.0022591 0.0028754 0.00053391 0.00073259 0.00021899 0.00020563 0.00096239 -0.0019608 0.0015052 -0.00043422 0.00072146 0.0038555 0.0021969 0.0014333 -0.0043465 -0.002646 0.0024933 -7.347e-05 -0.0020426 0.0010669 -0.0007155 -0.0037165 -0.0013098 -0.0028775 0.0017405 0.00073515 0.00038852 0.00043279 -0.0003745 -0.00076102 -0.0011294 0.0021773 0.0021569 -0.001618 0.00052273 
has -0.00026834 0.0021989 0.00039416 0.00156 0.0011236 -0.0015935 -0.0012051 0.00227 -0.0013793 0.0027421 -0.00085708 0.0007423 -0.00072652 -0.0015755 0.00050089 0.0040126 -6.2894e-05 0.00059756 -0.00074682 0.0035826 0.0008291 0.0023527 0.0043141 -0.0022391 0.0027191 -0.0002023 -0.0063866 0.00063261 -0.00074536 0.0029644 0.0018472 -0.0014937 0.00097677 0.00048513 -4.1387e-05 -0.0056705 -0.0002901 -0.0021615 0.0044008 0.0020736 0.00098892 0.00091257 0.0019992 0.0031773 0.0032984 -0.0014339 -0.00010331 -7.7778e-05 -0.0022095 0.00038509 0.0017416 -0.0029235 -0.0013993 0.0015157 -0.00032421 -0.0012299 -0.001615 0.001148 0.00028711 0.002058 0.00062077 -0.0026077 -7.0882e-05 0.0026705 -0.0035344 0.00056312 -0.0016576 0.00051709 -0.001846 0.0048598 7.2226e-05 -0.0017756 0.0011298 0.0061716 0.0025173 0.0027458 0.0022389 -0.0011455 -0.0030823 -0.0050655 -0.0047671 0.0023759 -0.0026451 0.00097591 0.00067146 -0.00019017 0.0013191 -0.00065052 -0.0030441 -0.0011278 0.0020763 -0.0057699 -0.001779 0.0020378 0.00052695 0.00020149 -0.00042187 -0.00033069 0.0005261 -0.0002044 
least -0.00013992 0.00125 -0.00063223 0.00033727 0.004576 0.00093217 -0.0002087 0.0018063 -0.0004445 -0.0018348 -0.00052073 -0.00063276 0.0026338 -0.0026323 0.0024098 0.00025436 0.0021219 0.0003472 0.0010551 0.004121 -0.0020539 5.8214e-05 0.0031727 0.0004677 0.0017323 -0.0012769 -0.0024906 0.0016976 0.0018936 0.0023955 0.0036837 0.00081806 -0.0020799 0.0014437 0.0018121 0.0019101 0.00088848 0.00039515 0.0014731 0.0023343 -0.0024077 0.0035178 -0.0026594 -5.2035e-05 -0.0020705 -0.0019319 -0.0013506 0.0044979 0.0006942 -0.00039948 0.0012409 -0.0012486 -0.0017774 -0.0019254 -0.0020816 0.00037625 0.00064597 0.00036837 0.00019278 0.0025918 0.00096754 -0.0021563 0.0030428 0.00030989 -0.0019977 -0.00085533 0.002273 -0.0014257 -0.0001995 0.00048555 0.0017359 0.001123 0.00018755 0.0011422 -4.8374e-05 -0.00068931 -0.0025657 -0.0015555 0.0017717 -0.00065161 0.001255 -0.00035803 -0.0019885 -0.0009334 0.0016705 -0.0034766 -0.00043465 -0.0018439 -0.0014152 -0.0010765 0.00044383 -0.0046035 -0.0003444 0.0005543 0.0013218 0.0011391 -3.4375e-05 0.0014867 -0.0029868 -0.0018101 
know 0.0013036 0.0039556 0.0014593 0.0048838 2.3917e-05 0.003714 -0.00031965 0.0026933 -0.0032834 -0.0010155 -0.0013994 -0.00019433 0.00093564 0.00093355 0.0013332 0.00048631 0.0023444 -0.0015074 0.0020551 0.0021059 0.00044816 0.001002 0.0021336 -0.0022609 0.0015799 -0.00094441 -0.00085625 -0.0031639 -0.0017323 0.00011946 0.0019163 -0.00038342 0.0009628 -0.0010096 -0.00037202 -0.0016642 0.0012808 0.00034385 0.0010003 0.0027093 -0.0010039 0.00078687 -0.0001735 -0.001213 -0.0025776 -0.0043705 0.00061371 0.0027164 0.00027156 0.0016977 -0.00206 -0.0010466 -0.0011133 -0.0011569 -0.0010997 -0.0021055 -0.0019987 0.0010006 -0.00072621 0.0039304 0.00059413 0.0012529 0.0027848 -0.0013748 -0.0046251 -0.0037371 0.0048968 -0.0015745 -0.0035213 -7.1023e-05 0.0024545 -0.0020644 3.2813e-05 0.0022271 -0.0035929 -0.00060276 -0.0024596 0.0018017 0.0019546 -0.0044614 -0.0004189 -0.0011601 -0.0010888 0.0001898 0.0076802 -0.0018991 -4.5598e-05 -0.0013083 -0.00047987 -0.0001339 0.0015825 -0.0028512 0.0025356 -0.00032014 0.00095973 -0.0016457 -0.0021778 0.0022289 0.0016191 -0.0030565 
If 0.00010813 -0.0056241 -0.0010109 0.00046449 0.0021052 -0.00036245 0.0055219 -0.0012678 -0.003875 -0.0031832 0.0033068 0.0011622 0.0014508 -0.0056718 -0.00043794 -0.00426 -0.00034557 0.0027129 -0.0015679 0.0055358 -0.00049721 -0.0069864 -0.0030481 -0.0029165 -0.0016989 -0.0017391 -0.001778 0.00011015 -0.0010164 0.0031158 -0.0023122 0.0064688 -0.0028017 -0.0007703 -0.0026503 -0.0017203 -0.0043987 -0.0038865 -0.0014256 0.0044284 -0.0058005 -0.0024014 0.0013157 0.00044123 0.0013461 -0.000817 -0.0028995 0.00013025 -0.001459 -0.0035651 -0.0033153 0.0015195 0.0015763 -0.0018331 -0.0019867 0.003823 0.002043 -0.0022307 -0.0010601 -0.0021502 0.0023299 -0.00051397 0.0028441 -0.0021649 -0.0018054 0.0023842 0.0053362 -0.0017224 0.0021656 0.003041 -0.0041374 0.0019182 0.00059462 0.0016734 -0.0019951 -7.4209e-05 -0.0016676 -0.0014502 -0.00062374 -0.00098435 -0.0027856 0.00022152 0.0029741 -0.0011654 0.00034021 -0.0010119 -0.001733 0.0005665 -4.9953e-05 0.00055101 0.0040222 0.0016185 -0.0037707 -0.0028956 0.0058407 -0.00027744 -0.00021756 0.0014653 -9.7558e-05 0.00032669 
than 0.0015927 -0.0014148 -0.00067134 0.002642 -0.00083289 0.0049149 -0.0041434 -0.0015685 -0.0032366 -0.00028801 -0.00089676 -0.0016142 0.0024979 0.0004261 -0.0017323 -0.00084706 0.00040493 0.0016053 0.0032329 0.00085973 -0.0005429 0.001828 0.0039118 0.00054203 0.0031833 0.002 0.0018182 0.00079435 -0.00055464 0.0010812 0.001417 -0.00068296 -0.0026153 -0.0025352 0.00044378 7.1945e-05 -0.00036382 0.00089232 0.0001395 0.0053503 -0.0051447 0.0050706 0.00147 0.002741 -0.00050884 0.0003603 -0.0013638 0.0018293 -0.002363 0.0024795 0.0004472 -0.0017079 0.00017993 -0.0030734 -0.00020334 0.00092032 -0.0039861 -0.0012448 -0.00027813 0.0049615 -0.0016701 -0.0027024 0.0009195 -0.0011797 -0.0022151 -0.0015299 0.0012386 -0.0024225 -0.0018476 0.00035182 -0.0034518 -0.0002601 -0.00090471 -0.00085499 -0.00092095 0.0010747 0.0029307 0.0011057 0.0022521 -0.0046734 0.0020539 -0.0017816 -0.00089047 0.0024206 0.0032816 -0.0044936 0.0013728 -0.0032679 0.0014866 -0.0016205 0.0011243 -0.00085734 0.0020745 0.0011952 0.0018338 -0.0014737 0.0011749 0.0023875 0.0014548 -0.00165 
learn -0.0012403 -0.0012972 0.0016912 0.00015444 0.0016177 0.0018722 0.00052532 -1.4028e-05 -0.00082516 -0.00083411 -0.0031522 0.00083965 0.00037042 -0.00031047 -0.001407 0.0017094 0.0047824 0.0028698 0.0011744 0.0027351 0.00013591 0.0023893 0.0045919 -0.0012602 0.0010521 0.00013619 -0.00023344 -0.00037283 0.0021099 0.0012012 0.0033325 0.0012905 -0.0019426 0.00087973 -0.0012603 0.00036187 0.00034437 0.0020626 -0.0010597 -1.7131e-05 -0.00098132 0.00096973 -0.001869 -4.4089e-05 -0.0022051 -0.0038891 0.00064467 0.0057945 -0.0011019 0.0027235 -0.0002908 -0.0020038 -0.00093541 -0.0026079 -0.00071724 -0.00014154 0.0018416 0.00034075 0.00093049 0.001692 -0.0015749 -0.0035558 0.0026845 -0.0020002 -0.0029665 -0.0017857 0.00027681 -0.0024722 0.00016736 -0.0016537 0.0006453 -0.0013789 0.001089 0.0030337 0.001134 -0.001356 -0.00022531 -0.0013726 0.00086 -0.0005054 0.0012855 0.00067815 0.00062424 -0.0025778 0.00084984 -0.0016771 -0.0021065 0.0014591 -0.001983 0.0024015 0.0014508 0.0028549 0.0040848 -0.002129 0.00080998 0.00077224 0.00060868 -0.00022076 -0.00057916 0.0023721 
try -0.00028386 -0.0012754 -0.0026268 0.00039774 0.0019253 0.0054171 0.0013402 -0.0020284 -8.8475e-05 -0.00092318 -0.00011125 0.0026301 -0.0037706 -0.00096093 -0.0021742 -0.0012656 0.0039791 0.0019864 -0.0019775 0.0015131 -0.0017699 0.00082438 -0.0020672 0.0016956 0.0010116 -0.0016932 -0.00083488 0.0018557 -0.002685 0.00046025 0.00063465 -0.00038148 0.0011553 0.0025062 0.0047012 0.00045881 0.001522 -0.0012116 0.00054268 0.00063281 -0.0021137 0.0054759 -0.0011031 0.00055701 -0.0041575 0.00071596 0.002095 0.00098779 0.002691 0.00085409 -0.0015319 -0.0042429 0.0033177 -0.00019413 0.0020463 0.00085523 0.0004365 0.0023172 0.0039876 0.0012868 -0.00062123 -0.0027641 4.2443e-05 -0.0036934 -0.0023115 -0.0018999 0.0018016 0.00095104 -0.00065844 -0.00036979 0.0012512 0.002412 0.0031852 0.0017476 -0.0047048 0.0011199 0.0024362 -0.0011323 -0.0014392 0.0017647 -0.0020456 -0.0042902 -0.0008135 0.0033023 0.0045173 -0.0028654 -0.004765 -0.0036745 -0.0014578 -0.003327 0.0012768 0.0021469 0.0031747 0.00547 0.0036531 0.0010432 0.0024489 -0.0035931 0.0021286 -0.0013141 
there -0.00010951 0.0016254 -0.0028343 -0.0009533 0.0027795 0.0011289 -0.0013648 0.0028101 -0.0022362 -0.0025608 -0.0023884 0.00034742 0.0024662 0.00034905 -0.0015546 0.0013744 0.00048769 -0.000275 0.0017922 0.002125 -0.0048105 -0.0010518 0.0037128 -0.00068262 0.0016781 0.0010205 1.9212e-05 0.0029057 0.0021147 0.0055257 0.0016104 -0.0042413 -0.0016708 0.00066445 0.00033033 7.7106e-05 0.0021025 0.00016792 -0.0022749 0.004395 -0.0023828 0.0037317 -0.00039131 0.0015092 -0.0017309 -0.0018345 0.0022961 0.0044008 -0.001743 0.00068017 0.00048248 -0.0016261 -0.001344 -0.0024073 0.00069148 0.00089297 -0.0010458 -0.00051316 0.0020322 0.0029812 0.0022854 -0.0015054 0.0043703 -0.00076775 -0.0051803 -0.0038847 0.0027836 -0.0018023 -0.0023089 -0.00073578 0.0012956 0.00068596 0.004232 0.0011458 -0.00017237 -0.0012721 0.0010042 0.0012473 0.0043491 -0.0057602 -0.00065487 0.0028848 -0.0018632 0.00040076 0.0036384 -0.0046249 0.00088363 -0.0011751 -0.00025683 -4.9767e-05 0.00097987 -0.0016951 0.001122 -0.00022739 0.00033842 -0.00017624 0.00038459 -0.0015066 -0.0017954 -0.0013431 
doesn't 0.0017608 0.0020256 0.0015794 0.00099081 0.001159 0.00094645 0.00034084 -0.00020036 -0.001438 0.0004224 9.8152e-05 0.0021464 0.0010292 0.00039317 -0.0012772 0.0017703 0.0006094 0.00019002 0.0017246 0.0023813 -0.0018757 0.00085174 0.0021979 -0.00037017 0.00061975 -0.00059612 -0.0001212 -0.00049429 0.0020731 0.0028811 0.0016168 -0.0027379 -0.00017914 0.0026408 0.00055888 -0.0017632 0.00043356 0.0017191 -0.00079704 0.0012037 -0.0013021 0.0017651 -0.00030455 0.0016357 -0.0004095 -0.00038535 -0.00045444 0.0024986 0.0027547 0.0035606 -0.00026888 -0.00076146 -0.00055651 -0.0019251 -0.0012789 0.0013353 0.00028623 -0.00013512 -0.00033335 0.0016296 0.0018315 -0.0030331 0.0038431 0.00040957 -0.0013273 -0.0015399 0.0016346 -0.0012572 -0.00074828 -0.0011147 -0.00056554 0.0008969 0.00057431 0.0012451 0.00078336 -0.00024887 0.00013117 0.00095932 0.0016685 -0.0043719 0.00089383 -0.0011408 0.00051956 0.0024503 -0.00094087 0.00059997 -0.0013396 -0.00025282 -0.0015637 0.00032171 8.0667e-05 -0.00028418 0.0012718 0.00068662 0.0014753 -0.0013219 -0.00037938 0.00070105 -0.0012725 -0.00076664 
want -0.0035694 0.0011129 0.0017597 0.00156 -0.00027383 -0.0011292 0.00051615 0.0022584 0.00077689 0.0015466 0.00097244 0.0012445 0.0012473 -0.0014337 -0.0013609 0.0016914 -0.00024088 0.00094707 0.00044966 0.0021892 -0.0023928 -0.00054579 -5.9558e-05 0.0016119 0.0019238 -0.00080895 -0.0024557 0.0020812 -0.00079992 0.0017862 -0.00043108 -0.00083212 0.00046604 -0.0031122 0.0018784 -0.0035651 0.0012951 -0.0012522 -0.0014493 -0.00018275 -0.0031225 0.00042358 0.00043563 -0.00046057 0.0029929 -0.00029273 0.0012897 0.0024031 -0.00038247 -0.0031652 -0.0020952 -0.00056847 -0.0016966 -0.0030444 -0.00037456 -0.00059158 -0.0021257 -8.021e-05 0.001664 0.002374 0.00077462 -0.002117 -0.0002939 0.00089015 4.2506e-06 -0.00038656 0.0010202 0.00028249 -0.00020192 0.00099256 0.0021673 -0.00088909 0.00046014 -0.0016384 0.00082317 0.0016394 -0.00069587 -0.0022121 0.0017495 -0.0029242 -0.00046806 0.0026307 -0.00057523 0.00067062 -0.00035603 -0.0014118 -0.00052747 0.00066988 -0.0032498 0.0021323 0.0032697 -0.0026107 0.0018561 0.00018497 -0.0023104 -0.0013626 -0.00021188 0.00074998 -0.0015866 -0.0015397 
one -0.0026842 0.0012156 0.0027974 -0.00051978 -0.0014286 -0.00034147 -0.00024118 0.002199 -0.00027045 0.0016623 -0.0020046 -0.0027553 0.0052339 -0.0017204 0.00053973 1.7047e-05 0.0035803 -0.0015837 0.0035954 0.0015772 -0.00097569 -0.00070476 0.0018835 -0.0033746 -0.0016746 -0.0026828 0.0037822 0.001534 -0.0015549 0.0010556 0.00083016 -0.0017322 -0.0016003 0.0010802 0.00059578 0.0028763 0.0018597 0.0012708 -0.00092302 -0.0023005 -0.0022693 0.00078097 0.00037414 0.001942 -0.00034597 -0.0019374 0.00051907 0.0016231 -0.003218 0.0019895 -0.0033241 0.0038523 0.00088593 -0.0023686 -0.003461 0.0014401 -0.001463 -0.0019026 -0.00053244 0.002524 0.0025054 -0.0018287 0.0041728 -0.0013191 -0.0034586 -0.0020605 0.0034532 -0.0021326 -0.0018475 0.00080313 0.00079154 0.00034366 0.0037891 -0.0040371 0.002322 0.0019786 0.0032469 0.0017195 0.0036204 -0.0049427 0.00050288 0.00012223 -0.0025804 0.0016388 0.0082905 -0.0031415 -0.0015387 -0.0021143 -0.0014491 -0.0012586 -0.0019643 0.00092156 0.0021183 0.00054847 0.0040426 0.0021629 0.0024584 -0.0018742 0.0022677 -0.0004992 
Google -0.002702 0.0010942 -0.00027905 -0.00042887 0.00011943 -0.00042769 0.0015897 0.0031183 0.00043062 1.582e-05 -0.001077 -0.0013947 -0.00098156 -0.00048193 0.0012519 0.0014668 0.00051712 0.0011561 -0.00038617 0.00031187 -0.0011478 -0.0001077 0.00038818 -0.00029341 0.00047146 -0.00066798 0.00041529 -0.0016911 -0.002668 0.0012165 -0.00092816 0.00081787 0.00078345 -0.0018963 0.00072609 0.00038309 0.00070602 -0.00078158 -0.00042462 0.00056882 -0.0029043 -0.0028417 -0.00089131 -0.00053113 -0.00069924 -0.001616 -0.00047154 0.0029818 0.00043128 0.00087273 0.00069402 0.001057 0.00058713 0.00065327 -0.0027368 -9.7588e-05 -0.00041059 0.0014875 1.4586e-05 0.00062524 -0.00049899 -0.00062047 0.0019938 0.00057271 -0.0010274 -0.00050587 -0.0012371 0.00082922 0.00026876 0.00057895 0.0010216 -0.0003204 -0.00046232 -0.00096005 -0.00044118 -0.0015561 0.0012447 0.00044488 -3.6511e-05 -0.0030458 -0.0025851 0.00011344 0.00035427 -0.0014838 0.0012251 -0.00033652 0.00083071 -0.00027696 -0.0011965 -0.00046868 0.0027679 3.9621e-05 0.0010208 0.00031457 0.00024041 -0.00015734 0.00076032 -0.0012453 -0.00051537 0.00086745 
homework -0.00010743 -0.0019904 0.00053227 -0.00097216 0.0010255 -6.6407e-05 0.00055807 0.00015073 -0.00014175 0.0014243 -0.0013979 -0.00016076 -0.00010111 0.0011477 0.00060264 0.0024878 -0.0008418 0.0018783 0.00051477 0.00067409 -0.001552 0.00012064 0.00097453 -0.00058264 -0.00085161 -0.0007802 0.00011825 -0.00052674 0.0029829 -0.00026 0.00094933 0.00050487 -0.001267 0.00092928 -0.00082741 0.00037899 0.00085722 -0.0011393 -0.0014026 -0.00093184 -0.0012961 0.00058556 -0.0003234 0.00071767 -0.0016025 0.00064179 0.0010372 0.00037659 9.9401e-05 -1.13e-05 0.0018938 0.00056316 0.00030245 0.00072005 -0.0010725 -0.0010208 0.0016774 0.00075383 -0.0018806 -0.0015457 0.0029619 0.001231 2.5509e-05 -0.0014379 -0.00043394 -0.00051336 0.0027272 0.00027811 -0.0012435 0.0022601 0.0018015 -0.00024442 -0.00011799 0.0011791 -0.0015343 -0.00034564 0.0016956 0.0010384 4.2169e-05 7.3915e-05 -0.00082665 -0.00074841 -0.0012224 0.00094073 -4.4926e-05 -0.0012852 -0.0015659 -0.001468 -0.00082316 0.0010172 -0.00043507 -0.00050227 -0.00060483 -0.00098705 0.00049615 0.0010328 -0.00079425 0.0011166 0.00037875 -0.00134 
close 0.00086724 -0.0010104 -0.0010582 0.0014656 0.0015645 -0.00062961 -0.0034003 -0.00046118 -0.0011772 -0.0024593 0.0014564 -0.00083241 -0.00017181 -0.00036056 0.0010229 0.00012341 -0.0013194 0.0020182 0.0010109 0.0013202 -0.0011591 -0.00063663 -9.9041e-05 -0.0029056 0.00095444 -0.00095627 -0.0012775 -0.00036023 -0.0028892 0.0033923 0.0011411 0.00081252 0.00047542 -0.0006449 0.00097941 0.0017253 0.00028422 0.0010755 0.0046522 -0.00099049 7.9244e-05 -0.0015669 0.00090634 0.00059127 0.00051354 -0.0015887 0.0027425 0.00061133 0.0022169 0.0024362 -0.0012634 -0.0015765 -0.0020134 -0.00036647 -0.0021301 -0.00011058 -0.0014878 -0.0006381 0.00038469 0.0018389 9.9627e-07 0.002223 0.0018942 0.0015039 -0.0012558 -0.0010292 0.0034395 0.0014249 0.0023892 -0.0013137 -0.0018613 -0.0008719 0.0016532 -0.0020335 -0.0034199 -0.0015937 0.00078327 0.0011652 -0.0011464 -0.0016241 -0.00075628 -0.0010297 0.0015695 -0.00049044 -4.8528e-05 -0.00049077 0.0002168 0.00091128 0.0026562 0.0013622 0.0022617 -0.00030931 -0.0014681 -0.00091836 -0.00090886 -0.00056573 -0.00018466 0.00045715 -0.0011327 -0.0012451 
