1695 100
the 0.090758614 0.72038156 0.107041016 -0.4872416 0.6334365 0.15115839 -0.69839454 -0.72725844 -0.100913085 0.43128768 0.54917926 0.3827304 0.2232334 -1.419886 -0.099049784 0.1088323 0.5894922 -0.79311025 0.28398904 -0.14163712 0.40271702 0.17547442 -0.4442715 -0.06879804 -0.038271308 -0.4303196 -0.071041875 -0.18951449 0.46427745 -0.0821288 0.08189664 -0.062274538 0.054891728 -0.519332 -0.5048315 0.58165944 0.33960372 0.42595074 1.0158554 0.11843132 0.62747234 -0.019040367 -0.46342042 -0.6239556 0.18711904 -0.81764627 -0.189615 0.4638489 0.8168636 0.86593306 0.5480703 -0.4431631 -0.17087547 -0.77383554 0.09874906 -0.2286037 0.0019853062 -0.39231348 0.42825297 0.45731947 -0.07428083 -0.6668291 -0.032549154 0.98271704 0.5381533 -0.15885249 -0.07357188 -0.44169298 0.55487734 -0.24026735 -0.25127128 0.45618477 1.0159552 0.12219268 0.11434123 -0.20067085 -0.38638264 -0.4510895 -0.16356309 0.18060733 -0.70867187 -0.39370784 -0.07311497 -0.8066559 -0.6141773 -0.855749 1.198098 0.028479548 0.07668975 -0.42120743 -0.32541978 0.34110492 -0.05457492 1.0600691 0.5623174 -0.2893586 -1.4185897 -0.11863789 -0.42604953 0.55425835
you 0.071636446 0.6019939 0.08858031 -0.40395707 0.52635163 0.1249222 -0.5899261 -0.6150695 -0.08695813 0.3598512 0.46806616 0.31189337 0.18171942 -1.1973722 -0.082316026 0.086625576 0.4949421 -0.66731536 0.24200268 -0.121374555 0.3305607 0.15161115 -0.38191196 -0.06023785 -0.027165936 -0.36973402 -0.06645314 -0.15287577 0.38872328 -0.06175727 0.0695702 -0.052979894 0.049682356 -0.43213236 -0.42252827 0.49454573 0.28100643 0.35233924 0.85043037 0.09658899 0.5293106 -0.01768432 -0.3865056 -0.5298 0.16167592 -0.6879756 -0.16222724 0.39260924 0.6828365 0.7338246 0.45939597 -0.37758154 -0.15278006 -0.65022117 0.07651868 -0.18364573 0.0037181836 -0.33601153 0.36067984 0.38199443 -0.06914792 -0.5638345 -0.022100287 0.8207761 0.4566664 -0.13232607 -0.060774915 -0.3676156 0.47121885 -0.20069338 -0.21212426 0.3929668 0.8541995 0.10723362 0.09244401 -0.17322779 -0.32901797 -0.37632215 -0.1352509 0.14566466 -0.59508127 -0.33285156 -0.058377087 -0.67366713 -0.52125907 -0.72009295 1.0140158 0.021519035 0.0661048 -0.35445368 -0.27205977 0.29202905 -0.042736348 0.89583313 0.4817201 -0.2488963 -1.1904143 -0.1011446 -0.36018044 0.46010676
to 0.08065002 0.66368085 0.09385586 -0.44832358 0.58774346 0.13457252 -0.6408697 -0.66534996 -0.091098584 0.40293014 0.50473714 0.34953293 0.20675997 -1.3123301 -0.084298424 0.103983946 0.53961164 -0.73168254 0.263807 -0.12834108 0.36449307 0.17028122 -0.41289714 -0.060043227 -0.029972224 -0.3943863 -0.066433005 -0.16621861 0.43364474 -0.0692328 0.08141925 -0.05846725 0.057637576 -0.4717448 -0.47135773 0.54530203 0.3056317 0.3914397 0.9306027 0.10914529 0.5714618 -0.024423638 -0.4263553 -0.5835667 0.17519887 -0.7506995 -0.16974902 0.43226364 0.7483495 0.7994255 0.5022385 -0.41563696 -0.16358641 -0.71621174 0.08783555 -0.20813248 0.002175352 -0.36080623 0.39149913 0.41664812 -0.07184325 -0.6147581 -0.024429515 0.89945525 0.5028849 -0.1467778 -0.07231197 -0.4033274 0.5150276 -0.22948372 -0.2287781 0.43012187 0.9358659 0.117004044 0.10361952 -0.18178838 -0.35458183 -0.4176898 -0.14694418 0.15841623 -0.64956844 -0.36276785 -0.061422765 -0.7423355 -0.57349885 -0.790895 1.1096456 0.031680107 0.07978162 -0.39058575 -0.30347013 0.31753415 -0.048987973 0.9785651 0.52256525 -0.26604122 -1.3075908 -0.10991477 -0.3951277 0.5168933
a 0.08134565 0.7300601 0.10663936 -0.4975205 0.64071816 0.15492624 -0.707925 -0.7394072 -0.10492608 0.43380946 0.5551885 0.38410324 0.22535197 -1.4401319 -0.10431243 0.111264974 0.60158074 -0.8012116 0.2807386 -0.14669062 0.4021391 0.1814405 -0.45373595 -0.06145242 -0.04127308 -0.43697065 -0.07188813 -0.19206285 0.46487594 -0.08631532 0.080614604 -0.06351992 0.061747663 -0.5221219 -0.51430964 0.58703285 0.34447223 0.43106553 1.0303763 0.122752614 0.6349591 -0.015684206 -0.46923828 -0.6379115 0.18741779 -0.819783 -0.18566765 0.4638566 0.8208811 0.8812589 0.5486921 -0.45112088 -0.17845453 -0.77899003 0.090778925 -0.22749743 0.0054386626 -0.39291647 0.4238344 0.45776305 -0.0749925 -0.67157763 -0.028774891 0.99186337 0.54984486 -0.16491587 -0.07411631 -0.44107407 0.56580263 -0.24918514 -0.25409797 0.46543035 1.0292991 0.122735776 0.11632746 -0.20862009 -0.3877035 -0.45268857 -0.15994404 0.18291841 -0.714352 -0.3943154 -0.06932954 -0.8166542 -0.6258697 -0.86589724 1.2162349 0.032049 0.081043035 -0.42431685 -0.32079202 0.33977997 -0.052683406 1.0758226 0.56759346 -0.29550737 -1.4332469 -0.12181841 -0.44072074 0.5604062
is 0.064012684 0.5821195 0.08424651 -0.40333647 0.5196284 0.12599944 -0.57938665 -0.596675 -0.08065754 0.35306635 0.44911805 0.3160804 0.17884895 -1.1568787 -0.08406864 0.093837164 0.47850966 -0.64693934 0.23732854 -0.113308646 0.32690927 0.15365933 -0.37039894 -0.049877923 -0.027903443 -0.3526584 -0.05573187 -0.15564506 0.3841447 -0.06751358 0.06525803 -0.051112793 0.047744226 -0.42398128 -0.41407052 0.48487517 0.27899963 0.34173346 0.83325046 0.09826661 0.51259464 -0.01637988 -0.3810493 -0.51100296 0.14880942 -0.6673285 -0.15045157 0.37779468 0.6659995 0.710712 0.4400016 -0.36082652 -0.14032969 -0.63613683 0.08182381 -0.17814308 0.010446974 -0.3236683 0.35159957 0.36720008 -0.06427176 -0.5421414 -0.019581512 0.79912907 0.44211408 -0.13414359 -0.06239974 -0.36219496 0.45790783 -0.19955555 -0.20601925 0.3728506 0.8309072 0.09692284 0.089812875 -0.16889153 -0.31966883 -0.37080505 -0.13237865 0.143599 -0.5781399 -0.3176356 -0.056301787 -0.6657943 -0.508961 -0.69579357 0.98090625 0.025132703 0.06799092 -0.33900988 -0.26739216 0.2748983 -0.043205302 0.8655302 0.46775433 -0.23463123 -1.1604115 -0.09383095 -0.35054883 0.45137435
and 0.09180465 0.7413802 0.11235158 -0.5081367 0.6513829 0.15710671 -0.72387373 -0.75201946 -0.10111591 0.44530806 0.5703423 0.3940617 0.22273333 -1.4663005 -0.0964765 0.10738505 0.6118571 -0.8162354 0.29021594 -0.14958541 0.41120332 0.19000636 -0.4671121 -0.07269855 -0.03988054 -0.44195324 -0.07192116 -0.19051811 0.48259792 -0.0879923 0.082383655 -0.06401869 0.056660578 -0.5288097 -0.5221257 0.6018568 0.34881464 0.43715662 1.0442667 0.121759534 0.64305425 -0.023649747 -0.47777227 -0.64529616 0.19852456 -0.8381663 -0.18928805 0.47161517 0.8353218 0.8907067 0.561586 -0.4597814 -0.1797102 -0.7957927 0.09428886 -0.22821577 0.0076010847 -0.40753978 0.43365055 0.465887 -0.07822371 -0.6793165 -0.036148347 1.0083672 0.55376637 -0.15705591 -0.07155186 -0.45648137 0.57840973 -0.24717876 -0.2545583 0.4723742 1.0409459 0.12762804 0.10907499 -0.20566691 -0.3952762 -0.46228516 -0.17078044 0.18239433 -0.7287721 -0.3999998 -0.077005245 -0.8358065 -0.636912 -0.87494105 1.2349968 0.0368093 0.082393415 -0.42399436 -0.3307875 0.35450834 -0.052895676 1.0970781 0.5801308 -0.29522255 -1.4548393 -0.12335779 -0.443337 0.5668003
it 0.07030536 0.5765933 0.08094816 -0.39209694 0.50307566 0.12230495 -0.56348133 -0.58199394 -0.08476478 0.343915 0.4433751 0.30412838 0.17702584 -1.1399901 -0.077258006 0.08963409 0.46947572 -0.63533795 0.22911735 -0.11691946 0.32063997 0.14107949 -0.3613384 -0.053367287 -0.03408571 -0.3411367 -0.052924205 -0.148484 0.3689193 -0.06324424 0.062384527 -0.052988645 0.049368072 -0.4096187 -0.40807393 0.4727575 0.27158275 0.3413008 0.8134565 0.09492518 0.49804345 -0.019444203 -0.3679682 -0.50384694 0.15040909 -0.6515878 -0.14973168 0.36548033 0.6543469 0.6910075 0.43041056 -0.3571881 -0.14250115 -0.61837673 0.077195324 -0.18058884 0.007382901 -0.3138298 0.34442303 0.36862397 -0.061106566 -0.5254247 -0.027049577 0.77666533 0.43065766 -0.122865304 -0.05805891 -0.35159177 0.44562522 -0.19695798 -0.19968067 0.36754882 0.8111188 0.099590406 0.08923698 -0.15935645 -0.30819348 -0.35951295 -0.13450088 0.1376706 -0.56719613 -0.30858523 -0.05789165 -0.6459669 -0.49358976 -0.6865975 0.9603195 0.02101344 0.06858107 -0.3374754 -0.261435 0.27301666 -0.045813702 0.8465011 0.4507102 -0.23343605 -1.1303602 -0.09034977 -0.34240544 0.44126788
i 0.07718744 0.6283624 0.08983941 -0.42036158 0.5474287 0.12668547 -0.61458445 -0.63675195 -0.09038341 0.37498778 0.48102552 0.32603613 0.18899447 -1.2383628 -0.07921332 0.09977759 0.50873756 -0.6915977 0.24747428 -0.13046978 0.34294915 0.16037363 -0.38737872 -0.057089005 -0.029393462 -0.378657 -0.061798863 -0.1607784 0.40850276 -0.074322365 0.07241877 -0.05474313 0.04746785 -0.45424703 -0.43880227 0.5140128 0.29037133 0.371601 0.8813255 0.108147494 0.54743046 -0.014669383 -0.40801936 -0.5543357 0.1598891 -0.7097276 -0.16250777 0.40042043 0.70721996 0.7591693 0.47593066 -0.38847956 -0.15253606 -0.6704175 0.07971461 -0.19391862 0.0073241694 -0.33982626 0.363891 0.3963192 -0.06997981 -0.57414705 -0.031365216 0.84730095 0.4749712 -0.13700062 -0.06639044 -0.38411635 0.4799428 -0.21564625 -0.21908554 0.40128234 0.8827813 0.10308491 0.09274849 -0.17245291 -0.33625036 -0.3894924 -0.13794264 0.15485607 -0.61403865 -0.344264 -0.058445416 -0.702914 -0.53148264 -0.74292034 1.0484953 0.027322138 0.074318856 -0.3599826 -0.28022435 0.2998565 -0.04105159 0.9228358 0.4921889 -0.2546348 -1.2366091 -0.101259366 -0.3791185 0.47758713
this 0.062321376 0.52492744 0.08319599 -0.35573244 0.4672106 0.10606188 -0.5071662 -0.53117186 -0.072918415 0.315464 0.39782232 0.28276342 0.16347909 -1.0422683 -0.07424323 0.08598654 0.43524364 -0.5796979 0.20386012 -0.10180645 0.2959645 0.12604101 -0.32752597 -0.047227215 -0.024040004 -0.31775454 -0.056778356 -0.13817246 0.34339988 -0.054319784 0.06511358 -0.04402532 0.04085789 -0.3820868 -0.36506724 0.42815652 0.24901637 0.30995843 0.73745704 0.082500145 0.45717934 -0.015415283 -0.33319914 -0.45961642 0.13786449 -0.5951703 -0.13607703 0.34137565 0.5989824 0.6324486 0.3909527 -0.32166713 -0.12977707 -0.56279844 0.06420709 -0.16117938 0.0011268898 -0.2883277 0.3100462 0.33358008 -0.054402117 -0.4829831 -0.023403091 0.7107368 0.39593157 -0.11332971 -0.048510194 -0.3157141 0.40913808 -0.17820115 -0.18318987 0.3400091 0.7433562 0.08877398 0.082513206 -0.15111566 -0.28152695 -0.33430132 -0.11969432 0.13341807 -0.5181255 -0.28708854 -0.04747834 -0.5927536 -0.4498328 -0.62888664 0.87959576 0.0258771 0.05938898 -0.30123743 -0.23959613 0.24612066 -0.03810571 0.7729897 0.41463035 -0.21535262 -1.0340806 -0.08607024 -0.31639144 0.4043504
of 0.08703029 0.7089568 0.10297372 -0.48542342 0.61910707 0.15195347 -0.69231606 -0.7150954 -0.09845296 0.42725936 0.5399786 0.37837425 0.22077662 -1.3922523 -0.09378245 0.11112079 0.5812614 -0.78010374 0.2736936 -0.14221857 0.39315116 0.1815011 -0.43919295 -0.065194644 -0.038024146 -0.42892775 -0.07209851 -0.1794553 0.4517254 -0.074911445 0.08085422 -0.06725041 0.059592064 -0.50566894 -0.50140065 0.5770738 0.32561833 0.4153609 0.9957641 0.11859645 0.61542004 -0.018053867 -0.45269823 -0.61694235 0.1860636 -0.805003 -0.18688804 0.45858645 0.7935542 0.8565745 0.53273565 -0.4323337 -0.17139085 -0.7599051 0.097501874 -0.21945815 0.003649652 -0.38214177 0.41895616 0.4456836 -0.06897096 -0.6497018 -0.032838702 0.96372306 0.52965784 -0.1585112 -0.076417066 -0.42666203 0.5497132 -0.24093866 -0.24620514 0.45617652 0.9939197 0.12049528 0.10727781 -0.20101677 -0.376651 -0.44490743 -0.16434647 0.173021 -0.69156706 -0.37983787 -0.0734862 -0.7972491 -0.60485774 -0.83800375 1.1790746 0.03230978 0.08358802 -0.40687457 -0.32051376 0.3370097 -0.05507882 1.048105 0.55427366 -0.28422526 -1.3911314 -0.11778529 -0.42346346 0.54984504
not 0.06751129 0.5493947 0.07597304 -0.3762598 0.48039857 0.108563 -0.53394085 -0.554533 -0.08186005 0.3263318 0.41606128 0.28890136 0.17030558 -1.0778359 -0.07231198 0.08765541 0.44646528 -0.595513 0.21869262 -0.10670368 0.30342495 0.1394017 -0.3465391 -0.052058164 -0.026800299 -0.33465126 -0.05868547 -0.14438121 0.35004988 -0.058218792 0.06162346 -0.044963412 0.045360975 -0.38821566 -0.3874498 0.44694212 0.25052798 0.3187905 0.7718861 0.08963811 0.472075 -0.011073853 -0.35113284 -0.48180124 0.13941413 -0.6135042 -0.14150192 0.35100245 0.6227999 0.6559301 0.40871468 -0.34151015 -0.13600469 -0.5828841 0.07484649 -0.17130113 0.0019858314 -0.2962072 0.31859273 0.3463856 -0.06149577 -0.5082867 -0.021556567 0.73695004 0.4124469 -0.11571075 -0.055228714 -0.3380791 0.42127752 -0.18283053 -0.18838976 0.35018638 0.7708477 0.09643288 0.087249376 -0.15113735 -0.2921885 -0.3460779 -0.11851903 0.13813412 -0.537317 -0.29596436 -0.05246185 -0.61398375 -0.47166282 -0.64454633 0.91289186 0.026690707 0.058279727 -0.32008514 -0.24289411 0.26082382 -0.04435481 0.8087243 0.42314857 -0.22159177 -1.0743811 -0.092678145 -0.32951206 0.42582625
your 0.076918826 0.58988005 0.09287443 -0.39579728 0.51803255 0.12257291 -0.57016486 -0.5995383 -0.08564341 0.35636052 0.45278662 0.30680594 0.18582076 -1.1632174 -0.07774217 0.087404296 0.4804272 -0.6528594 0.23643336 -0.121504 0.32986656 0.14239502 -0.3728362 -0.050669365 -0.034865614 -0.3566019 -0.056795873 -0.14648564 0.38151863 -0.066776045 0.06606132 -0.048674017 0.043865833 -0.41670492 -0.41317588 0.4786611 0.27609453 0.33972093 0.8312261 0.09362871 0.51595753 -0.019288493 -0.37829444 -0.5190875 0.1544718 -0.6660147 -0.15518712 0.3813494 0.6656328 0.7085586 0.45030227 -0.36682644 -0.13954096 -0.63775027 0.07184605 -0.18391418 0.0022992499 -0.31822923 0.34635344 0.37495455 -0.05788844 -0.54337305 -0.026078762 0.802307 0.4361527 -0.12777731 -0.06367267 -0.3619693 0.4594216 -0.19879922 -0.20293638 0.3725318 0.83410555 0.10347593 0.09408711 -0.16296901 -0.31411457 -0.37537673 -0.12840556 0.14134026 -0.5730419 -0.3154245 -0.05535523 -0.66653496 -0.5088629 -0.6939658 0.9816941 0.021018825 0.06816675 -0.34386748 -0.26511472 0.2760022 -0.047568172 0.8733617 0.45679507 -0.24035095 -1.1546382 -0.09312515 -0.35110104 0.45327044
that 0.08530905 0.6769799 0.102657475 -0.45574048 0.5979856 0.13661999 -0.65947527 -0.6774348 -0.09648867 0.4081908 0.5225421 0.34994575 0.20874825 -1.3337175 -0.09499743 0.10476032 0.5496312 -0.7458024 0.27119273 -0.13236968 0.37852132 0.16987553 -0.42509443 -0.06657876 -0.036381215 -0.40879107 -0.07315457 -0.16869353 0.43526196 -0.07398497 0.07873893 -0.058833636 0.052332684 -0.48121253 -0.47776848 0.55292505 0.31852117 0.39095598 0.9542206 0.111240596 0.58253866 -0.019694455 -0.43578732 -0.59107375 0.1820475 -0.7625861 -0.17553236 0.43163127 0.76946527 0.81074363 0.51090896 -0.41389376 -0.16221477 -0.7318388 0.08372301 -0.20581813 0.008655789 -0.36454967 0.3999187 0.42556337 -0.067972675 -0.62304074 -0.026006952 0.9152578 0.5041804 -0.14924538 -0.06390723 -0.41091055 0.52709574 -0.23128374 -0.23180544 0.42829716 0.9518794 0.110941276 0.10340308 -0.187785 -0.35895148 -0.42842883 -0.15671182 0.16997558 -0.6667561 -0.36367697 -0.066520214 -0.7593592 -0.575792 -0.80320287 1.1301785 0.02751576 0.07556241 -0.38952884 -0.3061007 0.31991214 -0.04649414 1.0009356 0.5292845 -0.2694093 -1.3260263 -0.109992675 -0.40907827 0.52585256
question 0.059223432 0.45033455 0.06611925 -0.31429672 0.4037806 0.09572848 -0.44617105 -0.46606684 -0.06945761 0.27151152 0.35131302 0.24288043 0.14543004 -0.9034568 -0.064285554 0.07514952 0.3766231 -0.5018905 0.17692782 -0.09567757 0.25753883 0.111139625 -0.2913461 -0.037654653 -0.020185156 -0.27877283 -0.048558954 -0.11694697 0.29127893 -0.053663306 0.057514902 -0.04718952 0.037213795 -0.32598487 -0.32581025 0.3684082 0.21311389 0.2724696 0.6483974 0.07401566 0.3991214 -0.011272133 -0.29734957 -0.40601012 0.11633028 -0.518225 -0.11490385 0.29463995 0.5193592 0.5510434 0.34013316 -0.28554696 -0.11697012 -0.4862587 0.057166226 -0.14017473 0.0018131882 -0.24629387 0.27043277 0.28524157 -0.05035986 -0.41696334 -0.019531954 0.62291193 0.3468644 -0.099295616 -0.052156545 -0.2808743 0.35544956 -0.1597121 -0.15619642 0.29482085 0.647969 0.08137816 0.06814006 -0.13148403 -0.24031429 -0.28435835 -0.099521205 0.11462777 -0.4442443 -0.25030452 -0.04529538 -0.5180451 -0.39329338 -0.5398728 0.7673771 0.019581331 0.049819972 -0.26769677 -0.20084433 0.21547656 -0.03791065 0.67631507 0.35953647 -0.1840775 -0.8960302 -0.07744512 -0.2785618 0.35030878
in 0.07939978 0.69946355 0.10136642 -0.48395 0.6211171 0.15099607 -0.68479383 -0.7145327 -0.09617962 0.42375362 0.5359938 0.37327504 0.21328226 -1.3918644 -0.092365615 0.10237348 0.57955134 -0.7706313 0.2822618 -0.13984396 0.39338017 0.1751389 -0.44375494 -0.06792588 -0.038909074 -0.42718014 -0.07363442 -0.18276806 0.45291936 -0.083895184 0.08449736 -0.06791685 0.061334368 -0.50147414 -0.49508888 0.57669294 0.32530755 0.41507182 0.9890023 0.116933286 0.60658664 -0.01743392 -0.4553446 -0.6149357 0.18825045 -0.79435235 -0.18648684 0.45428556 0.7977423 0.85345775 0.5363426 -0.4339275 -0.16920581 -0.7624351 0.091919996 -0.22339204 0.010463874 -0.38635254 0.41653162 0.4456836 -0.07699953 -0.6526918 -0.02863322 0.9580298 0.5305005 -0.15643775 -0.06776827 -0.42994553 0.54863703 -0.24245772 -0.2457685 0.44514513 0.9922919 0.114226945 0.112243034 -0.19772637 -0.38285333 -0.4483106 -0.1609481 0.17210247 -0.6891075 -0.37856364 -0.06656045 -0.79039854 -0.59806776 -0.8305913 1.1762028 0.036620375 0.082876496 -0.4064957 -0.3190637 0.33376098 -0.046618737 1.0406898 0.5479089 -0.2794039 -1.3863713 -0.114639185 -0.4255501 0.5483381
what 0.06037647 0.49350455 0.07526138 -0.33238626 0.4338677 0.09561266 -0.46973607 -0.4872371 -0.06845152 0.29404998 0.3776442 0.25323868 0.14983141 -0.96215504 -0.07059164 0.06858583 0.3931033 -0.5374418 0.19229537 -0.09556628 0.27330288 0.12690744 -0.30009136 -0.038652133 -0.021305472 -0.29973048 -0.052132215 -0.12786707 0.31216422 -0.04883517 0.05559215 -0.04359435 0.04275293 -0.3516642 -0.34385207 0.4001451 0.22050728 0.28605804 0.68201786 0.07418012 0.42705506 -0.018357938 -0.30832174 -0.4232182 0.12525631 -0.54271084 -0.12477874 0.31697077 0.54790777 0.5838129 0.36616102 -0.29993725 -0.12180173 -0.5280325 0.05825523 -0.15586199 0.008891216 -0.27277935 0.28825286 0.31306523 -0.052438997 -0.45378786 -0.021425575 0.65882474 0.35962972 -0.11173409 -0.054500557 -0.29764795 0.3809151 -0.16749585 -0.17330305 0.31539586 0.6872951 0.0859202 0.072259754 -0.1310863 -0.26776126 -0.3089315 -0.104160346 0.120490365 -0.48444098 -0.27095446 -0.0471731 -0.5474515 -0.4147924 -0.57443476 0.8068463 0.025173891 0.060499053 -0.27724966 -0.22114834 0.22525038 -0.036794115 0.7146921 0.381481 -0.20130336 -0.9560319 -0.08318459 -0.29009914 0.37140808
for 0.07226585 0.6203995 0.09239514 -0.4182639 0.55165243 0.1338619 -0.608054 -0.6291839 -0.08711598 0.37612632 0.47052172 0.33135018 0.19197758 -1.2237155 -0.082341276 0.0918321 0.5083234 -0.67848086 0.24838544 -0.12962107 0.34550357 0.15148148 -0.3868129 -0.052184448 -0.03557868 -0.3768961 -0.061560158 -0.15697908 0.39960504 -0.069288574 0.07593137 -0.06087723 0.045068968 -0.439829 -0.44090748 0.5087988 0.2842219 0.3607731 0.87658656 0.10391409 0.54397714 -0.01880204 -0.39948353 -0.5461452 0.15939075 -0.69680154 -0.1615552 0.40230685 0.7066419 0.7536693 0.46959174 -0.3796485 -0.15254252 -0.67132616 0.07611811 -0.18822673 0.008195203 -0.34094167 0.36093172 0.38873035 -0.06266459 -0.5761946 -0.026854202 0.84654915 0.46708947 -0.1361577 -0.065820724 -0.38276052 0.48411155 -0.20698795 -0.21386477 0.39799425 0.8700472 0.10550341 0.095162794 -0.17410693 -0.33266962 -0.3888457 -0.13890746 0.15607056 -0.6034371 -0.33686188 -0.058048587 -0.6923989 -0.52770597 -0.7413942 1.0293775 0.027305832 0.06667433 -0.35996497 -0.2782728 0.29749054 -0.04954174 0.9152711 0.49005306 -0.2549841 -1.2251716 -0.09582874 -0.36815608 0.4758938
have 0.061089367 0.4532815 0.061879363 -0.30467373 0.39740646 0.08854643 -0.4373055 -0.45162895 -0.060313724 0.2710155 0.34979352 0.22938363 0.1405327 -0.8809183 -0.059279356 0.06932857 0.36163974 -0.49071154 0.17714487 -0.08690051 0.24869905 0.1134037 -0.2829527 -0.03543973 -0.02164133 -0.2702336 -0.041424632 -0.115575306 0.28664228 -0.052148264 0.05727575 -0.03901178 0.0403684 -0.32221636 -0.31594768 0.36796194 0.20377603 0.26529977 0.63209766 0.0721962 0.3921041 -0.016295254 -0.28413326 -0.39217037 0.11482839 -0.50029236 -0.118100286 0.29092404 0.5064311 0.5426057 0.3365178 -0.2800904 -0.10375969 -0.483583 0.054309748 -0.13725284 0.0067715403 -0.24922085 0.2640993 0.28766453 -0.046083815 -0.40991354 -0.018131223 0.606677 0.3348657 -0.10244069 -0.042325694 -0.2778147 0.34928337 -0.15298353 -0.15299878 0.2898834 0.634233 0.07418403 0.06718774 -0.12793447 -0.24046035 -0.2813976 -0.09478572 0.113290206 -0.4419521 -0.24489939 -0.048947528 -0.5075832 -0.3778499 -0.52850765 0.74532807 0.013541256 0.05255551 -0.25436652 -0.20509551 0.20481195 -0.030103529 0.65699637 0.3548691 -0.18282193 -0.8772654 -0.07640354 -0.26430407 0.33944806
do 0.055667944 0.40777147 0.06626207 -0.28179848 0.36756587 0.083615236 -0.40428537 -0.41425264 -0.061170194 0.2504063 0.32037455 0.21862091 0.12993574 -0.813946 -0.053664 0.058793277 0.33281448 -0.45703918 0.15928671 -0.081529774 0.22717595 0.10628767 -0.2526468 -0.033536565 -0.027576614 -0.2514335 -0.03895122 -0.10562561 0.26273322 -0.04083535 0.042971555 -0.040252678 0.037132476 -0.28817412 -0.2880845 0.33752406 0.19318438 0.23587939 0.5768171 0.065417655 0.3540063 -0.009890668 -0.26643693 -0.3560761 0.10698593 -0.46341956 -0.10585362 0.25941974 0.46914464 0.4908315 0.30577374 -0.25343442 -0.102446325 -0.44497797 0.047669496 -0.12918119 -0.00078213564 -0.22348128 0.24444006 0.258111 -0.050037622 -0.37610602 -0.01936408 0.5575509 0.30533695 -0.08671651 -0.04305555 -0.25274253 0.323259 -0.13987352 -0.147191 0.2678325 0.57473063 0.06716733 0.06370327 -0.115936935 -0.2192991 -0.26353002 -0.09770139 0.09594849 -0.40599078 -0.22932683 -0.045795087 -0.46348247 -0.35306185 -0.49049178 0.6819821 0.013253567 0.047169726 -0.239149 -0.18540761 0.19665976 -0.030960362 0.6119452 0.3207551 -0.16563338 -0.812766 -0.061366644 -0.24264634 0.31459007
code 0.052672945 0.4780189 0.075635664 -0.33189175 0.41843182 0.09731255 -0.4667298 -0.4867138 -0.066225216 0.29169032 0.37227038 0.24825242 0.14571145 -0.95420235 -0.06418236 0.07746374 0.39983672 -0.52949697 0.18937923 -0.09407385 0.26801544 0.12496254 -0.3044589 -0.048369497 -0.025091257 -0.2918593 -0.049092624 -0.118175484 0.30918625 -0.049223803 0.052179873 -0.03930331 0.034438442 -0.345694 -0.33760574 0.39016798 0.21945082 0.27902633 0.6813987 0.08501434 0.42312798 -0.008900405 -0.30933133 -0.42782292 0.12062752 -0.54292154 -0.1274955 0.31530896 0.54957545 0.5811313 0.36684597 -0.29891852 -0.11570181 -0.5199605 0.06396621 -0.14592917 0.0058176457 -0.26320127 0.28510797 0.31025568 -0.04634408 -0.45035198 -0.021962663 0.65844744 0.36673576 -0.10115438 -0.047133915 -0.2954024 0.3713211 -0.16633509 -0.16929708 0.31269374 0.676995 0.08719049 0.072294146 -0.13269135 -0.26122954 -0.3049507 -0.10544345 0.11928726 -0.4780988 -0.26190028 -0.044611227 -0.5407995 -0.41003618 -0.5742466 0.808393 0.017439013 0.059368018 -0.27894497 -0.2174755 0.22244203 -0.037761666 0.71529686 0.38284802 -0.19523719 -0.9473472 -0.08109094 -0.28675357 0.37454176
are 0.068069436 0.5702307 0.084487155 -0.38670197 0.49705136 0.1164206 -0.55544555 -0.5681351 -0.084464565 0.34453616 0.4327404 0.29780278 0.17493688 -1.1244352 -0.07957695 0.081878625 0.4646845 -0.61894375 0.22633307 -0.118332624 0.3139398 0.14446214 -0.35867676 -0.055012785 -0.029770365 -0.34240168 -0.053020615 -0.14185078 0.36703905 -0.06303315 0.061224706 -0.051040314 0.0409136 -0.40206087 -0.3952053 0.46481672 0.26070297 0.33569244 0.8016422 0.09897614 0.49605733 -0.020004265 -0.36747605 -0.4983055 0.14773324 -0.64394754 -0.14398853 0.36265284 0.643944 0.6810645 0.42674524 -0.35426354 -0.1372111 -0.6074661 0.07056907 -0.17829405 0.0031869782 -0.31284535 0.3381303 0.35660225 -0.06604899 -0.526788 -0.026902681 0.7730896 0.42016742 -0.12384237 -0.057199527 -0.34319815 0.44256985 -0.19094604 -0.19295019 0.36437613 0.7989878 0.09996314 0.08512338 -0.16252816 -0.30966902 -0.3590878 -0.13030796 0.14356633 -0.5595774 -0.30835006 -0.05526557 -0.63684267 -0.4885473 -0.67793214 0.94918925 0.023348061 0.06698723 -0.32906237 -0.25470212 0.26695326 -0.04377158 0.8414484 0.44450969 -0.22604954 -1.1179345 -0.09415445 -0.34297895 0.4410104
be 0.06433817 0.5284491 0.077732086 -0.36206433 0.4714308 0.105695166 -0.520372 -0.54050946 -0.07372616 0.3223771 0.41036278 0.27543548 0.16598913 -1.0521799 -0.06723476 0.083940804 0.4376351 -0.5808566 0.20754339 -0.103255264 0.2951958 0.1304487 -0.33488202 -0.054496914 -0.03153468 -0.3171643 -0.055059224 -0.13981318 0.3440127 -0.057586722 0.060226273 -0.05312092 0.0420013 -0.38455456 -0.37703913 0.43607178 0.25300762 0.31331998 0.74755645 0.092328876 0.4580613 -0.016418098 -0.34161127 -0.4646728 0.14084947 -0.5980816 -0.14162408 0.33768603 0.60797054 0.64363533 0.4016383 -0.33187962 -0.12545802 -0.57627374 0.0661811 -0.159467 -0.00040782025 -0.29220948 0.31737033 0.33864358 -0.061601643 -0.4959702 -0.028069776 0.72498775 0.39480802 -0.12268248 -0.048583 -0.32680178 0.4155952 -0.18254465 -0.185946 0.33743256 0.75290304 0.08318444 0.080628745 -0.15144946 -0.287717 -0.33541647 -0.12260481 0.12852316 -0.5146863 -0.29353327 -0.05746378 -0.5924104 -0.45827338 -0.6364774 0.8810209 0.023735948 0.055292618 -0.3114835 -0.23446587 0.24702701 -0.037956767 0.7795383 0.41313207 -0.21563064 -1.045796 -0.0904687 -0.3224864 0.41317728
if 0.07308243 0.56862855 0.0814242 -0.38649416 0.4972912 0.11996701 -0.55219364 -0.5735632 -0.08292972 0.34513313 0.44084087 0.3030691 0.17544268 -1.126755 -0.08228161 0.08746315 0.4660666 -0.62368655 0.22620586 -0.11643436 0.31311974 0.14629781 -0.35725343 -0.049694944 -0.027466884 -0.3425565 -0.06044617 -0.15071337 0.36772004 -0.063060604 0.06929087 -0.056655094 0.043088853 -0.40305224 -0.3980456 0.46471778 0.26323467 0.33127496 0.80239093 0.09346092 0.49043587 -0.017678326 -0.37073988 -0.49685878 0.15480496 -0.640346 -0.14899844 0.36467263 0.644091 0.6896313 0.4267093 -0.34672517 -0.13695092 -0.61633235 0.07259632 -0.18125492 0.0040662326 -0.30570596 0.33094218 0.35769066 -0.058652315 -0.51896584 -0.020432897 0.77435154 0.4281399 -0.12917663 -0.062231947 -0.34248883 0.43762523 -0.19331895 -0.19802414 0.36246237 0.8049071 0.09968517 0.08609958 -0.1636158 -0.30514526 -0.35971054 -0.12971298 0.1452063 -0.55869406 -0.30465195 -0.05129206 -0.6359889 -0.4920372 -0.68001777 0.95098823 0.027163675 0.068586774 -0.3334959 -0.25820297 0.2728594 -0.04218922 0.8438309 0.4516238 -0.22941354 -1.1131363 -0.086888194 -0.34428945 0.44018507
so 0.055446345 0.5061332 0.07417695 -0.33839092 0.43851215 0.10763267 -0.48812482 -0.50828576 -0.07055514 0.301327 0.38984737 0.2617656 0.15430976 -0.9919213 -0.06283748 0.07895474 0.41392994 -0.5567338 0.20355667 -0.10558307 0.2778107 0.123860985 -0.31685683 -0.04364588 -0.022498164 -0.3006128 -0.05498233 -0.12702389 0.32305554 -0.05725775 0.06251121 -0.04371423 0.043611888 -0.35836056 -0.35704184 0.41368908 0.23414464 0.2956604 0.7101476 0.0815321 0.43764916 -0.013229651 -0.32495725 -0.44500503 0.13158385 -0.5670478 -0.13170175 0.32778567 0.5708562 0.6035733 0.3810807 -0.307244 -0.12287833 -0.5456704 0.059630215 -0.1499921 0.005429382 -0.27577525 0.29655614 0.3161191 -0.059093807 -0.46269393 -0.026752371 0.68092066 0.37962723 -0.10986555 -0.054460295 -0.30247548 0.3869025 -0.17140432 -0.17781562 0.32022756 0.70890415 0.08265149 0.07121363 -0.1411241 -0.27542967 -0.3129478 -0.117936924 0.11839405 -0.48994946 -0.27418014 -0.046750132 -0.56291205 -0.42697176 -0.5913926 0.83918095 0.019357359 0.057349224 -0.28892156 -0.22181275 0.23816258 -0.04032531 0.7463435 0.39665723 -0.20565887 -0.98319346 -0.0762815 -0.3069111 0.3866246
with 0.07892766 0.63600576 0.09680253 -0.4308044 0.55621207 0.12873945 -0.61240125 -0.63776153 -0.08807259 0.37984687 0.4882032 0.3289568 0.19014859 -1.2525533 -0.08192526 0.09526137 0.5191682 -0.6957032 0.24671015 -0.12608057 0.34752646 0.1576777 -0.3953008 -0.062683694 -0.03818974 -0.3767502 -0.06788213 -0.15811282 0.40642676 -0.07192361 0.07501505 -0.053444196 0.048884597 -0.45131636 -0.44657403 0.51966745 0.30025935 0.37260687 0.89054567 0.10081334 0.5479147 -0.023289707 -0.4121561 -0.55379605 0.17050967 -0.71782875 -0.16925026 0.40248394 0.71201277 0.76241237 0.4805054 -0.38856024 -0.15165861 -0.6814558 0.08145852 -0.1944846 0.0006772919 -0.340424 0.3738631 0.40224636 -0.0703031 -0.5809653 -0.026747009 0.8620466 0.47308064 -0.135565 -0.065410115 -0.38137046 0.48512968 -0.21147391 -0.22113502 0.40438908 0.8893339 0.111769296 0.09647876 -0.17291127 -0.3407059 -0.39553148 -0.13749494 0.15599588 -0.6175181 -0.34766182 -0.06570218 -0.711496 -0.53818244 -0.75242794 1.0535567 0.029259076 0.075418845 -0.37070066 -0.28235656 0.2971656 -0.043648805 0.93684167 0.494591 -0.25900084 -1.2435844 -0.10571844 -0.38322946 0.4884036
but 0.06842671 0.55135673 0.08566857 -0.37448043 0.4880269 0.11800947 -0.5397414 -0.55625874 -0.075890586 0.32847777 0.42615268 0.28570604 0.17509001 -1.0943615 -0.074923225 0.0817853 0.44806772 -0.60432655 0.21873395 -0.11516057 0.30935833 0.13488942 -0.34669328 -0.052285295 -0.03339502 -0.32978544 -0.051860917 -0.1419813 0.3564784 -0.061678603 0.06316969 -0.05295802 0.049467124 -0.39321443 -0.38987374 0.45663095 0.25476342 0.32282373 0.78429747 0.08951784 0.48457867 -0.014305094 -0.3615298 -0.4838723 0.14465375 -0.6279245 -0.14230618 0.35808682 0.631571 0.67174727 0.41968775 -0.34696355 -0.13442814 -0.60031044 0.07654277 -0.17239615 0.0021604279 -0.29739755 0.32574883 0.35096288 -0.062343586 -0.5105716 -0.027641403 0.7580813 0.411675 -0.1268926 -0.058952563 -0.3363018 0.42775673 -0.18935834 -0.19078755 0.35993093 0.78421676 0.09367156 0.08041615 -0.15648365 -0.29357523 -0.3470116 -0.1284795 0.13655803 -0.5425103 -0.30011806 -0.05463321 -0.6228548 -0.4728132 -0.6633279 0.923534 0.022590248 0.057525035 -0.318591 -0.24724382 0.26118442 -0.039839 0.8242515 0.4394143 -0.2247309 -1.0882087 -0.09214206 -0.32939398 0.4274947
how 0.06261251 0.490326 0.076398656 -0.33003694 0.43127042 0.10546211 -0.48249683 -0.4901215 -0.06802058 0.2918864 0.37477422 0.25319153 0.1545798 -0.96429276 -0.061680105 0.07908163 0.40733913 -0.5402257 0.18999462 -0.096168175 0.2666854 0.1256445 -0.30744964 -0.04452421 -0.027904611 -0.29486668 -0.049202412 -0.12590805 0.3204372 -0.051481888 0.054330304 -0.048771814 0.04564681 -0.35657188 -0.34584418 0.3988085 0.23213519 0.29262608 0.69070333 0.0772167 0.42172334 -0.008117089 -0.3160324 -0.43053088 0.1280621 -0.558451 -0.13048738 0.31863925 0.56164503 0.5977478 0.3703717 -0.3030999 -0.11603134 -0.5260976 0.06493804 -0.1552591 0.0086372625 -0.265765 0.2850591 0.31651026 -0.04995411 -0.44783854 -0.018621402 0.66944236 0.37252757 -0.10462518 -0.054799568 -0.2961149 0.38373783 -0.16867435 -0.165483 0.3103388 0.6875181 0.083248906 0.07914789 -0.14305206 -0.25961086 -0.31217518 -0.11008756 0.12205102 -0.48572388 -0.2674277 -0.0486747 -0.553948 -0.42693347 -0.5778989 0.82297283 0.02102167 0.057078514 -0.2872155 -0.22506152 0.22834484 -0.03889339 0.72744447 0.38680223 -0.19789743 -0.96136916 -0.081602745 -0.28982085 0.37802908
on 0.073535115 0.58677846 0.0852997 -0.3925276 0.51369137 0.12222287 -0.5664704 -0.59064937 -0.081879504 0.35211632 0.4490888 0.3023738 0.18008329 -1.1544799 -0.076414146 0.08531555 0.48264 -0.6399249 0.23349568 -0.120136894 0.32807025 0.14168121 -0.36243135 -0.05419418 -0.035365462 -0.34801388 -0.061857287 -0.14896134 0.3831914 -0.068397544 0.06648802 -0.05103478 0.046529744 -0.41638595 -0.4101929 0.4752717 0.27263936 0.33984703 0.82662255 0.095018886 0.50455785 -0.019831868 -0.3799962 -0.51359195 0.15573016 -0.6595297 -0.15308596 0.37139723 0.6620004 0.7063205 0.4393657 -0.36297005 -0.14572497 -0.6322829 0.070589244 -0.18093854 0.007878221 -0.32130253 0.3407732 0.37263978 -0.0574751 -0.53603476 -0.026426068 0.7942467 0.44097152 -0.13076067 -0.06005686 -0.3545431 0.4486318 -0.19430152 -0.19971511 0.37345448 0.8171853 0.10357636 0.090533994 -0.1602718 -0.31638658 -0.3666791 -0.13577643 0.14647356 -0.57356423 -0.31673837 -0.05416501 -0.6526848 -0.50190765 -0.69086397 0.9709587 0.029869646 0.061455175 -0.33468556 -0.2628942 0.2793623 -0.038719703 0.8560439 0.46329474 -0.23631412 -1.1504513 -0.09061645 -0.352992 0.45164087
as 0.066914156 0.5659455 0.08924813 -0.38748318 0.5024202 0.11481925 -0.556857 -0.5737174 -0.08674643 0.34279716 0.42883563 0.30496007 0.17829366 -1.1172215 -0.08020667 0.092749186 0.4615822 -0.62803805 0.2223015 -0.11622683 0.3187908 0.13784705 -0.35786265 -0.048591748 -0.028194003 -0.3455737 -0.06014707 -0.14219584 0.37124816 -0.061690222 0.06980518 -0.05681831 0.05013236 -0.40932703 -0.40181163 0.45682564 0.26285693 0.33572242 0.7990906 0.0963884 0.48955083 -0.01806955 -0.3632988 -0.49486277 0.1500723 -0.6404008 -0.1435965 0.3687106 0.63685906 0.68813044 0.4263371 -0.35320467 -0.14334722 -0.60417444 0.07003204 -0.1707488 0.0037041465 -0.30245253 0.33328903 0.35537165 -0.061257776 -0.52454317 -0.02899412 0.7645493 0.43037203 -0.12746367 -0.05259881 -0.3417875 0.4387715 -0.18979193 -0.19725433 0.35789984 0.7939086 0.09440502 0.088661864 -0.16014339 -0.30879658 -0.35813192 -0.12382174 0.14432776 -0.5577495 -0.3069534 -0.059169367 -0.6317793 -0.48057866 -0.6779096 0.9387071 0.030109402 0.059869748 -0.32600188 -0.24911177 0.26679593 -0.035865758 0.84023905 0.4482855 -0.22541077 -1.1139641 -0.09396452 -0.34165242 0.43071908
can 0.06656318 0.5257241 0.07475193 -0.36039752 0.4634448 0.10502891 -0.5119083 -0.52793574 -0.073494986 0.31268024 0.4053033 0.26960194 0.15887842 -1.0271045 -0.07092018 0.07652646 0.42771357 -0.5746322 0.20806289 -0.1083473 0.29234517 0.13364138 -0.33015984 -0.043250423 -0.02298927 -0.31540647 -0.05396761 -0.13719481 0.34301692 -0.060184628 0.06196454 -0.0476897 0.04172232 -0.3751708 -0.37215975 0.42160505 0.24516821 0.3009298 0.7399555 0.08575164 0.45870024 -0.010182777 -0.33215246 -0.45587394 0.14115132 -0.593948 -0.13547634 0.3387672 0.591067 0.6285077 0.39660093 -0.3254477 -0.12949793 -0.560825 0.06828578 -0.15967773 0.0062785554 -0.28175408 0.30565667 0.3303459 -0.053843815 -0.4821814 -0.018881286 0.7141674 0.3895746 -0.11215944 -0.048898038 -0.31845742 0.40473536 -0.18260394 -0.18319833 0.3359449 0.73985875 0.09328115 0.08497098 -0.14637133 -0.27729234 -0.32858425 -0.11668012 0.12398814 -0.5117208 -0.28034192 -0.054857735 -0.58589804 -0.45115608 -0.6168648 0.8664009 0.024769792 0.054245677 -0.30062327 -0.2343729 0.2430049 -0.03902764 0.77647394 0.41175902 -0.20955278 -1.0235109 -0.08089209 -0.31216303 0.40433696
or 0.071210414 0.6096678 0.09132439 -0.4198875 0.5365656 0.12692715 -0.5949454 -0.6115365 -0.081785254 0.36326292 0.4648581 0.32064718 0.18611896 -1.2042372 -0.08200087 0.09249261 0.49575114 -0.6765179 0.24334142 -0.124037266 0.33919185 0.15385942 -0.3830083 -0.05380142 -0.029069303 -0.36972815 -0.065799475 -0.1519005 0.3982085 -0.067973524 0.066558115 -0.05454522 0.04946181 -0.43320185 -0.427334 0.49879307 0.2855034 0.35957175 0.85519224 0.10519772 0.5324934 -0.014349507 -0.3957618 -0.53221136 0.16268429 -0.69385237 -0.1611225 0.3980715 0.6955757 0.7362433 0.46335268 -0.37259322 -0.15172485 -0.65553814 0.08121342 -0.19354261 0.003103501 -0.3311532 0.36297086 0.38742164 -0.06027412 -0.5666119 -0.025573594 0.83452773 0.4615206 -0.13650298 -0.06684246 -0.37428325 0.4771192 -0.21148494 -0.21426612 0.39675447 0.8647939 0.10072651 0.092548504 -0.1697577 -0.33074668 -0.38179922 -0.13457699 0.15363045 -0.59663945 -0.32902858 -0.06361335 -0.68614745 -0.5225835 -0.7234187 1.0211638 0.023476925 0.07304234 -0.35442376 -0.27273643 0.2836142 -0.048668675 0.90578437 0.47563913 -0.24244827 -1.1979812 -0.095802024 -0.36781517 0.47379327
an 0.056150638 0.51679724 0.08183698 -0.35424218 0.45938957 0.11181145 -0.4972327 -0.5184869 -0.07858333 0.31170905 0.3904174 0.2721153 0.1601352 -1.0188922 -0.06983297 0.076691486 0.4235518 -0.5660573 0.20153429 -0.102190904 0.28999212 0.13024795 -0.3204513 -0.04452682 -0.025965214 -0.3068494 -0.05367101 -0.13094851 0.32798374 -0.055655815 0.0586221 -0.045039233 0.04290051 -0.3696766 -0.3615057 0.42388 0.23540822 0.30376634 0.72739804 0.08673483 0.4522798 -0.017995916 -0.3321033 -0.45470822 0.13498493 -0.5842014 -0.13838555 0.32894057 0.5862703 0.6170834 0.391675 -0.31492147 -0.12232339 -0.55502516 0.06610158 -0.15893503 0.0015730548 -0.2781017 0.2988033 0.32155594 -0.050973363 -0.48018438 -0.017621571 0.7007832 0.38904065 -0.11465964 -0.05127596 -0.3129013 0.40185454 -0.17699729 -0.17258713 0.33292088 0.72889733 0.084033825 0.07868102 -0.14647044 -0.27761015 -0.3208764 -0.11063073 0.124887615 -0.50903946 -0.28469023 -0.050136495 -0.5744528 -0.4472763 -0.61556804 0.8586855 0.01811932 0.05564651 -0.3039196 -0.23086126 0.24318409 -0.03633375 0.76412374 0.4015994 -0.21262641 -1.0144296 -0.08186595 -0.30618846 0.39852557
please 0.051382646 0.43802446 0.0690703 -0.29935205 0.3839557 0.086557716 -0.42509314 -0.44389787 -0.0648233 0.26542184 0.33286908 0.22696364 0.13794036 -0.8591202 -0.053807814 0.061137367 0.36121258 -0.47728232 0.17389867 -0.084730595 0.23599215 0.1099066 -0.27215126 -0.037634242 -0.018365998 -0.26128334 -0.03891209 -0.11025958 0.2770533 -0.051605932 0.05355398 -0.0428826 0.039260868 -0.30989835 -0.30626377 0.35806844 0.20828648 0.24995829 0.6094812 0.07016107 0.37340522 -0.011218874 -0.27915102 -0.38257313 0.11709174 -0.49685714 -0.11510565 0.2781409 0.49219835 0.5274767 0.32549453 -0.26940975 -0.10971173 -0.4715219 0.054555908 -0.1380559 -0.0014767529 -0.2375675 0.2557555 0.2767881 -0.047611352 -0.40118304 -0.023533983 0.5901171 0.3313514 -0.096360736 -0.048448667 -0.26096943 0.33335504 -0.14395508 -0.14765501 0.27621824 0.6086384 0.07809072 0.06322194 -0.12390384 -0.2367512 -0.27570853 -0.09373567 0.1016298 -0.4280599 -0.23137268 -0.045609068 -0.48268387 -0.3774875 -0.51305693 0.727062 0.016039694 0.050504588 -0.24694112 -0.1927335 0.20468487 -0.02994626 0.6418422 0.34205604 -0.17947665 -0.8527223 -0.07312012 -0.2603823 0.34005496
answer 0.054962203 0.41980413 0.057896465 -0.28740135 0.36873198 0.085291706 -0.40808627 -0.4309858 -0.05537662 0.25900885 0.3213386 0.22374982 0.13007486 -0.8291925 -0.058108307 0.060717702 0.3431048 -0.46741214 0.16951114 -0.08147329 0.23868789 0.10506817 -0.2677232 -0.039257172 -0.022882473 -0.25596106 -0.042972904 -0.107640624 0.27523246 -0.05154851 0.0495892 -0.041661203 0.031272497 -0.30338407 -0.29207975 0.34226498 0.19581743 0.251317 0.60022897 0.068829864 0.36359745 -0.014572644 -0.2739054 -0.37526214 0.10687328 -0.47945568 -0.10714202 0.27510038 0.47357777 0.5118204 0.31604746 -0.26409304 -0.10840038 -0.4528403 0.05208332 -0.13392572 0.0048442725 -0.22911498 0.24555738 0.2647407 -0.039655395 -0.38952142 -0.015745293 0.5732582 0.32248715 -0.09038271 -0.047440603 -0.26321945 0.32708502 -0.14220455 -0.14911902 0.26563534 0.592627 0.070902646 0.06376355 -0.12341144 -0.23082514 -0.26536545 -0.092607066 0.09931899 -0.41629732 -0.22549893 -0.039892025 -0.47049373 -0.36546233 -0.50003594 0.7087235 0.020811694 0.050123706 -0.24190646 -0.19267276 0.2015442 -0.0272584 0.6237784 0.33257607 -0.16662051 -0.8292634 -0.06845374 -0.25216 0.32273206
dont 0.05084168 0.43201086 0.0674275 -0.2920802 0.3735038 0.090272576 -0.4172635 -0.42814368 -0.06643796 0.25586075 0.32324076 0.22461347 0.12759814 -0.8398113 -0.052560933 0.066474356 0.3446825 -0.46996802 0.16903915 -0.08794117 0.23576607 0.10231577 -0.27321953 -0.040664975 -0.026736889 -0.25689682 -0.04174179 -0.11444611 0.2815551 -0.043264728 0.05264213 -0.035316974 0.031051543 -0.3023849 -0.29851377 0.3498555 0.19328465 0.24447139 0.5986872 0.06727174 0.3708851 -0.011179154 -0.27670255 -0.37021822 0.10980822 -0.4876556 -0.11296153 0.2719256 0.4849556 0.51387864 0.3221401 -0.26484305 -0.107024916 -0.4604971 0.058289394 -0.13045943 0.005278108 -0.23386301 0.2474794 0.27552682 -0.049167756 -0.39020395 -0.01593887 0.5794942 0.32051536 -0.09710771 -0.04249162 -0.26532143 0.32821605 -0.14828348 -0.14823073 0.27395767 0.59895414 0.07312011 0.06563715 -0.11760649 -0.23492482 -0.2694218 -0.09751093 0.106068 -0.4239997 -0.23495167 -0.04612183 -0.4758258 -0.36760968 -0.50997096 0.70897526 0.018799154 0.046658047 -0.24811721 -0.19160272 0.19814616 -0.029662365 0.62815005 0.33373556 -0.17481478 -0.838285 -0.07204248 -0.2575136 0.324707
should 0.057093628 0.50103843 0.071733706 -0.34152105 0.44595113 0.10702967 -0.48462534 -0.50672686 -0.068747565 0.30396342 0.38468337 0.26558664 0.15867744 -0.98905915 -0.070313066 0.07737742 0.4140089 -0.54482526 0.19646655 -0.09856477 0.2784784 0.12089028 -0.31461015 -0.04158326 -0.024167094 -0.30435723 -0.047463857 -0.1297732 0.32259467 -0.05417773 0.0562374 -0.045558125 0.041475534 -0.35350275 -0.34817135 0.40712824 0.23036057 0.28975454 0.6991652 0.08077294 0.43059117 -0.017533375 -0.326844 -0.43359995 0.13475795 -0.568015 -0.13094532 0.32564878 0.570117 0.60723805 0.38060907 -0.3095993 -0.11704513 -0.5420018 0.06448175 -0.1547582 0.00045291462 -0.266594 0.289436 0.31310043 -0.053619705 -0.46292797 -0.024052834 0.68320566 0.37839696 -0.111026935 -0.04929028 -0.30363646 0.38462555 -0.17033865 -0.17833747 0.31548923 0.7024562 0.08049996 0.07966224 -0.13934694 -0.26817772 -0.3187359 -0.11246991 0.122013226 -0.49131227 -0.27432317 -0.048747186 -0.558733 -0.4315946 -0.59386 0.83162326 0.026051687 0.054008663 -0.28852028 -0.22420537 0.23902957 -0.03532028 0.7360363 0.3891455 -0.19997562 -0.97805303 -0.078000754 -0.3033834 0.3831227
its 0.057403307 0.5070003 0.070663355 -0.34629267 0.44466975 0.105017066 -0.49270844 -0.5178179 -0.07049393 0.30160645 0.39329377 0.26912978 0.15355773 -1.0024076 -0.071537584 0.0732916 0.41892657 -0.5554372 0.20463488 -0.09848138 0.27795374 0.13098966 -0.31554562 -0.052704718 -0.029392742 -0.30962673 -0.047389075 -0.13426612 0.3306352 -0.05787893 0.056302607 -0.04296241 0.03926479 -0.36470583 -0.3552142 0.41315225 0.23962598 0.29956836 0.71960545 0.082279384 0.44306982 -0.010186494 -0.3260856 -0.4404754 0.13745797 -0.58088434 -0.13673487 0.32669243 0.5724155 0.6088804 0.378346 -0.31753972 -0.13000174 -0.54785985 0.06394425 -0.16144888 0.006394402 -0.27157423 0.29768163 0.31740463 -0.0517745 -0.4690058 -0.01866006 0.69138366 0.37765616 -0.11017992 -0.055784393 -0.31509364 0.3935661 -0.16744113 -0.17365232 0.3232131 0.720658 0.088210866 0.07952831 -0.13985187 -0.2689199 -0.31783786 -0.11824385 0.12386004 -0.49499485 -0.27734438 -0.049384255 -0.5760955 -0.43997142 -0.6033162 0.8514378 0.019393876 0.055354577 -0.29827708 -0.22268428 0.2378643 -0.03346641 0.7508683 0.39542574 -0.20748946 -0.9946022 -0.086057514 -0.30677882 0.39325052
no 0.06337351 0.50992215 0.08047774 -0.34492156 0.4508542 0.10521696 -0.5047516 -0.5194503 -0.07497486 0.3053144 0.39577988 0.26888984 0.15346982 -1.0154718 -0.06714721 0.0770676 0.4235754 -0.5635733 0.19855972 -0.10654954 0.28229082 0.1343422 -0.3196458 -0.05071557 -0.029089024 -0.31032658 -0.053522278 -0.13323185 0.32644898 -0.062361512 0.064049676 -0.04253022 0.0361402 -0.37070575 -0.36243007 0.4153297 0.23428553 0.30213055 0.7257117 0.084534734 0.4505128 -0.015356199 -0.32794458 -0.4495101 0.13650797 -0.57483274 -0.13653496 0.32879466 0.57532233 0.6203892 0.38844484 -0.3196851 -0.12155168 -0.54721594 0.06704611 -0.16226229 0.009948576 -0.28130198 0.30049023 0.32749173 -0.058995668 -0.4733419 -0.017906085 0.69869226 0.386353 -0.11282176 -0.050638627 -0.30916873 0.40107322 -0.17794453 -0.18036732 0.3293884 0.72182214 0.08077525 0.077392 -0.13979162 -0.2809796 -0.32234588 -0.113255516 0.1265691 -0.5076403 -0.2803907 -0.05078179 -0.57899165 -0.4446388 -0.6093783 0.85093087 0.022970801 0.05940319 -0.29382825 -0.22798127 0.24713835 -0.038753383 0.75670844 0.40597317 -0.20452628 -1.0125372 -0.08535985 -0.3115979 0.39044967
at 0.067254014 0.51432985 0.07154888 -0.35095102 0.44539127 0.10103059 -0.4994866 -0.5147198 -0.06604633 0.30999118 0.39835554 0.26569682 0.15293899 -1.0059267 -0.06435319 0.07406803 0.41973698 -0.5572165 0.19715038 -0.10602029 0.28648943 0.121866345 -0.31619787 -0.047474787 -0.025066508 -0.3043804 -0.048189685 -0.12790406 0.3290181 -0.060891528 0.061244052 -0.046288602 0.042006124 -0.36899891 -0.3608743 0.41673386 0.2409634 0.302621 0.71803826 0.08194861 0.44926712 -0.011264237 -0.32876563 -0.44184688 0.1319175 -0.5857791 -0.1284286 0.3277465 0.58345455 0.61686033 0.3875747 -0.3189674 -0.12274038 -0.5557058 0.07003808 -0.16269433 0.0005069435 -0.28300914 0.29495758 0.32449758 -0.05727308 -0.47803995 -0.026925275 0.69988817 0.38208434 -0.11611937 -0.05055831 -0.31648204 0.39023706 -0.17058331 -0.17652746 0.33150533 0.7206815 0.08483448 0.0833893 -0.14184989 -0.27562478 -0.32577914 -0.11172214 0.1269202 -0.50074154 -0.28025937 -0.053027604 -0.5757569 -0.4378157 -0.6075748 0.85779047 0.02495795 0.055277735 -0.2937043 -0.22747241 0.24409208 -0.04048172 0.75980633 0.4015486 -0.20708248 -1.0027666 -0.082043365 -0.31070408 0.38829446
there 0.04842938 0.44960305 0.06601691 -0.30628592 0.39247406 0.09434511 -0.4385697 -0.44807082 -0.06792266 0.26522964 0.3416088 0.23501064 0.1411598 -0.88218194 -0.058396645 0.06794271 0.36611938 -0.49325457 0.17850864 -0.09070279 0.24911591 0.11710365 -0.28447554 -0.03982082 -0.022072993 -0.26912725 -0.044294894 -0.11267222 0.28858045 -0.0521304 0.051466845 -0.03976248 0.033005815 -0.3267761 -0.31537828 0.3701799 0.2114576 0.26159242 0.6272551 0.07920354 0.38407278 -0.01144471 -0.28469875 -0.39653856 0.11179499 -0.5072313 -0.12158233 0.29216397 0.50769734 0.54108685 0.33887717 -0.2750253 -0.11366006 -0.4859175 0.060281713 -0.13508995 0.009021901 -0.24546854 0.27004126 0.28635085 -0.044380587 -0.41764498 -0.022839852 0.6049107 0.34059337 -0.10250781 -0.050053474 -0.2755904 0.34454286 -0.15581311 -0.15562803 0.28501192 0.63194245 0.0712575 0.07180018 -0.122960635 -0.23504551 -0.27617267 -0.10326141 0.11150284 -0.4431577 -0.23976888 -0.049232468 -0.50373244 -0.37879214 -0.5313646 0.75010794 0.022113232 0.055350818 -0.26505193 -0.1955926 0.2163876 -0.030228313 0.66377324 0.35290226 -0.17840527 -0.88425773 -0.075214654 -0.26939392 0.34562784
just 0.054409757 0.45979574 0.06777797 -0.30737057 0.40067714 0.09559972 -0.4440955 -0.45806974 -0.06503459 0.27708033 0.34907687 0.23825993 0.14386427 -0.9089553 -0.064969614 0.06665996 0.38105097 -0.50199294 0.18088448 -0.09311381 0.25274074 0.11751836 -0.28681865 -0.044332027 -0.028704628 -0.28221583 -0.051121254 -0.11934808 0.29972324 -0.054869138 0.057923555 -0.042003766 0.04016197 -0.33072957 -0.3222324 0.37555802 0.2095596 0.26413652 0.6433828 0.08128115 0.39603367 -0.011754856 -0.29313135 -0.40743285 0.12161952 -0.52356976 -0.122616015 0.29268143 0.51679313 0.55040014 0.34182307 -0.28790617 -0.11818049 -0.4966254 0.06268366 -0.14505835 0.0066190255 -0.2495273 0.26934662 0.29223546 -0.049602244 -0.4239643 -0.01752325 0.6196753 0.34987742 -0.09974245 -0.048251163 -0.28569952 0.35198486 -0.15493636 -0.16025698 0.29699698 0.647359 0.078822166 0.07460779 -0.12912968 -0.2488794 -0.28816473 -0.099568866 0.11158705 -0.44902337 -0.24627405 -0.043915026 -0.51858926 -0.39095077 -0.54162157 0.7672425 0.021788867 0.04911021 -0.26866257 -0.20799336 0.21473263 -0.029627765 0.6770891 0.35730782 -0.18101361 -0.8972555 -0.07657735 -0.27954814 0.35104862
why 0.05122046 0.41463444 0.062234048 -0.28303927 0.3572328 0.08799846 -0.39739686 -0.41162184 -0.056515507 0.24631813 0.31184304 0.21334244 0.12538978 -0.8109662 -0.053774096 0.06461473 0.33275804 -0.4506915 0.16076015 -0.078282654 0.23257703 0.10363949 -0.25758883 -0.038542658 -0.018969283 -0.2439653 -0.042857576 -0.109626345 0.26605085 -0.048618637 0.044690084 -0.036516007 0.034147758 -0.2959868 -0.28688425 0.33794245 0.19510624 0.23961274 0.58136106 0.06735071 0.35220063 -0.012265057 -0.26273534 -0.36488137 0.10387834 -0.46113965 -0.11204815 0.26702654 0.46133137 0.48958856 0.31380942 -0.25530192 -0.09946191 -0.4447912 0.056269404 -0.124798305 0.003888294 -0.22810914 0.24322651 0.25685677 -0.04714044 -0.3782387 -0.02092756 0.55982757 0.3090208 -0.09187073 -0.040532622 -0.24662109 0.3213599 -0.13500816 -0.1395179 0.26010305 0.57626504 0.06957038 0.06293233 -0.11246621 -0.22591867 -0.26281977 -0.09151265 0.099007964 -0.4022999 -0.22209802 -0.037206408 -0.4575452 -0.3521021 -0.4887507 0.6872647 0.01593279 0.04642171 -0.2372968 -0.18475364 0.19836079 -0.029932428 0.60748035 0.3252463 -0.16209725 -0.8028816 -0.06407653 -0.25047827 0.311415
some 0.069830135 0.53734756 0.077573955 -0.3663308 0.48139682 0.116650976 -0.53309685 -0.5451192 -0.07309554 0.32399806 0.41422307 0.28713197 0.16265167 -1.0741227 -0.07866699 0.078981824 0.4467634 -0.5976899 0.21431582 -0.113769956 0.299417 0.13265596 -0.34232754 -0.055046402 -0.028975379 -0.32705155 -0.049510468 -0.13754664 0.34994048 -0.059037782 0.05919388 -0.046217382 0.040879965 -0.38795143 -0.38174763 0.43936598 0.25093225 0.3220223 0.7635904 0.09419071 0.47014973 -0.020023659 -0.35415503 -0.47887307 0.14765371 -0.6180711 -0.1399277 0.34797767 0.6191992 0.65107113 0.4107769 -0.33752182 -0.12842284 -0.58394593 0.07471186 -0.16412054 0.004619942 -0.29312125 0.3230827 0.34531537 -0.053099763 -0.5000597 -0.021608062 0.7386567 0.40473557 -0.12061009 -0.060937244 -0.32922363 0.42067736 -0.1795282 -0.18652645 0.35312957 0.75987893 0.091117494 0.08269997 -0.1529786 -0.28810096 -0.33814922 -0.11755707 0.13756722 -0.5295172 -0.2911881 -0.058457457 -0.61347693 -0.46557328 -0.6404319 0.9094826 0.025023453 0.06438752 -0.31909886 -0.24392393 0.26066384 -0.03610352 0.7980113 0.42808715 -0.22335155 -1.0722547 -0.09085922 -0.33184832 0.41677696
about 0.056081165 0.4806515 0.06858126 -0.32785022 0.4313983 0.10465685 -0.47812372 -0.490561 -0.07273418 0.29119226 0.3704167 0.2597584 0.14451826 -0.95953274 -0.06880408 0.07035108 0.39357227 -0.535931 0.19340464 -0.102035455 0.26898557 0.11669665 -0.29943728 -0.04139259 -0.024216458 -0.28808716 -0.045144934 -0.12344423 0.31445038 -0.059261024 0.052447516 -0.04617215 0.036575343 -0.35091642 -0.34368894 0.39096767 0.2228415 0.28665686 0.6836187 0.082172714 0.42400175 -0.010584043 -0.30844912 -0.4220916 0.12729308 -0.54601735 -0.12636383 0.30745202 0.5445018 0.5886168 0.36312926 -0.30473396 -0.11528909 -0.52289206 0.06455071 -0.1507289 0.0040043406 -0.261099 0.2849399 0.3086561 -0.048530925 -0.4506584 -0.020455852 0.6627398 0.36655128 -0.11178348 -0.048155956 -0.29581293 0.3726197 -0.16017212 -0.16321056 0.30838957 0.68744457 0.079152755 0.070529915 -0.14068104 -0.26410374 -0.30681127 -0.11077913 0.12137152 -0.47130102 -0.26032695 -0.05110809 -0.5406508 -0.41314077 -0.5728452 0.8081339 0.021182267 0.055350784 -0.2847837 -0.21437298 0.22427927 -0.034918666 0.721306 0.3827189 -0.19265032 -0.95732707 -0.08147335 -0.29030177 0.370446
help 0.04067632 0.33559036 0.047482807 -0.22842352 0.29965824 0.071768895 -0.33277765 -0.34277257 -0.051560525 0.20792341 0.2631459 0.18314582 0.1014663 -0.6775961 -0.050372757 0.050481096 0.28284007 -0.37224108 0.13961695 -0.069577694 0.1869288 0.0880706 -0.20838854 -0.029214855 -0.016828286 -0.20419674 -0.031489372 -0.08804067 0.22199927 -0.039980203 0.04059573 -0.028137755 0.028019609 -0.24467954 -0.23619254 0.27421436 0.16062237 0.20099494 0.48328003 0.0537253 0.2923523 -0.0120897805 -0.21919934 -0.29553512 0.090412155 -0.3907369 -0.09104845 0.21751817 0.3900613 0.4108209 0.2614263 -0.21025354 -0.08618626 -0.36867464 0.045240015 -0.1073434 0.0006867891 -0.18388858 0.20503579 0.21227136 -0.039936263 -0.31492707 -0.01758816 0.45859572 0.26027325 -0.07381488 -0.037791986 -0.20932756 0.26543078 -0.12093972 -0.118740745 0.21391907 0.4766879 0.061784763 0.04981051 -0.09687787 -0.18583016 -0.2106405 -0.07335906 0.08393494 -0.3345607 -0.18955538 -0.03260119 -0.38685545 -0.2879211 -0.406236 0.56366515 0.00941477 0.034912847 -0.19867113 -0.14825974 0.16170041 -0.022209296 0.49844584 0.2665884 -0.14231539 -0.6738531 -0.0514964 -0.20888272 0.26439264
will 0.061456088 0.49139556 0.07095304 -0.33462676 0.43472964 0.096104555 -0.47747523 -0.49635994 -0.071857 0.2933519 0.3720443 0.25280163 0.15530263 -0.95983064 -0.061157405 0.070613064 0.4002638 -0.5354129 0.19757694 -0.10281287 0.27494815 0.12130885 -0.3045166 -0.04452048 -0.030695213 -0.2959493 -0.04868553 -0.12483799 0.3190082 -0.06021901 0.054051414 -0.04620991 0.04064745 -0.34732613 -0.34798288 0.39586738 0.23071405 0.28956932 0.69267046 0.087392285 0.42221734 -0.008741685 -0.31613505 -0.43205112 0.12517357 -0.55552405 -0.12585844 0.31228346 0.55408555 0.5910354 0.36426428 -0.29871807 -0.12358388 -0.52784455 0.0631264 -0.1513432 0.0062782643 -0.26071185 0.29105523 0.3085665 -0.052433386 -0.4512993 -0.017549464 0.6673761 0.36363795 -0.11259306 -0.053954452 -0.30087617 0.37885836 -0.16508907 -0.16438499 0.31121764 0.6827875 0.082830735 0.07947093 -0.14138356 -0.2600131 -0.30931538 -0.11509039 0.12192482 -0.47684887 -0.2671402 -0.043881893 -0.5476705 -0.4229333 -0.58052415 0.8141109 0.02654122 0.055710144 -0.27948293 -0.22077215 0.228934 -0.03684755 0.72617865 0.38335255 -0.19400597 -0.96096295 -0.07863892 -0.29668015 0.37973347
want 0.043456573 0.36761606 0.053471554 -0.24645515 0.32515252 0.07099717 -0.36259422 -0.3774269 -0.0535122 0.22489168 0.28893954 0.19468784 0.11817094 -0.7346067 -0.054984704 0.057215672 0.30221388 -0.40391693 0.14714669 -0.078340635 0.20529164 0.089728355 -0.22921827 -0.029089801 -0.023483286 -0.22537565 -0.03655564 -0.1004657 0.23649646 -0.046016496 0.046791837 -0.037452683 0.031798087 -0.2651002 -0.2626852 0.30248457 0.16830702 0.22163773 0.5174103 0.06141384 0.31863737 -0.012157804 -0.24031328 -0.32393163 0.10394436 -0.41501984 -0.09753041 0.24093269 0.4167713 0.44922683 0.2851545 -0.23147242 -0.09107707 -0.3989219 0.049181692 -0.110085845 -0.0011870828 -0.20251788 0.21459967 0.23567325 -0.039109014 -0.3416368 -0.012426892 0.5000482 0.27434203 -0.08440012 -0.03605068 -0.22264025 0.29210305 -0.12509373 -0.13030721 0.23921128 0.5197585 0.06462355 0.06036379 -0.1008932 -0.19994493 -0.2339572 -0.080217615 0.095969595 -0.36036345 -0.20671643 -0.032894578 -0.41735014 -0.3224795 -0.44017938 0.6167066 0.012637345 0.039387204 -0.21176216 -0.17125605 0.17373247 -0.029785637 0.543877 0.28923127 -0.15443094 -0.7226988 -0.062724635 -0.22226126 0.28392515
any 0.0539407 0.46500543 0.06937949 -0.3175018 0.40683517 0.09785035 -0.45166826 -0.46012998 -0.06269207 0.28228316 0.3548498 0.24504521 0.1402412 -0.90548605 -0.062189996 0.07340051 0.3806767 -0.5027156 0.18043132 -0.096399054 0.25689468 0.12042232 -0.2858957 -0.04616717 -0.020409646 -0.2796542 -0.04689071 -0.12052628 0.29655778 -0.05534117 0.056727197 -0.04536638 0.033441518 -0.333785 -0.31854883 0.37364298 0.21367297 0.27161908 0.6452282 0.07440851 0.4051058 -0.011294855 -0.30106315 -0.40287465 0.11780859 -0.5178932 -0.11987897 0.29855496 0.5239149 0.5589893 0.35306168 -0.28133914 -0.11817062 -0.49226192 0.058714643 -0.14755724 0.002556413 -0.25333843 0.2680025 0.29326195 -0.046777107 -0.42078876 -0.018877001 0.63060546 0.3469586 -0.10524351 -0.04516633 -0.27686518 0.3541199 -0.15718672 -0.15438937 0.29828054 0.64922434 0.07878345 0.0657055 -0.13253838 -0.25225177 -0.28558928 -0.101771265 0.1115675 -0.4473526 -0.25439095 -0.04251781 -0.5219641 -0.3981941 -0.5493073 0.7713125 0.019072331 0.055599004 -0.26808265 -0.21088852 0.21504095 -0.033218015 0.67737657 0.3609752 -0.18808025 -0.9107122 -0.07095036 -0.273484 0.3572423
like 0.054473486 0.4705313 0.071130365 -0.32629412 0.42091936 0.10194173 -0.46235585 -0.48626575 -0.06575036 0.2840491 0.3604625 0.25451466 0.15046893 -0.94035685 -0.06442645 0.076714784 0.3893828 -0.5195259 0.19162923 -0.095777184 0.261603 0.11769242 -0.30271345 -0.04537079 -0.026732331 -0.28485054 -0.050823033 -0.124311954 0.30913705 -0.056235228 0.05283079 -0.039977692 0.033401478 -0.34494272 -0.32947075 0.3876234 0.22155097 0.27816358 0.67331004 0.07497717 0.41220242 -0.016318396 -0.31117907 -0.4206551 0.123832114 -0.54083776 -0.12770154 0.31167188 0.54312813 0.579684 0.36335173 -0.29066217 -0.11357577 -0.51162636 0.06358851 -0.1474927 0.0013622575 -0.26415384 0.28555068 0.30206847 -0.045625113 -0.44031367 -0.02071943 0.6505385 0.3630543 -0.10596633 -0.053902667 -0.29229897 0.37301525 -0.15842101 -0.16943699 0.30246451 0.67344666 0.07632657 0.07166092 -0.13357453 -0.2569584 -0.3040741 -0.11055951 0.11708841 -0.47003233 -0.2589851 -0.042730324 -0.5298427 -0.40509555 -0.56606764 0.79810387 0.021119034 0.05464742 -0.27247116 -0.21386911 0.23041016 -0.035395775 0.6999288 0.37769914 -0.189869 -0.9390534 -0.08094504 -0.28796047 0.3715127
get 0.048028767 0.42919102 0.05923703 -0.29032895 0.3732761 0.08415974 -0.41399273 -0.43589792 -0.0643947 0.2625836 0.32870722 0.22795399 0.13205048 -0.8456661 -0.05654081 0.067426994 0.34777448 -0.46927568 0.16565344 -0.08134876 0.23672819 0.10169567 -0.26406914 -0.043513034 -0.021267043 -0.25749934 -0.040495932 -0.10951498 0.28306893 -0.05045308 0.049012236 -0.036983203 0.036994375 -0.30810502 -0.2999747 0.35414726 0.1956436 0.25361088 0.6089279 0.074627034 0.36857188 -0.01258819 -0.27745718 -0.3735837 0.11338094 -0.48701677 -0.11106881 0.2770357 0.48791704 0.5155361 0.3210798 -0.26392496 -0.107440345 -0.46724254 0.057465483 -0.13796735 0.0030974264 -0.23709247 0.25300857 0.27662477 -0.046098404 -0.39942905 -0.015405629 0.5821741 0.32440245 -0.09013624 -0.04842621 -0.26160613 0.33756715 -0.14852995 -0.14416589 0.27730268 0.6091665 0.075039126 0.06547903 -0.12067158 -0.2284244 -0.2746637 -0.098953284 0.10755353 -0.41938186 -0.23105732 -0.04546828 -0.4801314 -0.36466828 -0.50734526 0.71304876 0.013477325 0.046075977 -0.25277135 -0.19363685 0.20196356 -0.034898773 0.6295108 0.3393816 -0.16880648 -0.836674 -0.07334351 -0.25624967 0.3301153
problem 0.04445245 0.37039605 0.050446875 -0.2546663 0.32207295 0.07870298 -0.35439086 -0.37268177 -0.04955053 0.22516528 0.28081977 0.18805958 0.116323225 -0.7230743 -0.05221104 0.060892574 0.30465257 -0.4045985 0.15037291 -0.07387566 0.20382333 0.09621719 -0.22634044 -0.03230438 -0.016940465 -0.21726505 -0.038642544 -0.09772381 0.24023896 -0.045662124 0.04411205 -0.031203803 0.027673202 -0.25991812 -0.25779152 0.30295676 0.16819498 0.21772249 0.5156414 0.06549421 0.31860864 -0.007579024 -0.24042164 -0.3265397 0.092252 -0.4176894 -0.09563416 0.23438014 0.41288656 0.43853432 0.27721086 -0.23126404 -0.08901327 -0.39906323 0.04723965 -0.11114441 0.0029385432 -0.1989867 0.21891236 0.22856073 -0.039511606 -0.3339416 -0.012089384 0.49627396 0.2787048 -0.08537471 -0.036567133 -0.2247339 0.2889055 -0.12294431 -0.12538636 0.23896971 0.5209598 0.060195073 0.05345803 -0.10621985 -0.19844072 -0.23151202 -0.08097828 0.09351424 -0.36357588 -0.20077871 -0.038311377 -0.4113414 -0.31935206 -0.43981475 0.61158895 0.015819686 0.038140412 -0.2163952 -0.1646484 0.17465033 -0.02306874 0.5380579 0.28352028 -0.14970651 -0.725814 -0.05655068 -0.21711975 0.28361937
would 0.056042533 0.45944953 0.06845745 -0.30930623 0.40909928 0.09139068 -0.44489506 -0.45861048 -0.062927164 0.27049953 0.3489435 0.24679251 0.14185247 -0.9002222 -0.06685699 0.074173346 0.37372994 -0.5048956 0.18352717 -0.09719152 0.2531715 0.10967773 -0.29107317 -0.04256011 -0.025558528 -0.2779663 -0.043017976 -0.114281595 0.3007252 -0.056260414 0.05108814 -0.043882746 0.033226416 -0.3298856 -0.32276747 0.37876734 0.2142373 0.27232173 0.64231956 0.07382897 0.3952254 -0.01621796 -0.2962067 -0.3979068 0.121763654 -0.5243921 -0.12250038 0.29852873 0.5210671 0.55839556 0.34956044 -0.286388 -0.11282288 -0.4964185 0.055859175 -0.14130163 0.007665422 -0.24503952 0.26481858 0.29331964 -0.051655836 -0.41695487 -0.022916824 0.62751204 0.3399743 -0.096595354 -0.049543153 -0.2839529 0.3537079 -0.15106024 -0.16230203 0.29440582 0.64481497 0.08024057 0.06895984 -0.13029315 -0.246193 -0.2906822 -0.107644714 0.10918595 -0.44400486 -0.25113353 -0.04384513 -0.5177882 -0.39430428 -0.54055554 0.765026 0.022855222 0.052271415 -0.2609404 -0.20698926 0.21753636 -0.03237443 0.6797949 0.35706058 -0.18628035 -0.8996149 -0.07909196 -0.2740596 0.35237122
need 0.04556035 0.36888382 0.052481186 -0.25109795 0.33237824 0.076648526 -0.3659702 -0.37536103 -0.04944693 0.2264464 0.2868206 0.19495702 0.11877519 -0.7395816 -0.049753055 0.057566166 0.3093774 -0.41066617 0.14974563 -0.0776807 0.2112875 0.09488454 -0.23638093 -0.029417492 -0.019690616 -0.22349492 -0.041150395 -0.09550257 0.24074015 -0.040443685 0.046711985 -0.036899835 0.03542804 -0.27308497 -0.2593191 0.30153167 0.17061156 0.21905649 0.5242168 0.0640029 0.32781476 -0.012226935 -0.23944408 -0.33184567 0.09512121 -0.4234366 -0.09984793 0.24608217 0.42948478 0.45150712 0.2844719 -0.23384437 -0.08986499 -0.4056503 0.04594049 -0.12018581 0.002831604 -0.20577554 0.2218266 0.2335968 -0.036202155 -0.34868154 -0.021021705 0.50681394 0.28217518 -0.078895085 -0.03306864 -0.22963597 0.28592905 -0.13189621 -0.12946871 0.2428843 0.5221136 0.06151141 0.06262231 -0.10288513 -0.20135896 -0.23885669 -0.08096821 0.09403944 -0.36696258 -0.20477273 -0.040788487 -0.42131308 -0.31801713 -0.4400172 0.61793387 0.019963574 0.039746236 -0.21374384 -0.16289188 0.17791617 -0.031119496 0.5456545 0.29583925 -0.15251485 -0.73478496 -0.060373057 -0.22471868 0.28390786
read 0.058012623 0.4432292 0.069869354 -0.30355275 0.3934974 0.0969037 -0.42978376 -0.44884276 -0.060093112 0.27068937 0.33696857 0.23392285 0.1343147 -0.8819366 -0.05869192 0.06537509 0.36971346 -0.48989463 0.1754209 -0.08930987 0.24151838 0.1128957 -0.27939376 -0.03567815 -0.021776395 -0.26526076 -0.04366952 -0.113243856 0.28762707 -0.05474184 0.053459547 -0.04037628 0.03678585 -0.32043913 -0.31237122 0.36838448 0.2109754 0.2566409 0.63094944 0.0757671 0.38584387 -0.010023049 -0.2881181 -0.39050215 0.12008511 -0.5073318 -0.11183178 0.29120502 0.5103398 0.53898793 0.34141362 -0.27710903 -0.11007641 -0.48487288 0.05641271 -0.13334364 0.008458713 -0.24164565 0.2668694 0.28464144 -0.0501132 -0.41635698 -0.020733494 0.6124153 0.33285037 -0.09392796 -0.046144854 -0.27018312 0.34745207 -0.15615173 -0.15900816 0.28401142 0.6312674 0.0768794 0.068941 -0.12291216 -0.2402186 -0.2788052 -0.102644816 0.11187848 -0.43501925 -0.24033272 -0.046001613 -0.5004898 -0.38058996 -0.5282186 0.74042445 0.0202012 0.05480449 -0.25401604 -0.19482988 0.20898238 -0.033564933 0.6621498 0.3537542 -0.18088402 -0.8784579 -0.06923163 -0.26498592 0.33819696
from 0.06393414 0.525963 0.082661726 -0.36196792 0.46896285 0.10629903 -0.5197625 -0.53290296 -0.07534171 0.31576267 0.40421423 0.27857465 0.1635955 -1.0476785 -0.074415855 0.08393722 0.43035987 -0.5841807 0.20596068 -0.10364857 0.29271117 0.13569216 -0.3278415 -0.044295374 -0.023468627 -0.3182475 -0.05301656 -0.13975161 0.34098864 -0.055727568 0.06395733 -0.04902508 0.042339657 -0.3805083 -0.3695797 0.43409687 0.25007537 0.31422177 0.75146455 0.088302284 0.45784107 -0.01668214 -0.33759817 -0.46710026 0.14000317 -0.60242057 -0.13376063 0.34412232 0.596797 0.6409578 0.40115908 -0.32608142 -0.12534325 -0.5745181 0.06321521 -0.16269332 0.00082404807 -0.2927868 0.31062612 0.33382955 -0.060019396 -0.48397222 -0.026798865 0.715458 0.39189634 -0.115784116 -0.054808225 -0.32624725 0.41322896 -0.17627816 -0.17751575 0.34391898 0.742347 0.089472026 0.07637778 -0.15072754 -0.286237 -0.3341411 -0.12210205 0.12770474 -0.5174478 -0.2841967 -0.050267775 -0.5966253 -0.4519013 -0.6277075 0.88591814 0.026738409 0.060785975 -0.30244556 -0.24199526 0.25257787 -0.04099622 0.78154886 0.42082193 -0.21724151 -1.0353572 -0.08610532 -0.31484875 0.41097763
tried 0.035449546 0.30012998 0.03906029 -0.19719796 0.2615322 0.06308964 -0.2959087 -0.3028807 -0.04712175 0.17594258 0.23346819 0.15040207 0.096685864 -0.5905102 -0.044173367 0.03999681 0.24068083 -0.32650033 0.12254608 -0.06336872 0.1658376 0.080587626 -0.18356305 -0.027803788 -0.021652993 -0.18359181 -0.028839175 -0.07161901 0.19384386 -0.026554553 0.03405743 -0.03058577 0.019752542 -0.21145502 -0.21341483 0.24155109 0.14076695 0.17225534 0.4223624 0.042682335 0.2644413 -0.007160463 -0.1981663 -0.26828557 0.07599806 -0.33314437 -0.08091913 0.18777819 0.33850986 0.36543342 0.22449873 -0.1829182 -0.06799974 -0.3196823 0.03492658 -0.09416887 0.0020297484 -0.16401339 0.17186658 0.18956596 -0.03786012 -0.27542588 -0.01625909 0.40984815 0.21910252 -0.06392599 -0.030027417 -0.17700706 0.2317133 -0.095226124 -0.10591647 0.19705251 0.41949525 0.049683493 0.041868135 -0.07714759 -0.15829682 -0.18578364 -0.06408248 0.06763097 -0.29328313 -0.16883852 -0.03298263 -0.339739 -0.25428817 -0.35773683 0.50051576 0.011270486 0.034986533 -0.16769624 -0.1288978 0.13713393 -0.027001781 0.44623256 0.23874861 -0.115991294 -0.58482397 -0.053311296 -0.18338145 0.22496258
my 0.06184765 0.49259695 0.076657884 -0.33330986 0.43158546 0.09824398 -0.4756782 -0.49992064 -0.06835474 0.2986078 0.37957865 0.25702435 0.15418403 -0.9724693 -0.06912835 0.07677425 0.4018074 -0.54406095 0.18985558 -0.096823975 0.2744825 0.12476407 -0.3076609 -0.043228548 -0.021320987 -0.30054507 -0.047388006 -0.12292425 0.3125991 -0.058104243 0.053274672 -0.044181075 0.03477711 -0.34700942 -0.34109196 0.3962197 0.22838032 0.2867667 0.68742234 0.08617254 0.42685354 -0.009910284 -0.3174371 -0.43135908 0.12795497 -0.5557496 -0.12848935 0.31870833 0.550677 0.59323883 0.37511027 -0.3044844 -0.12238425 -0.5327752 0.06449824 -0.14992742 0.0013511707 -0.26723498 0.29106525 0.3154723 -0.052739464 -0.44740066 -0.026228895 0.66447455 0.3704146 -0.110212915 -0.050776843 -0.3044645 0.37643665 -0.16454388 -0.1679377 0.3090016 0.69261 0.077876896 0.07139819 -0.14218794 -0.26741108 -0.3127128 -0.11340729 0.12301853 -0.4827307 -0.26435772 -0.045448355 -0.5501386 -0.42172417 -0.58326674 0.81934524 0.026529703 0.052235592 -0.28465346 -0.21792935 0.23757209 -0.037594717 0.72367895 0.38839933 -0.19529967 -0.96877515 -0.07660789 -0.29574525 0.3756778
does 0.050378148 0.40943706 0.06471959 -0.27858528 0.35938898 0.08246364 -0.40056857 -0.40964052 -0.060188875 0.24319798 0.31002584 0.21636416 0.12258613 -0.7977279 -0.051074646 0.05960929 0.3325746 -0.44980446 0.16182315 -0.08347425 0.22968394 0.107162945 -0.25129226 -0.040657714 -0.025231035 -0.24395743 -0.037446946 -0.10056988 0.2586108 -0.041551333 0.04653888 -0.03769439 0.035066515 -0.2914266 -0.28748354 0.3315045 0.19073479 0.23313698 0.5736371 0.06739429 0.349565 -0.015366921 -0.26229173 -0.35522053 0.10870209 -0.45949158 -0.10276299 0.26431683 0.4628914 0.48670536 0.3115791 -0.2549575 -0.10417933 -0.43526012 0.056885127 -0.12721673 0.005165409 -0.21946615 0.23871654 0.25632134 -0.040055215 -0.36971223 -0.014526441 0.55541545 0.305827 -0.08774283 -0.044383638 -0.25259668 0.31961066 -0.13795103 -0.1361957 0.26137793 0.5770751 0.06550636 0.065388665 -0.114142105 -0.21559079 -0.2529696 -0.09467582 0.09822452 -0.39984736 -0.22592255 -0.039059866 -0.45664757 -0.34636912 -0.48253876 0.68252045 0.016316334 0.041284986 -0.2339214 -0.17733002 0.19373503 -0.024475595 0.5995133 0.32296312 -0.16529374 -0.79840404 -0.068256624 -0.24904202 0.31603783
use 0.049054626 0.43358815 0.0657809 -0.29113513 0.3866982 0.09135375 -0.42463788 -0.43186817 -0.06507996 0.2638422 0.3352973 0.23190422 0.13311322 -0.853175 -0.057120964 0.0701754 0.3592334 -0.47715735 0.16638958 -0.087224744 0.24105133 0.10494526 -0.26643795 -0.037886914 -0.02187603 -0.2583895 -0.04394233 -0.11116605 0.2818973 -0.05168971 0.05162887 -0.04059102 0.032565225 -0.30934948 -0.3043493 0.3487867 0.19840907 0.25281525 0.60996294 0.070019335 0.3705865 -0.00983127 -0.27816707 -0.38391843 0.11760027 -0.49485764 -0.112890266 0.27793148 0.49497622 0.52542436 0.32404456 -0.27195096 -0.10540161 -0.46771485 0.05659827 -0.13799366 0.00179381 -0.23128086 0.25732917 0.27467507 -0.046456542 -0.404008 -0.02114585 0.5912153 0.32087857 -0.0948681 -0.039726187 -0.2673953 0.336346 -0.14521384 -0.14472543 0.27500543 0.6084132 0.073018536 0.06320705 -0.12563156 -0.23302549 -0.2687808 -0.096001334 0.103452206 -0.42369735 -0.2353876 -0.04448 -0.4880062 -0.3741982 -0.51971287 0.7172092 0.017078072 0.051932078 -0.24803083 -0.19084452 0.20491655 -0.033654794 0.64417326 0.3416218 -0.17879662 -0.8554386 -0.06837087 -0.26586723 0.33785093
one 0.058739685 0.47475427 0.07035797 -0.32207695 0.4118255 0.098477475 -0.46267617 -0.47642922 -0.067729875 0.2825529 0.36315966 0.25327578 0.14331368 -0.9348083 -0.06605736 0.072240494 0.38484418 -0.516607 0.18497099 -0.09177755 0.26393992 0.11546305 -0.29500133 -0.04878769 -0.021961698 -0.287507 -0.05232909 -0.118566155 0.3015816 -0.055990465 0.0580339 -0.03902464 0.03594373 -0.34054115 -0.32631716 0.3895615 0.22225387 0.275973 0.66978127 0.07888694 0.41301948 -0.018395055 -0.3024653 -0.41709277 0.11914016 -0.529344 -0.12566972 0.3037767 0.53211194 0.5669738 0.35246074 -0.29486647 -0.11958424 -0.50568044 0.059325047 -0.15000167 0.009201409 -0.25615665 0.28230256 0.29552883 -0.051946696 -0.43164784 -0.017707996 0.6453895 0.35221845 -0.09930155 -0.044398356 -0.28862482 0.36258832 -0.16023742 -0.1665222 0.3022542 0.66552 0.07524799 0.07018737 -0.13341491 -0.25555053 -0.2994012 -0.11017778 0.119367465 -0.46070766 -0.25800908 -0.045337614 -0.53471774 -0.39886537 -0.5624002 0.7908709 0.024044815 0.051764257 -0.27083808 -0.21291617 0.22324619 -0.03617306 0.7000796 0.37355262 -0.18705834 -0.92692447 -0.07441425 -0.2835452 0.36770564
because 0.05965377 0.521333 0.081644736 -0.35920906 0.46125254 0.11029071 -0.5104344 -0.5214542 -0.0739117 0.3091258 0.3978999 0.28092483 0.16149645 -1.023666 -0.07284163 0.08024645 0.4207619 -0.5699792 0.20662087 -0.10904658 0.2938084 0.13380133 -0.32421935 -0.05226238 -0.032348365 -0.31786013 -0.055082995 -0.13746971 0.34010392 -0.056285262 0.059870757 -0.049108762 0.038325872 -0.36935773 -0.36948124 0.41914886 0.24213417 0.30270773 0.738827 0.086800985 0.45452756 -0.013374113 -0.3399604 -0.46083188 0.13332315 -0.5863733 -0.13217586 0.33855185 0.59351027 0.62989515 0.38668394 -0.32098654 -0.124816865 -0.556108 0.06892506 -0.16517136 0.00093102 -0.28518727 0.3003373 0.32908264 -0.05541602 -0.48220074 -0.017708197 0.7073787 0.39107117 -0.12004281 -0.054216754 -0.3155244 0.4084253 -0.1809135 -0.1816777 0.33809376 0.73140043 0.08339129 0.0801665 -0.15042236 -0.27822584 -0.32595125 -0.121253274 0.13384494 -0.5128029 -0.28145516 -0.051736455 -0.5790794 -0.4417271 -0.62188375 0.87199414 0.0271025 0.060309842 -0.3045585 -0.23393749 0.24713843 -0.03383563 0.7707604 0.40986735 -0.21092688 -1.0256132 -0.07954809 -0.31496736 0.4003598
by 0.06350541 0.5571193 0.08466289 -0.3838373 0.49839044 0.11596497 -0.5420176 -0.5690362 -0.08117943 0.33835042 0.43180978 0.29769608 0.17659737 -1.1128004 -0.07585973 0.089856595 0.46312308 -0.62200636 0.22464494 -0.116293535 0.31483868 0.14014435 -0.35352576 -0.051334325 -0.028682554 -0.33919522 -0.058803003 -0.14398758 0.3607003 -0.060477193 0.06001177 -0.050791018 0.04306053 -0.40442955 -0.39245677 0.46338373 0.26209748 0.3302007 0.7936764 0.09646505 0.48753154 -0.011221083 -0.36204952 -0.49425 0.14764301 -0.63240236 -0.14252035 0.35768 0.64030844 0.6828252 0.4235052 -0.3429393 -0.1425276 -0.6021358 0.06719043 -0.17298938 0.0007392804 -0.30156127 0.33425674 0.35705858 -0.060684156 -0.52169293 -0.02858396 0.762432 0.41576207 -0.12838289 -0.05887037 -0.34437737 0.43178824 -0.19533387 -0.1936332 0.3570774 0.7882138 0.0906404 0.08342498 -0.1602057 -0.2979108 -0.35611314 -0.12373503 0.14326164 -0.5511248 -0.30542964 -0.05808348 -0.6350976 -0.48178345 -0.6635097 0.9398196 0.025991097 0.060795788 -0.32914522 -0.24982318 0.27041224 -0.039891586 0.8333461 0.43956748 -0.23021375 -1.1077734 -0.08928269 -0.33589205 0.43568528
c 0.048341725 0.45000088 0.07064171 -0.31250766 0.40522638 0.0975466 -0.44805232 -0.45869166 -0.06829965 0.27185664 0.34962463 0.24134934 0.13658196 -0.8995959 -0.06481079 0.07474157 0.37775993 -0.50335383 0.17712454 -0.088828325 0.25301522 0.11320502 -0.284764 -0.040801197 -0.021108568 -0.27759087 -0.049558904 -0.112772405 0.2978592 -0.050860975 0.056623854 -0.04092445 0.040060993 -0.32183 -0.3137935 0.3718817 0.21671371 0.26863706 0.6417653 0.07757531 0.39473903 -0.010307427 -0.29181722 -0.4009557 0.11960989 -0.5139552 -0.11889798 0.29268736 0.5134321 0.5531829 0.33919737 -0.28199762 -0.108886205 -0.4848834 0.06080914 -0.14569771 0.00020203833 -0.25039226 0.2732184 0.29005876 -0.04435012 -0.419106 -0.016507935 0.61702263 0.3441286 -0.09567756 -0.044363096 -0.27486512 0.3535546 -0.1502307 -0.15390286 0.28669164 0.6427228 0.074477196 0.071052015 -0.1273576 -0.24578479 -0.28627434 -0.10693143 0.1122223 -0.4442502 -0.25035596 -0.049358327 -0.5118431 -0.3897391 -0.53568107 0.7573046 0.02008642 0.048186347 -0.25987884 -0.20017914 0.20999616 -0.032006778 0.6773446 0.35214165 -0.18625599 -0.8948318 -0.07253274 -0.2715648 0.35397074
youre 0.05743324 0.5099223 0.07391677 -0.34773868 0.45745972 0.10333226 -0.50284296 -0.5146319 -0.07108681 0.31370252 0.39589316 0.27054217 0.15964271 -1.0162157 -0.07320285 0.08249578 0.42387408 -0.5703226 0.20372972 -0.10704235 0.28624842 0.123795696 -0.3222521 -0.05131159 -0.028772557 -0.3118659 -0.050636943 -0.13510185 0.3365535 -0.060937792 0.056114327 -0.051207785 0.039325923 -0.3657835 -0.36033997 0.41969654 0.23770633 0.29683936 0.727903 0.08576381 0.44766346 -0.019621428 -0.33367616 -0.4541092 0.13235088 -0.5806926 -0.12854113 0.32723475 0.5761406 0.6237553 0.3826377 -0.3180154 -0.1214542 -0.55164605 0.06549093 -0.15558802 0.002885709 -0.27637726 0.30549645 0.3271214 -0.053224377 -0.47923577 -0.018168332 0.70029753 0.38127506 -0.11040317 -0.05298223 -0.30978283 0.3976561 -0.1702815 -0.17874387 0.32735673 0.7244185 0.08499399 0.072969764 -0.14080854 -0.27675 -0.32196945 -0.120720364 0.12920538 -0.5009437 -0.28086185 -0.054979194 -0.5814105 -0.4377691 -0.6142115 0.85972005 0.023634564 0.06149057 -0.3004307 -0.23395509 0.24025422 -0.038274057 0.7556701 0.40348884 -0.21011905 -1.0072104 -0.08546227 -0.30874562 0.39753255
more 0.05554435 0.47433752 0.07600023 -0.31641498 0.41351223 0.10137047 -0.46197373 -0.47702867 -0.07221572 0.28375995 0.36210784 0.25368184 0.14342691 -0.9364524 -0.060071796 0.06969833 0.3911634 -0.5179118 0.1903416 -0.09662968 0.2670128 0.118310414 -0.29805148 -0.044147424 -0.031380266 -0.2861791 -0.05205114 -0.12637746 0.30895406 -0.05608331 0.055510066 -0.040926438 0.034296863 -0.33939883 -0.3362235 0.3818765 0.21855491 0.2719692 0.6632594 0.08377671 0.40987885 -0.012069758 -0.3081332 -0.41688865 0.120582476 -0.53872645 -0.12904602 0.30837843 0.5413612 0.56660426 0.3543963 -0.2953135 -0.11372779 -0.51547885 0.06501863 -0.14272632 0.0043326505 -0.25274727 0.27455774 0.29922664 -0.04887666 -0.43256864 -0.025792079 0.63913584 0.3538943 -0.1004298 -0.049719777 -0.283688 0.3656648 -0.15743245 -0.16391034 0.30140916 0.6714599 0.07995248 0.07145459 -0.13772173 -0.2597909 -0.29563192 -0.102470376 0.11295358 -0.46730462 -0.25188774 -0.05015282 -0.5327774 -0.40844408 -0.558976 0.78614324 0.024450293 0.05122617 -0.27510777 -0.21240315 0.22743829 -0.03593887 0.6948677 0.37519503 -0.1860343 -0.931994 -0.07822562 -0.28859004 0.359938
also 0.050046258 0.43119046 0.06103611 -0.29114112 0.38580206 0.091552794 -0.4243269 -0.44127133 -0.058885213 0.25915337 0.33671066 0.22463137 0.1377938 -0.8616996 -0.059484 0.064229414 0.36001825 -0.47826743 0.17038044 -0.088004634 0.23788923 0.10545137 -0.2761685 -0.041866787 -0.022340221 -0.26476327 -0.039692827 -0.11112834 0.2769384 -0.048764516 0.048425496 -0.04147989 0.037802238 -0.3147446 -0.30792472 0.36028892 0.20824616 0.2527651 0.61354744 0.074134916 0.37849027 -0.014334943 -0.2778249 -0.37990788 0.11534146 -0.49249464 -0.115645185 0.2751994 0.4906596 0.5211694 0.3262081 -0.27254495 -0.11149268 -0.46610653 0.058913317 -0.1303824 0.002130965 -0.24188706 0.25545573 0.28024566 -0.045878313 -0.4048297 -0.01476733 0.5902927 0.32513294 -0.098336495 -0.04174092 -0.2689142 0.3355445 -0.15189943 -0.15121345 0.28298917 0.612468 0.06879993 0.061422568 -0.11718769 -0.23288488 -0.27605447 -0.096901014 0.10859244 -0.4241309 -0.23173137 -0.042111684 -0.48841858 -0.37275922 -0.5188371 0.72605485 0.015501611 0.05171358 -0.2517746 -0.1927793 0.21090977 -0.03276489 0.645215 0.3474733 -0.17799985 -0.8512432 -0.06940106 -0.26589838 0.33608472
did 0.043898836 0.32638586 0.048477866 -0.21332887 0.27740118 0.06631947 -0.31316984 -0.31888193 -0.043836996 0.19422168 0.24658708 0.16774136 0.097952016 -0.6329344 -0.047006913 0.053558316 0.26230848 -0.35569695 0.12611143 -0.06280567 0.18213508 0.07468837 -0.20284577 -0.029645225 -0.0143336225 -0.18838924 -0.029786339 -0.08256918 0.21232967 -0.03964936 0.040809575 -0.027300939 0.021354493 -0.22817329 -0.22787541 0.26271898 0.14505184 0.18379629 0.44675788 0.055999193 0.2755397 -0.008134731 -0.20974097 -0.27545846 0.08650085 -0.35710776 -0.08665041 0.20595029 0.35981953 0.3835656 0.23990805 -0.19384651 -0.079871014 -0.3458832 0.035586927 -0.09759204 -0.0011398065 -0.17545024 0.18610914 0.20315017 -0.035306092 -0.2954526 -0.018494684 0.4373075 0.23709922 -0.071799055 -0.035165187 -0.20071106 0.2492302 -0.112510264 -0.116070375 0.20848043 0.44999504 0.05493009 0.04572987 -0.08472985 -0.17442308 -0.20499387 -0.076864295 0.07789892 -0.31723237 -0.1754047 -0.037028875 -0.3615808 -0.2755761 -0.38022 0.53403443 0.01511028 0.034302585 -0.18337378 -0.14283106 0.1537041 -0.030139057 0.47792116 0.24726164 -0.13344479 -0.62959915 -0.054949712 -0.19649409 0.24438271
here 0.046731304 0.39587796 0.056179024 -0.2759139 0.34911495 0.08787122 -0.3892169 -0.39915964 -0.054092858 0.24172603 0.30184066 0.211382 0.12284439 -0.78699875 -0.052916154 0.05678907 0.32956597 -0.4419742 0.1526053 -0.07914785 0.22455622 0.10158787 -0.24987379 -0.036006685 -0.017927427 -0.23658517 -0.044012967 -0.10746865 0.25845653 -0.04704073 0.04711352 -0.037203085 0.036215924 -0.28996244 -0.27588192 0.3269738 0.18468352 0.23687065 0.5587277 0.0708313 0.34908718 -0.010979017 -0.25666046 -0.3500581 0.101084135 -0.45187262 -0.10871627 0.25434962 0.44821694 0.47943977 0.30079073 -0.24132772 -0.09941577 -0.42433977 0.05168676 -0.12582147 0.0028039317 -0.21635894 0.2332127 0.24708796 -0.040279172 -0.3711744 -0.022562282 0.547493 0.2970495 -0.0900532 -0.04411856 -0.24588263 0.3093413 -0.13410707 -0.14000876 0.25149667 0.55943614 0.064075895 0.06371665 -0.11372662 -0.2151174 -0.25066924 -0.08600828 0.09623362 -0.38900957 -0.21317461 -0.043638103 -0.44305515 -0.34240708 -0.4694167 0.6620947 0.0165041 0.049477495 -0.23119284 -0.17625158 0.19156016 -0.031406917 0.59032613 0.30892414 -0.15765724 -0.7875888 -0.06906993 -0.23717466 0.31243125
know 0.042690277 0.34381503 0.052262012 -0.23435928 0.3023593 0.072239466 -0.33767727 -0.3430316 -0.05035226 0.20255558 0.26320228 0.18056594 0.103662856 -0.685344 -0.0438705 0.047866464 0.2781139 -0.38018242 0.1393936 -0.069881976 0.1941251 0.082312725 -0.22033006 -0.035362802 -0.020780616 -0.2083829 -0.029983848 -0.093115814 0.2280535 -0.036427643 0.041615166 -0.028052406 0.030555634 -0.24801718 -0.2391304 0.28645346 0.16218102 0.20310831 0.48291114 0.060617577 0.3018444 -0.007551271 -0.22637384 -0.30584487 0.08613571 -0.3909182 -0.09490459 0.22193326 0.39356944 0.42091903 0.25972584 -0.21108933 -0.08626649 -0.36675918 0.040816415 -0.11168782 0.00031128043 -0.18632801 0.2039514 0.21976379 -0.034978036 -0.3185374 -0.013652216 0.46929002 0.2537685 -0.07071702 -0.02955269 -0.21108851 0.26829657 -0.11219291 -0.114998624 0.22109315 0.48433766 0.05272603 0.05206375 -0.102182195 -0.18715787 -0.22090563 -0.07749195 0.08580653 -0.3335866 -0.18657486 -0.035286717 -0.3879418 -0.29891688 -0.40439367 0.5698932 0.010611008 0.035205927 -0.19533177 -0.15090606 0.16667826 -0.030252716 0.51369774 0.27244174 -0.14369644 -0.6827285 -0.05606767 -0.21194354 0.26073986
try 0.035033874 0.32402557 0.049847044 -0.21341947 0.2812443 0.06832562 -0.31125373 -0.32338443 -0.040356446 0.19148232 0.24497646 0.16749316 0.09752606 -0.6389259 -0.03842077 0.05263718 0.2680884 -0.3524228 0.12261278 -0.065358676 0.17389415 0.07704503 -0.1994326 -0.03311292 -0.017039085 -0.19805667 -0.030179719 -0.07739174 0.20983295 -0.03171095 0.03618909 -0.025646044 0.020721598 -0.22386196 -0.2298851 0.26088643 0.14810175 0.19257702 0.44648832 0.048410647 0.27751866 -0.0030167354 -0.20158377 -0.2819335 0.08282588 -0.36377063 -0.08493231 0.20585972 0.36376032 0.38180527 0.23948042 -0.19478808 -0.079581186 -0.35005668 0.037481148 -0.10545136 0.0063716266 -0.18010758 0.18324801 0.19879228 -0.034356333 -0.29878333 -0.017185014 0.43690142 0.24436837 -0.073199205 -0.03519972 -0.200892 0.24496484 -0.10858842 -0.11056717 0.20852694 0.4531868 0.060808703 0.050156437 -0.092895575 -0.1754253 -0.20724891 -0.07690433 0.080795586 -0.31323633 -0.16880542 -0.027501103 -0.35694247 -0.27482405 -0.37976876 0.5365587 0.015900498 0.038010463 -0.18432169 -0.14074025 0.15413618 -0.027446017 0.47843358 0.25228828 -0.12489554 -0.6266764 -0.046831924 -0.1959534 0.24325956
post 0.042110633 0.35971132 0.04935444 -0.24300215 0.31311244 0.07579427 -0.3514852 -0.36649752 -0.054223467 0.22002457 0.2802562 0.19014825 0.10661833 -0.7075247 -0.049276114 0.05694814 0.29515815 -0.39759758 0.14747262 -0.07413558 0.20138957 0.09397241 -0.22372198 -0.0277977 -0.022817796 -0.21953012 -0.032909527 -0.08925731 0.2328533 -0.042381834 0.04229481 -0.03293453 0.033009663 -0.25744647 -0.25035048 0.29461557 0.16773029 0.20703855 0.5060088 0.06258233 0.31130463 -0.01467053 -0.23557687 -0.31194013 0.09086497 -0.40929192 -0.096421964 0.22950266 0.40848804 0.43609926 0.2717489 -0.22588451 -0.09031145 -0.3886302 0.04631002 -0.110051975 0.0054735034 -0.19912587 0.21355745 0.2272327 -0.033105373 -0.32828474 -0.020663539 0.48808014 0.26742792 -0.07502883 -0.038482424 -0.22256471 0.27409348 -0.12176416 -0.12384451 0.23109923 0.50997204 0.060445007 0.05324095 -0.10109255 -0.19517715 -0.2213962 -0.08534753 0.08526246 -0.34749228 -0.20020273 -0.03408847 -0.409097 -0.30413818 -0.42922905 0.5999705 0.01830606 0.038015623 -0.20446312 -0.1573532 0.1636946 -0.028940547 0.52585363 0.28383434 -0.14867696 -0.7048443 -0.05569843 -0.2135831 0.27565986
ask 0.03269485 0.29741287 0.042049345 -0.2049457 0.25700727 0.061929476 -0.29556957 -0.29656377 -0.042997114 0.18287027 0.23109867 0.16182195 0.08890074 -0.5909426 -0.039308507 0.045317207 0.24868488 -0.3298347 0.11856324 -0.05891974 0.1622416 0.076699734 -0.18606602 -0.02335853 -0.02138098 -0.18159781 -0.02944058 -0.078104146 0.19146687 -0.03220088 0.033950206 -0.029350165 0.019841209 -0.20860443 -0.2034102 0.24748085 0.14239994 0.17364539 0.42439783 0.049273487 0.2613279 -0.0024785534 -0.18925376 -0.2630589 0.07890824 -0.3384229 -0.080701664 0.1950963 0.33255994 0.3577438 0.22211926 -0.18608263 -0.07361593 -0.31842887 0.043429967 -0.08979037 0.002305901 -0.1636455 0.17556724 0.19095948 -0.027932554 -0.2786048 -0.013141967 0.40980333 0.22911282 -0.06361362 -0.035970893 -0.17967553 0.22625431 -0.098252326 -0.1063913 0.18592112 0.41390976 0.055457816 0.04520875 -0.08595872 -0.15616144 -0.18632479 -0.06596609 0.07124479 -0.29036152 -0.16031629 -0.031642295 -0.32964242 -0.25023443 -0.353329 0.49788842 0.012282789 0.030834196 -0.17153394 -0.12960513 0.13941306 -0.02557424 0.4359466 0.23039475 -0.11764047 -0.5909659 -0.049485072 -0.17636791 0.22438557
then 0.06232405 0.48214597 0.06940539 -0.32951292 0.42747492 0.10221973 -0.47297812 -0.4896703 -0.073230006 0.29231268 0.3687681 0.25601482 0.15152499 -0.95272857 -0.06950584 0.074214935 0.39718542 -0.5360208 0.18904783 -0.10008424 0.27133006 0.116329886 -0.30346668 -0.043602858 -0.021975411 -0.2956518 -0.051639862 -0.12404677 0.3166093 -0.053497165 0.059992213 -0.04523309 0.033293676 -0.34210503 -0.34410247 0.3972635 0.22426598 0.28127906 0.67959744 0.085593104 0.41626763 -0.018150508 -0.30671608 -0.4237921 0.1219758 -0.54860413 -0.123972185 0.30902937 0.5505278 0.5860113 0.36117196 -0.29733303 -0.116266884 -0.5207339 0.06216995 -0.1481449 0.005010439 -0.2608351 0.28489575 0.31044358 -0.051076923 -0.44468352 -0.017671885 0.6608417 0.36039624 -0.10697781 -0.04637098 -0.2907916 0.3712217 -0.16762687 -0.16589156 0.31112924 0.6799275 0.07909707 0.07768582 -0.13414301 -0.2647888 -0.29901478 -0.110695265 0.120821424 -0.4673276 -0.25993422 -0.046142202 -0.5378154 -0.4152516 -0.5764334 0.80648065 0.017121805 0.051532015 -0.28015646 -0.21127294 0.22839838 -0.036090147 0.711376 0.38076803 -0.192819 -0.95111513 -0.07868715 -0.2861403 0.37385926
first 0.050453283 0.429318 0.059869822 -0.28805536 0.37447113 0.09160782 -0.42201823 -0.43818885 -0.058369577 0.26334435 0.33163223 0.23072155 0.12871656 -0.8475194 -0.062082097 0.06701714 0.35314074 -0.4693921 0.16890784 -0.0917327 0.2422412 0.11163439 -0.27052745 -0.041739084 -0.018821776 -0.25833058 -0.04760681 -0.11213192 0.2773568 -0.04889869 0.04861867 -0.04097316 0.033490222 -0.31328043 -0.30486053 0.353087 0.19605215 0.2571614 0.60961986 0.06867799 0.3783407 -0.00919458 -0.2791042 -0.37943247 0.10890129 -0.48532987 -0.109471925 0.28253543 0.4855348 0.5190519 0.32472295 -0.2640457 -0.110435195 -0.46090764 0.060846224 -0.13562901 0.008796214 -0.23328835 0.25849265 0.27702072 -0.043289606 -0.39706033 -0.015662903 0.58820134 0.32766214 -0.09355345 -0.047371153 -0.25844285 0.32775754 -0.14109743 -0.15115766 0.27990675 0.6039815 0.07712449 0.07028527 -0.12557153 -0.23414053 -0.2685824 -0.094641805 0.10610905 -0.41898483 -0.2341787 -0.039458077 -0.48020878 -0.37401786 -0.5132459 0.7184266 0.023642372 0.04521607 -0.24824053 -0.1958145 0.2055983 -0.036717173 0.6406137 0.34107122 -0.1734668 -0.8474928 -0.071013756 -0.25374064 0.33346683
all 0.050517127 0.42378896 0.0594235 -0.28707656 0.3751521 0.09082505 -0.41761568 -0.42221317 -0.06452203 0.25890782 0.32782418 0.22628152 0.12612817 -0.8354409 -0.06046975 0.067544036 0.3526906 -0.4651672 0.16426891 -0.08988504 0.230159 0.101230934 -0.26722178 -0.041327093 -0.026508577 -0.2550162 -0.04242283 -0.106833324 0.2741093 -0.048011083 0.05335988 -0.04156063 0.034089662 -0.30657363 -0.2950606 0.34489667 0.20299757 0.24408579 0.59267133 0.07051881 0.3704237 -0.007682154 -0.26975343 -0.36832923 0.114294365 -0.4812457 -0.11513698 0.27675352 0.47510213 0.5066047 0.32082516 -0.26078004 -0.10198623 -0.4521921 0.057898328 -0.13403565 0.008247572 -0.2285629 0.25258735 0.2685092 -0.04860952 -0.38765797 -0.019204605 0.58061326 0.32257336 -0.09445961 -0.040787805 -0.2558336 0.3238291 -0.14405549 -0.14426483 0.27573973 0.5946261 0.07695151 0.067376934 -0.11694316 -0.23167185 -0.26515642 -0.09684343 0.108883746 -0.4191443 -0.22457837 -0.03713665 -0.47753438 -0.36080328 -0.5022747 0.70338374 0.017803103 0.042545967 -0.24694188 -0.19316494 0.19965054 -0.025464242 0.6249673 0.3341631 -0.17107752 -0.8285239 -0.067289546 -0.25204375 0.33047855
we 0.043826085 0.35938165 0.051064033 -0.24114233 0.31733304 0.074979424 -0.35022953 -0.36285782 -0.04694336 0.21302733 0.27848566 0.185561 0.110002555 -0.70853055 -0.045466863 0.049962267 0.29337153 -0.39811036 0.13944536 -0.073834896 0.19629732 0.095127 -0.22310261 -0.03771544 -0.022197897 -0.2146219 -0.035385825 -0.090934314 0.22822808 -0.035870675 0.042904865 -0.031588107 0.030573813 -0.2611112 -0.25528675 0.2899414 0.1655949 0.20501326 0.50244343 0.062527366 0.3112077 -0.012214294 -0.23130134 -0.31822035 0.09370432 -0.40682575 -0.09754385 0.23422635 0.40937313 0.4366772 0.27138305 -0.22358085 -0.09246476 -0.39157692 0.045582585 -0.114520505 0.0019171772 -0.19925766 0.21136415 0.22433014 -0.04257393 -0.33620232 -0.018004466 0.48491272 0.2701573 -0.07797828 -0.035153825 -0.21646778 0.27623108 -0.123357914 -0.11994077 0.23278198 0.50133455 0.063528374 0.0568257 -0.106324404 -0.19148187 -0.2222182 -0.080095515 0.08347652 -0.35397503 -0.19715294 -0.031168414 -0.3977772 -0.30566537 -0.43133882 0.6007659 0.01592902 0.037985608 -0.21029522 -0.16478874 0.1694838 -0.02401246 0.5358469 0.28179917 -0.1425618 -0.7040602 -0.056119714 -0.21813385 0.27932793
asking 0.043571524 0.35342014 0.051605124 -0.24465153 0.31940007 0.076013304 -0.34622937 -0.36137307 -0.047629368 0.21965967 0.27399963 0.18771838 0.10711882 -0.70779866 -0.048460405 0.049790327 0.29564735 -0.39486197 0.1398332 -0.07194791 0.20216554 0.085347876 -0.22132169 -0.030185828 -0.015245056 -0.21414492 -0.04096973 -0.09445601 0.23397057 -0.041384574 0.045230873 -0.030581165 0.032250896 -0.26060995 -0.24656959 0.2948114 0.1674005 0.21143778 0.50616413 0.055866968 0.3098085 -0.010995303 -0.22634277 -0.31491652 0.09668755 -0.40781736 -0.09057731 0.2248613 0.39988112 0.4300391 0.26454693 -0.21556702 -0.088808455 -0.38015717 0.046923187 -0.1071649 0.005415693 -0.19487214 0.20559826 0.2280904 -0.03516611 -0.32654494 -0.011854554 0.49057996 0.26635376 -0.07632029 -0.041138414 -0.22349581 0.2779096 -0.11880081 -0.12538591 0.23445918 0.5032072 0.064372614 0.049259473 -0.103845924 -0.18983492 -0.22474857 -0.084569715 0.09073386 -0.3491422 -0.1957402 -0.040047 -0.40209734 -0.31063682 -0.42052183 0.593541 0.012931745 0.043609742 -0.20715424 -0.15987913 0.16485329 -0.022951592 0.5260205 0.27556047 -0.14803521 -0.7073178 -0.057329703 -0.21546337 0.27298027
work 0.041230716 0.32692826 0.044424362 -0.21985856 0.28732648 0.06266203 -0.3196977 -0.3258791 -0.05036596 0.19169082 0.25050128 0.1720589 0.10541176 -0.65043163 -0.046992093 0.047136817 0.26402262 -0.35662708 0.13205539 -0.06494325 0.18044706 0.08005462 -0.20899121 -0.032606337 -0.012807465 -0.19971891 -0.028984696 -0.086170696 0.2155328 -0.034434445 0.03585615 -0.034519386 0.029678334 -0.23846203 -0.22475018 0.2718214 0.15696084 0.19221474 0.4591976 0.05917973 0.28305212 -0.0070962845 -0.20801672 -0.2850519 0.086548135 -0.3726888 -0.084146224 0.21396999 0.3755434 0.3955112 0.2468748 -0.20737867 -0.07934126 -0.35599837 0.03771195 -0.10511776 0.0030475005 -0.17735752 0.19579016 0.209248 -0.037621208 -0.30380312 -0.014027714 0.44374663 0.2426823 -0.07127531 -0.03549306 -0.20426102 0.2582566 -0.11386149 -0.114021435 0.21207236 0.46542957 0.05465607 0.047252793 -0.09636503 -0.17950796 -0.20775542 -0.07341455 0.07515792 -0.3225173 -0.18151721 -0.028240636 -0.37105316 -0.2773575 -0.3874449 0.544836 0.017240683 0.03964751 -0.18714517 -0.15081526 0.15341933 -0.01926688 0.48205003 0.255751 -0.13550945 -0.64545447 -0.056125112 -0.19416389 0.2558274
google 0.045192804 0.35176066 0.05173103 -0.2400445 0.3073524 0.07514547 -0.34803736 -0.35957804 -0.046299174 0.21764979 0.2754924 0.18181744 0.111232184 -0.70335424 -0.04695635 0.057579584 0.2955199 -0.38814545 0.14259917 -0.07326269 0.19167094 0.08865164 -0.22388989 -0.030963358 -0.022822235 -0.21699084 -0.035518892 -0.09264165 0.23196726 -0.04246396 0.04138534 -0.026625719 0.024429653 -0.24791948 -0.25186348 0.28452194 0.16165933 0.20828728 0.4994496 0.06326934 0.30523083 -0.0070578484 -0.23100363 -0.30876777 0.095145404 -0.4011388 -0.09500155 0.22832169 0.40163833 0.427454 0.2679706 -0.22288376 -0.0849807 -0.38496396 0.046533663 -0.11163372 -0.0017904802 -0.19320805 0.20864452 0.22265899 -0.035798114 -0.32856783 -0.017404605 0.4843801 0.2655394 -0.07315655 -0.031325087 -0.22125383 0.27761468 -0.12265167 -0.12059659 0.22253993 0.50159377 0.06034705 0.05018505 -0.09680218 -0.19346112 -0.2278003 -0.07709824 0.08405955 -0.34293014 -0.19394015 -0.03208435 -0.39295352 -0.29927713 -0.42179528 0.58585906 0.016122753 0.04261869 -0.20790291 -0.1552585 0.16529386 -0.027271332 0.52089 0.27793837 -0.14134794 -0.6950427 -0.05751734 -0.21042354 0.27111328
has 0.054770786 0.4458771 0.06148957 -0.30267906 0.3954911 0.094629556 -0.44212615 -0.44947055 -0.06651548 0.269036 0.34079143 0.23900875 0.13930444 -0.88212925 -0.064469755 0.07311686 0.36905545 -0.48967403 0.1799864 -0.09383307 0.25324482 0.111497894 -0.27977565 -0.04559691 -0.023260752 -0.2739233 -0.041684862 -0.11088939 0.2921417 -0.051623855 0.048242986 -0.04360437 0.030151566 -0.32026947 -0.31440756 0.36681098 0.21460433 0.26269725 0.63481253 0.072177686 0.3912419 -0.018023973 -0.2929814 -0.39706612 0.11412036 -0.51145065 -0.11992916 0.28557935 0.5097488 0.54222065 0.34357995 -0.2728394 -0.11265065 -0.4840096 0.057192054 -0.14037527 0.00032571904 -0.23926802 0.2666119 0.2793784 -0.050629288 -0.4105675 -0.017037932 0.6147607 0.3324326 -0.10142922 -0.046187922 -0.27350092 0.3479013 -0.1542947 -0.15373813 0.2910353 0.6336363 0.07964805 0.067604296 -0.122039646 -0.2451654 -0.28530988 -0.09734531 0.11221485 -0.44284877 -0.24099669 -0.04729766 -0.50858915 -0.38792467 -0.5288796 0.74861753 0.022426387 0.05507781 -0.26041618 -0.20173208 0.21496335 -0.028265763 0.658929 0.34936017 -0.18268487 -0.8794897 -0.07064778 -0.27197364 0.34313256
they 0.05253484 0.47574645 0.07419865 -0.32272902 0.42392695 0.09706608 -0.4662573 -0.47968066 -0.06887784 0.28537595 0.36803824 0.24945942 0.14776292 -0.9506652 -0.06375875 0.070619226 0.39706182 -0.5270356 0.18878876 -0.10167681 0.2633465 0.123036064 -0.30576247 -0.044121318 -0.029258924 -0.29445043 -0.049483884 -0.12595655 0.3148372 -0.050696038 0.060438644 -0.04742086 0.039970376 -0.34917617 -0.34173715 0.39032078 0.22520058 0.28411892 0.68116885 0.07675929 0.4133596 -0.012863278 -0.31293482 -0.4231838 0.12782294 -0.5491028 -0.124278955 0.31454167 0.5491187 0.5760898 0.36761755 -0.2932825 -0.11815228 -0.5190029 0.058223598 -0.15432698 0.00033632063 -0.2607136 0.28222525 0.30370638 -0.050324004 -0.44129303 -0.023216834 0.6518796 0.3627666 -0.10678979 -0.047505204 -0.29785767 0.3725804 -0.1637683 -0.16593751 0.3114483 0.6791366 0.08002215 0.072476655 -0.13693318 -0.2591674 -0.29895082 -0.107078694 0.119297534 -0.4685677 -0.25727883 -0.047221374 -0.54199994 -0.40845445 -0.57226247 0.80439764 0.021929499 0.056411307 -0.2758838 -0.21028233 0.22866575 -0.03257444 0.714904 0.3770503 -0.19664046 -0.9473417 -0.07848625 -0.2888834 0.36757627
which 0.0537277 0.49337497 0.07640173 -0.34174514 0.43950155 0.1044757 -0.48083898 -0.5052618 -0.07430709 0.29839996 0.3844098 0.25812167 0.15474567 -0.9817235 -0.06746547 0.07459161 0.4102371 -0.543682 0.1931366 -0.10356888 0.27252042 0.11954749 -0.31285283 -0.046465687 -0.029425977 -0.30128726 -0.047977954 -0.12947957 0.3255778 -0.05271834 0.05456026 -0.042796962 0.039510567 -0.3586462 -0.34456223 0.40709662 0.23312534 0.28616303 0.70500267 0.08025237 0.43243757 -0.009158939 -0.3205905 -0.43969342 0.13099322 -0.5605457 -0.13446169 0.31678152 0.55702233 0.60380656 0.37846556 -0.30892217 -0.12139747 -0.538487 0.065352395 -0.15676545 0.0070977965 -0.27297884 0.2895177 0.3094969 -0.05065205 -0.45632586 -0.022961222 0.6732002 0.37641218 -0.111048065 -0.055553548 -0.3064229 0.38521978 -0.17134292 -0.16675675 0.31390223 0.6961407 0.08430754 0.0778757 -0.13453971 -0.2701432 -0.31024575 -0.11306708 0.11885942 -0.48815933 -0.2726064 -0.04815275 -0.5621961 -0.4302338 -0.5899266 0.82918257 0.021683194 0.050633512 -0.28695533 -0.227254 0.2376501 -0.037603572 0.73549426 0.38910273 -0.20139381 -0.9735784 -0.0776576 -0.29477507 0.38325626
questions 0.04238892 0.3577534 0.056500018 -0.24170323 0.31269056 0.07273792 -0.3455844 -0.36532512 -0.050388154 0.2198673 0.27866942 0.18875355 0.10452484 -0.7063642 -0.044529594 0.05322309 0.29854837 -0.392087 0.13657117 -0.07401907 0.1979489 0.08523336 -0.22626913 -0.033629432 -0.021581197 -0.21914728 -0.036258783 -0.09315865 0.2305499 -0.03587334 0.046338823 -0.03170664 0.02642059 -0.2577376 -0.25441727 0.28858298 0.16391645 0.20747708 0.50898474 0.064679846 0.31234592 -0.012873413 -0.23008409 -0.31603858 0.0965255 -0.40091574 -0.08816759 0.22958416 0.40568405 0.43443853 0.2675801 -0.22096033 -0.08867429 -0.387545 0.043093566 -0.1143885 -0.0013478859 -0.19253471 0.20895672 0.22333872 -0.042341802 -0.332676 -0.018886218 0.4909566 0.26467115 -0.079740144 -0.041274764 -0.21633795 0.2779001 -0.12268204 -0.12366044 0.22760569 0.5044291 0.060297105 0.056044437 -0.10111887 -0.19322067 -0.22882639 -0.07639656 0.09170501 -0.34909678 -0.19004174 -0.03585853 -0.40018204 -0.3025948 -0.42958555 0.5972167 0.020491738 0.040348627 -0.20482086 -0.16140315 0.1735541 -0.023052916 0.53009325 0.2782987 -0.14506641 -0.70455545 -0.062314913 -0.21966647 0.27743524
doesnt 0.051097006 0.43084875 0.06460479 -0.29226747 0.37775737 0.09267203 -0.41333163 -0.43345028 -0.064291656 0.2561722 0.32533976 0.22170442 0.13434482 -0.84577346 -0.060421836 0.065980844 0.35046217 -0.46715596 0.17099869 -0.087035194 0.23802629 0.107960805 -0.26784274 -0.037875637 -0.018134387 -0.25291786 -0.039992485 -0.112164326 0.2809453 -0.04621848 0.052742273 -0.040610623 0.029382585 -0.30867943 -0.29951885 0.34737647 0.19471277 0.24454679 0.60096216 0.075371824 0.37391433 -0.009873296 -0.27866697 -0.3730858 0.1133776 -0.48759857 -0.10690724 0.2771012 0.47966087 0.5178947 0.31837428 -0.25893626 -0.10784156 -0.46281344 0.05546051 -0.13776909 0.008038232 -0.23303208 0.24662438 0.27367967 -0.042751055 -0.38906336 -0.019066654 0.5849312 0.32191098 -0.0934528 -0.048457038 -0.26582146 0.3314591 -0.1461455 -0.14529362 0.26834136 0.5988887 0.07315285 0.07015605 -0.123503745 -0.23071525 -0.27171728 -0.096760064 0.10193808 -0.41346678 -0.23410462 -0.047081202 -0.48513335 -0.36993077 -0.50860596 0.7145794 0.022398 0.044483326 -0.24671908 -0.19206664 0.20510016 -0.030735184 0.6350523 0.33855015 -0.17573343 -0.8440231 -0.068637855 -0.2517728 0.33372003
error 0.04881484 0.37347975 0.05640965 -0.25206894 0.3267873 0.08106705 -0.35672814 -0.37253705 -0.049956422 0.22066617 0.28809488 0.19727306 0.109631516 -0.7262403 -0.054374505 0.05274857 0.29756644 -0.403476 0.14206897 -0.079200745 0.20866181 0.0950762 -0.23672643 -0.029614301 -0.021905461 -0.21875712 -0.036346104 -0.09967518 0.2374203 -0.045646146 0.045710243 -0.029857522 0.03347904 -0.26240593 -0.2555049 0.30531508 0.17634818 0.21850373 0.5247617 0.064651184 0.32420358 -0.01037604 -0.24339607 -0.32176188 0.09326314 -0.4194868 -0.09655065 0.23662192 0.4160447 0.45011944 0.27711928 -0.23207538 -0.09479753 -0.40270975 0.046292365 -0.11323334 0.0010765682 -0.20248793 0.22046916 0.2378016 -0.035823807 -0.3414049 -0.020824824 0.5020031 0.2785034 -0.08437402 -0.03409078 -0.23036413 0.28759474 -0.12548539 -0.12345811 0.23461182 0.5195412 0.06201617 0.058170132 -0.098120175 -0.19609003 -0.23613101 -0.07969544 0.08777283 -0.36071602 -0.20007373 -0.041484572 -0.41116136 -0.31870237 -0.437935 0.61657834 0.01280034 0.03684779 -0.21761855 -0.16628411 0.1729614 -0.023829294 0.5453995 0.2935176 -0.14686622 -0.72761124 -0.06323404 -0.22298911 0.28587526
even 0.049736504 0.40051347 0.05428206 -0.26834372 0.35037094 0.081394814 -0.38939992 -0.39916968 -0.057940967 0.24283496 0.30173734 0.21244544 0.123923205 -0.7893055 -0.053692903 0.06289697 0.32609963 -0.43615335 0.16083823 -0.08541463 0.2224636 0.09700446 -0.24901034 -0.032792874 -0.024335012 -0.2421081 -0.036839943 -0.104980424 0.26062456 -0.044147905 0.04995246 -0.03805935 0.03071724 -0.28665906 -0.2759777 0.32044584 0.18326774 0.23508039 0.5624554 0.06242864 0.34378582 -0.013633581 -0.25501382 -0.35321787 0.107611924 -0.4510766 -0.101767175 0.25995874 0.45563668 0.48343804 0.29932314 -0.24475273 -0.09889275 -0.4339318 0.046513997 -0.12763764 0.002415455 -0.21573237 0.23758684 0.25694907 -0.045550015 -0.36988282 -0.019863702 0.5424555 0.29467377 -0.092507616 -0.044429358 -0.2389095 0.3050304 -0.13806653 -0.13542849 0.25431 0.56598604 0.07000649 0.05965767 -0.11704436 -0.21031496 -0.24959636 -0.08562464 0.10282835 -0.39305335 -0.21967976 -0.043157935 -0.45285904 -0.34603673 -0.47560278 0.66529304 0.02165743 0.044533875 -0.23201321 -0.17582867 0.18784466 -0.02942329 0.58357984 0.316165 -0.15592925 -0.7858065 -0.06374306 -0.23822941 0.31140226
me 0.04208095 0.38623157 0.061420225 -0.26781553 0.34283167 0.08402381 -0.37777227 -0.397436 -0.05488334 0.23590326 0.30114156 0.20314623 0.12274069 -0.76669735 -0.057337735 0.06337632 0.32468182 -0.42745185 0.1574051 -0.08140832 0.2138762 0.09416538 -0.24890631 -0.037832797 -0.021687971 -0.2327701 -0.036849823 -0.0958263 0.25778362 -0.04462346 0.04326168 -0.037349954 0.035530634 -0.28457415 -0.27630153 0.3230563 0.18702053 0.23103516 0.5463382 0.06784266 0.33986107 -0.013023776 -0.25195482 -0.34173816 0.10664018 -0.445195 -0.098433055 0.2522059 0.4445452 0.4714719 0.29594824 -0.237075 -0.091556326 -0.41834077 0.053178024 -0.12017882 0.0046259444 -0.21013585 0.22905463 0.24918166 -0.036651846 -0.3596136 -0.013021309 0.53336537 0.29787862 -0.0852857 -0.043073487 -0.23679629 0.29773995 -0.12771179 -0.13194683 0.24951418 0.54607195 0.06848019 0.05694728 -0.109111354 -0.2118952 -0.24652973 -0.083661854 0.09647773 -0.3808858 -0.21032487 -0.04355412 -0.43861973 -0.3385835 -0.46695808 0.6467425 0.022018716 0.041761436 -0.23065957 -0.1771595 0.18438531 -0.023188334 0.5737309 0.30553117 -0.15369672 -0.7709746 -0.065284476 -0.23620479 0.30503953
